digraph Tree {
node [shape=box, style="filled, rounded", color="black", fontname=helvetica] ;
edge [fontname=helvetica] ;
0 [label=<X<SUB>22</SUB> &le; 0.5<br/>gini = 0.375<br/>samples = 26948<br/>value = [20210, 6738]>, fillcolor="#e58139aa"] ;
1 [label=<X<SUB>2</SUB> &le; 8297.0<br/>gini = 0.208<br/>samples = 14437<br/>value = [12732, 1705]>, fillcolor="#e58139dd"] ;
0 -> 1 [labeldistance=2.5, labelangle=45, headlabel="True"] ;
2 [label=<X<SUB>9</SUB> &le; 2366.5<br/>gini = 0.19<br/>samples = 14185<br/>value = [12679, 1506]>, fillcolor="#e58139e1"] ;
1 -> 2 ;
3 [label=<X<SUB>6</SUB> &le; 13.5<br/>gini = 0.186<br/>samples = 14137<br/>value = [12667, 1470]>, fillcolor="#e58139e1"] ;
2 -> 3 ;
4 [label=<X<SUB>0</SUB> &le; 47.5<br/>gini = 0.157<br/>samples = 11218<br/>value = [10254, 964]>, fillcolor="#e58139e7"] ;
3 -> 4 ;
5 [label=<X<SUB>2</SUB> &le; 4719.5<br/>gini = 0.146<br/>samples = 9757<br/>value = [8984, 773]>, fillcolor="#e58139e9"] ;
4 -> 5 ;
6 [label=<X<SUB>28</SUB> &le; 0.5<br/>gini = 0.144<br/>samples = 9716<br/>value = [8955, 761]>, fillcolor="#e58139e9"] ;
5 -> 6 ;
7 [label=<X<SUB>9</SUB> &le; 2143.5<br/>gini = 0.155<br/>samples = 6584<br/>value = [6027, 557]>, fillcolor="#e58139e7"] ;
6 -> 7 ;
8 [label=<X<SUB>61</SUB> &le; 0.5<br/>gini = 0.154<br/>samples = 6563<br/>value = [6012, 551]>, fillcolor="#e58139e8"] ;
7 -> 8 ;
9 [label=<X<SUB>25</SUB> &le; 0.5<br/>gini = 0.153<br/>samples = 6526<br/>value = [5983, 543]>, fillcolor="#e58139e8"] ;
8 -> 9 ;
10 [label=<X<SUB>10</SUB> &le; 23843.0<br/>gini = 0.16<br/>samples = 5275<br/>value = [4812, 463]>, fillcolor="#e58139e6"] ;
9 -> 10 ;
11 [label=<X<SUB>10</SUB> &le; 23021.0<br/>gini = 0.342<br/>samples = 32<br/>value = [25, 7]>, fillcolor="#e58139b8"] ;
10 -> 11 ;
12 [label=<X<SUB>43</SUB> &le; 0.5<br/>gini = 0.147<br/>samples = 25<br/>value = [23, 2]>, fillcolor="#e58139e9"] ;
11 -> 12 ;
13 [label=<X<SUB>27</SUB> &le; 0.5<br/>gini = 0.087<br/>samples = 22<br/>value = [21, 1]>, fillcolor="#e58139f3"] ;
12 -> 13 ;
14 [label=<gini = 0.0<br/>samples = 18<br/>value = [18, 0]>, fillcolor="#e58139ff"] ;
13 -> 14 ;
15 [label=<X<SUB>51</SUB> &le; 0.5<br/>gini = 0.375<br/>samples = 4<br/>value = [3, 1]>, fillcolor="#e58139aa"] ;
13 -> 15 ;
16 [label=<gini = 0.0<br/>samples = 3<br/>value = [3, 0]>, fillcolor="#e58139ff"] ;
15 -> 16 ;
17 [label=<gini = 0.0<br/>samples = 1<br/>value = [0, 1]>, fillcolor="#399de5ff"] ;
15 -> 17 ;
18 [label=<X<SUB>10</SUB> &le; 20374.0<br/>gini = 0.444<br/>samples = 3<br/>value = [2, 1]>, fillcolor="#e581397f"] ;
12 -> 18 ;
19 [label=<gini = 0.0<br/>samples = 1<br/>value = [0, 1]>, fillcolor="#399de5ff"] ;
18 -> 19 ;
20 [label=<gini = 0.0<br/>samples = 2<br/>value = [2, 0]>, fillcolor="#e58139ff"] ;
18 -> 20 ;
21 [label=<X<SUB>66</SUB> &le; 0.5<br/>gini = 0.408<br/>samples = 7<br/>value = [2, 5]>, fillcolor="#399de599"] ;
11 -> 21 ;
22 [label=<X<SUB>8</SUB> &le; 59.0<br/>gini = 0.278<br/>samples = 6<br/>value = [1, 5]>, fillcolor="#399de5cc"] ;
21 -> 22 ;
23 [label=<gini = 0.0<br/>samples = 5<br/>value = [0, 5]>, fillcolor="#399de5ff"] ;
22 -> 23 ;
24 [label=<gini = 0.0<br/>samples = 1<br/>value = [1, 0]>, fillcolor="#e58139ff"] ;
22 -> 24 ;
25 [label=<gini = 0.0<br/>samples = 1<br/>value = [1, 0]>, fillcolor="#e58139ff"] ;
21 -> 25 ;
26 [label=<X<SUB>33</SUB> &le; 0.5<br/>gini = 0.159<br/>samples = 5243<br/>value = [4787, 456]>, fillcolor="#e58139e7"] ;
10 -> 26 ;
27 [label=<X<SUB>38</SUB> &le; 0.5<br/>gini = 0.164<br/>samples = 4661<br/>value = [4240, 421]>, fillcolor="#e58139e6"] ;
26 -> 27 ;
28 [label=<X<SUB>10</SUB> &le; 126266.5<br/>gini = 0.16<br/>samples = 4353<br/>value = [3970, 383]>, fillcolor="#e58139e6"] ;
27 -> 28 ;
29 [label=<X<SUB>49</SUB> &le; 0.5<br/>gini = 0.186<br/>samples = 1135<br/>value = [1017, 118]>, fillcolor="#e58139e1"] ;
28 -> 29 ;
30 [label=<X<SUB>10</SUB> &le; 126189.5<br/>gini = 0.172<br/>samples = 1063<br/>value = [962, 101]>, fillcolor="#e58139e4"] ;
29 -> 30 ;
31 [label=<X<SUB>10</SUB> &le; 37728.5<br/>gini = 0.171<br/>samples = 1062<br/>value = [962, 100]>, fillcolor="#e58139e4"] ;
30 -> 31 ;
32 [label=<X<SUB>23</SUB> &le; 0.5<br/>gini = 0.09<br/>samples = 148<br/>value = [141, 7]>, fillcolor="#e58139f2"] ;
31 -> 32 ;
33 [label=<X<SUB>30</SUB> &le; 0.5<br/>gini = 0.056<br/>samples = 139<br/>value = [135, 4]>, fillcolor="#e58139f7"] ;
32 -> 33 ;
34 [label=<gini = 0.0<br/>samples = 94<br/>value = [94, 0]>, fillcolor="#e58139ff"] ;
33 -> 34 ;
35 [label=<X<SUB>8</SUB> &le; 26.5<br/>gini = 0.162<br/>samples = 45<br/>value = [41, 4]>, fillcolor="#e58139e6"] ;
33 -> 35 ;
36 [label=<X<SUB>8</SUB> &le; 23.5<br/>gini = 0.375<br/>samples = 8<br/>value = [6, 2]>, fillcolor="#e58139aa"] ;
35 -> 36 ;
37 [label=<gini = 0.0<br/>samples = 5<br/>value = [5, 0]>, fillcolor="#e58139ff"] ;
36 -> 37 ;
38 [label=<X<SUB>20</SUB> &le; 0.5<br/>gini = 0.444<br/>samples = 3<br/>value = [1, 2]>, fillcolor="#399de57f"] ;
36 -> 38 ;
39 [label=<gini = 0.0<br/>samples = 1<br/>value = [1, 0]>, fillcolor="#e58139ff"] ;
38 -> 39 ;
40 [label=<gini = 0.0<br/>samples = 2<br/>value = [0, 2]>, fillcolor="#399de5ff"] ;
38 -> 40 ;
41 [label=<X<SUB>0</SUB> &le; 18.5<br/>gini = 0.102<br/>samples = 37<br/>value = [35, 2]>, fillcolor="#e58139f0"] ;
35 -> 41 ;
42 [label=<X<SUB>6</SUB> &le; 10.5<br/>gini = 0.444<br/>samples = 3<br/>value = [2, 1]>, fillcolor="#e581397f"] ;
41 -> 42 ;
43 [label=<gini = 0.0<br/>samples = 2<br/>value = [2, 0]>, fillcolor="#e58139ff"] ;
42 -> 43 ;
44 [label=<gini = 0.0<br/>samples = 1<br/>value = [0, 1]>, fillcolor="#399de5ff"] ;
42 -> 44 ;
45 [label=<X<SUB>20</SUB> &le; 0.5<br/>gini = 0.057<br/>samples = 34<br/>value = [33, 1]>, fillcolor="#e58139f7"] ;
41 -> 45 ;
46 [label=<gini = 0.0<br/>samples = 24<br/>value = [24, 0]>, fillcolor="#e58139ff"] ;
45 -> 46 ;
47 [label=<X<SUB>8</SUB> &le; 41.5<br/>gini = 0.18<br/>samples = 10<br/>value = [9, 1]>, fillcolor="#e58139e3"] ;
45 -> 47 ;
48 [label=<gini = 0.0<br/>samples = 8<br/>value = [8, 0]>, fillcolor="#e58139ff"] ;
47 -> 48 ;
49 [label=<X<SUB>6</SUB> &le; 11.5<br/>gini = 0.5<br/>samples = 2<br/>value = [1, 1]>, fillcolor="#e5813900"] ;
47 -> 49 ;
50 [label=<gini = 0.0<br/>samples = 1<br/>value = [0, 1]>, fillcolor="#399de5ff"] ;
49 -> 50 ;
51 [label=<gini = 0.0<br/>samples = 1<br/>value = [1, 0]>, fillcolor="#e58139ff"] ;
49 -> 51 ;
52 [label=<X<SUB>5</SUB> &le; 0.5<br/>gini = 0.444<br/>samples = 9<br/>value = [6, 3]>, fillcolor="#e581397f"] ;
32 -> 52 ;
53 [label=<gini = 0.0<br/>samples = 4<br/>value = [4, 0]>, fillcolor="#e58139ff"] ;
52 -> 53 ;
54 [label=<X<SUB>1</SUB> &le; 0.5<br/>gini = 0.48<br/>samples = 5<br/>value = [2, 3]>, fillcolor="#399de555"] ;
52 -> 54 ;
55 [label=<X<SUB>14</SUB> &le; 0.5<br/>gini = 0.444<br/>samples = 3<br/>value = [2, 1]>, fillcolor="#e581397f"] ;
54 -> 55 ;
56 [label=<gini = 0.0<br/>samples = 2<br/>value = [2, 0]>, fillcolor="#e58139ff"] ;
55 -> 56 ;
57 [label=<gini = 0.0<br/>samples = 1<br/>value = [0, 1]>, fillcolor="#399de5ff"] ;
55 -> 57 ;
58 [label=<gini = 0.0<br/>samples = 2<br/>value = [0, 2]>, fillcolor="#399de5ff"] ;
54 -> 58 ;
59 [label=<X<SUB>10</SUB> &le; 43415.5<br/>gini = 0.183<br/>samples = 914<br/>value = [821, 93]>, fillcolor="#e58139e2"] ;
31 -> 59 ;
60 [label=<X<SUB>10</SUB> &le; 42595.0<br/>gini = 0.408<br/>samples = 42<br/>value = [30, 12]>, fillcolor="#e5813999"] ;
59 -> 60 ;
61 [label=<X<SUB>10</SUB> &le; 40421.5<br/>gini = 0.361<br/>samples = 38<br/>value = [29, 9]>, fillcolor="#e58139b0"] ;
60 -> 61 ;
62 [label=<X<SUB>4</SUB> &le; 0.5<br/>gini = 0.454<br/>samples = 23<br/>value = [15, 8]>, fillcolor="#e5813977"] ;
61 -> 62 ;
63 [label=<X<SUB>10</SUB> &le; 38443.5<br/>gini = 0.49<br/>samples = 7<br/>value = [3, 4]>, fillcolor="#399de540"] ;
62 -> 63 ;
64 [label=<gini = 0.0<br/>samples = 2<br/>value = [0, 2]>, fillcolor="#399de5ff"] ;
63 -> 64 ;
65 [label=<X<SUB>18</SUB> &le; 0.5<br/>gini = 0.48<br/>samples = 5<br/>value = [3, 2]>, fillcolor="#e5813955"] ;
63 -> 65 ;
66 [label=<gini = 0.0<br/>samples = 2<br/>value = [2, 0]>, fillcolor="#e58139ff"] ;
65 -> 66 ;
67 [label=<X<SUB>23</SUB> &le; 0.5<br/>gini = 0.444<br/>samples = 3<br/>value = [1, 2]>, fillcolor="#399de57f"] ;
65 -> 67 ;
68 [label=<X<SUB>8</SUB> &le; 37.0<br/>gini = 0.5<br/>samples = 2<br/>value = [1, 1]>, fillcolor="#e5813900"] ;
67 -> 68 ;
69 [label=<gini = 0.0<br/>samples = 1<br/>value = [1, 0]>, fillcolor="#e58139ff"] ;
68 -> 69 ;
70 [label=<gini = 0.0<br/>samples = 1<br/>value = [0, 1]>, fillcolor="#399de5ff"] ;
68 -> 70 ;
71 [label=<gini = 0.0<br/>samples = 1<br/>value = [0, 1]>, fillcolor="#399de5ff"] ;
67 -> 71 ;
72 [label=<X<SUB>10</SUB> &le; 39608.5<br/>gini = 0.375<br/>samples = 16<br/>value = [12, 4]>, fillcolor="#e58139aa"] ;
62 -> 72 ;
73 [label=<X<SUB>10</SUB> &le; 37803.0<br/>gini = 0.26<br/>samples = 13<br/>value = [11, 2]>, fillcolor="#e58139d1"] ;
72 -> 73 ;
74 [label=<gini = 0.0<br/>samples = 1<br/>value = [0, 1]>, fillcolor="#399de5ff"] ;
73 -> 74 ;
75 [label=<X<SUB>8</SUB> &le; 45.5<br/>gini = 0.153<br/>samples = 12<br/>value = [11, 1]>, fillcolor="#e58139e8"] ;
73 -> 75 ;
76 [label=<gini = 0.0<br/>samples = 8<br/>value = [8, 0]>, fillcolor="#e58139ff"] ;
75 -> 76 ;
77 [label=<X<SUB>19</SUB> &le; 0.5<br/>gini = 0.375<br/>samples = 4<br/>value = [3, 1]>, fillcolor="#e58139aa"] ;
75 -> 77 ;
78 [label=<gini = 0.0<br/>samples = 3<br/>value = [3, 0]>, fillcolor="#e58139ff"] ;
77 -> 78 ;
79 [label=<gini = 0.0<br/>samples = 1<br/>value = [0, 1]>, fillcolor="#399de5ff"] ;
77 -> 79 ;
80 [label=<X<SUB>8</SUB> &le; 45.5<br/>gini = 0.444<br/>samples = 3<br/>value = [1, 2]>, fillcolor="#399de57f"] ;
72 -> 80 ;
81 [label=<gini = 0.0<br/>samples = 2<br/>value = [0, 2]>, fillcolor="#399de5ff"] ;
80 -> 81 ;
82 [label=<gini = 0.0<br/>samples = 1<br/>value = [1, 0]>, fillcolor="#e58139ff"] ;
80 -> 82 ;
83 [label=<X<SUB>13</SUB> &le; 0.5<br/>gini = 0.124<br/>samples = 15<br/>value = [14, 1]>, fillcolor="#e58139ed"] ;
61 -> 83 ;
84 [label=<gini = 0.0<br/>samples = 10<br/>value = [10, 0]>, fillcolor="#e58139ff"] ;
83 -> 84 ;
85 [label=<X<SUB>8</SUB> &le; 36.0<br/>gini = 0.32<br/>samples = 5<br/>value = [4, 1]>, fillcolor="#e58139bf"] ;
83 -> 85 ;
86 [label=<X<SUB>1</SUB> &le; 0.5<br/>gini = 0.5<br/>samples = 2<br/>value = [1, 1]>, fillcolor="#e5813900"] ;
85 -> 86 ;
87 [label=<gini = 0.0<br/>samples = 1<br/>value = [1, 0]>, fillcolor="#e58139ff"] ;
86 -> 87 ;
88 [label=<gini = 0.0<br/>samples = 1<br/>value = [0, 1]>, fillcolor="#399de5ff"] ;
86 -> 88 ;
89 [label=<gini = 0.0<br/>samples = 3<br/>value = [3, 0]>, fillcolor="#e58139ff"] ;
85 -> 89 ;
90 [label=<X<SUB>6</SUB> &le; 10.5<br/>gini = 0.375<br/>samples = 4<br/>value = [1, 3]>, fillcolor="#399de5aa"] ;
60 -> 90 ;
91 [label=<gini = 0.0<br/>samples = 1<br/>value = [1, 0]>, fillcolor="#e58139ff"] ;
90 -> 91 ;
92 [label=<gini = 0.0<br/>samples = 3<br/>value = [0, 3]>, fillcolor="#399de5ff"] ;
90 -> 92 ;
93 [label=<X<SUB>8</SUB> &le; 41.5<br/>gini = 0.169<br/>samples = 872<br/>value = [791, 81]>, fillcolor="#e58139e5"] ;
59 -> 93 ;
94 [label=<X<SUB>2</SUB> &le; 3871.5<br/>gini = 0.142<br/>samples = 522<br/>value = [482, 40]>, fillcolor="#e58139ea"] ;
93 -> 94 ;
95 [label=<X<SUB>21</SUB> &le; 0.5<br/>gini = 0.139<br/>samples = 521<br/>value = [482, 39]>, fillcolor="#e58139ea"] ;
94 -> 95 ;
96 [label=<X<SUB>24</SUB> &le; 0.5<br/>gini = 0.133<br/>samples = 515<br/>value = [478, 37]>, fillcolor="#e58139eb"] ;
95 -> 96 ;
97 [label=<X<SUB>9</SUB> &le; 1991.5<br/>gini = 0.124<br/>samples = 497<br/>value = [464, 33]>, fillcolor="#e58139ed"] ;
96 -> 97 ;
98 [label=<X<SUB>6</SUB> &le; 11.5<br/>gini = 0.121<br/>samples = 495<br/>value = [463, 32]>, fillcolor="#e58139ed"] ;
97 -> 98 ;
99 [label=<X<SUB>64</SUB> &le; 0.5<br/>gini = 0.106<br/>samples = 428<br/>value = [404, 24]>, fillcolor="#e58139f0"] ;
98 -> 99 ;
100 [label=<X<SUB>2</SUB> &le; 3152.0<br/>gini = 0.102<br/>samples = 425<br/>value = [402, 23]>, fillcolor="#e58139f0"] ;
99 -> 100 ;
101 [label=<X<SUB>0</SUB> &le; 36.5<br/>gini = 0.099<br/>samples = 422<br/>value = [400, 22]>, fillcolor="#e58139f1"] ;
100 -> 101 ;
102 [label=<X<SUB>10</SUB> &le; 90759.0<br/>gini = 0.168<br/>samples = 97<br/>value = [88, 9]>, fillcolor="#e58139e5"] ;
101 -> 102 ;
103 [label=<X<SUB>10</SUB> &le; 84021.5<br/>gini = 0.334<br/>samples = 33<br/>value = [26, 7]>, fillcolor="#e58139ba"] ;
102 -> 103 ;
104 [label=<X<SUB>9</SUB> &le; 798.0<br/>gini = 0.278<br/>samples = 30<br/>value = [25, 5]>, fillcolor="#e58139cc"] ;
103 -> 104 ;
105 [label=<X<SUB>29</SUB> &le; 0.5<br/>gini = 0.238<br/>samples = 29<br/>value = [25, 4]>, fillcolor="#e58139d6"] ;
104 -> 105 ;
106 [label=<X<SUB>51</SUB> &le; 0.5<br/>gini = 0.153<br/>samples = 24<br/>value = [22, 2]>, fillcolor="#e58139e8"] ;
105 -> 106 ;
107 [label=<X<SUB>14</SUB> &le; 0.5<br/>gini = 0.087<br/>samples = 22<br/>value = [21, 1]>, fillcolor="#e58139f3"] ;
106 -> 107 ;
108 [label=<gini = 0.0<br/>samples = 19<br/>value = [19, 0]>, fillcolor="#e58139ff"] ;
107 -> 108 ;
109 [label=<X<SUB>10</SUB> &le; 60121.5<br/>gini = 0.444<br/>samples = 3<br/>value = [2, 1]>, fillcolor="#e581397f"] ;
107 -> 109 ;
110 [label=<gini = 0.0<br/>samples = 2<br/>value = [2, 0]>, fillcolor="#e58139ff"] ;
109 -> 110 ;
111 [label=<gini = 0.0<br/>samples = 1<br/>value = [0, 1]>, fillcolor="#399de5ff"] ;
109 -> 111 ;
112 [label=<X<SUB>1</SUB> &le; 0.5<br/>gini = 0.5<br/>samples = 2<br/>value = [1, 1]>, fillcolor="#e5813900"] ;
106 -> 112 ;
113 [label=<gini = 0.0<br/>samples = 1<br/>value = [0, 1]>, fillcolor="#399de5ff"] ;
112 -> 113 ;
114 [label=<gini = 0.0<br/>samples = 1<br/>value = [1, 0]>, fillcolor="#e58139ff"] ;
112 -> 114 ;
115 [label=<X<SUB>10</SUB> &le; 62161.0<br/>gini = 0.48<br/>samples = 5<br/>value = [3, 2]>, fillcolor="#e5813955"] ;
105 -> 115 ;
116 [label=<gini = 0.0<br/>samples = 2<br/>value = [0, 2]>, fillcolor="#399de5ff"] ;
115 -> 116 ;
117 [label=<gini = 0.0<br/>samples = 3<br/>value = [3, 0]>, fillcolor="#e58139ff"] ;
115 -> 117 ;
118 [label=<gini = 0.0<br/>samples = 1<br/>value = [0, 1]>, fillcolor="#399de5ff"] ;
104 -> 118 ;
119 [label=<X<SUB>12</SUB> &le; 0.5<br/>gini = 0.444<br/>samples = 3<br/>value = [1, 2]>, fillcolor="#399de57f"] ;
103 -> 119 ;
120 [label=<gini = 0.0<br/>samples = 1<br/>value = [0, 1]>, fillcolor="#399de5ff"] ;
119 -> 120 ;
121 [label=<X<SUB>0</SUB> &le; 28.5<br/>gini = 0.5<br/>samples = 2<br/>value = [1, 1]>, fillcolor="#e5813900"] ;
119 -> 121 ;
122 [label=<gini = 0.0<br/>samples = 1<br/>value = [1, 0]>, fillcolor="#e58139ff"] ;
121 -> 122 ;
123 [label=<gini = 0.0<br/>samples = 1<br/>value = [0, 1]>, fillcolor="#399de5ff"] ;
121 -> 123 ;
124 [label=<X<SUB>23</SUB> &le; 0.5<br/>gini = 0.061<br/>samples = 64<br/>value = [62, 2]>, fillcolor="#e58139f7"] ;
102 -> 124 ;
125 [label=<X<SUB>45</SUB> &le; 0.5<br/>gini = 0.032<br/>samples = 62<br/>value = [61, 1]>, fillcolor="#e58139fb"] ;
124 -> 125 ;
126 [label=<gini = 0.0<br/>samples = 59<br/>value = [59, 0]>, fillcolor="#e58139ff"] ;
125 -> 126 ;
127 [label=<X<SUB>0</SUB> &le; 23.5<br/>gini = 0.444<br/>samples = 3<br/>value = [2, 1]>, fillcolor="#e581397f"] ;
125 -> 127 ;
128 [label=<gini = 0.0<br/>samples = 2<br/>value = [2, 0]>, fillcolor="#e58139ff"] ;
127 -> 128 ;
129 [label=<gini = 0.0<br/>samples = 1<br/>value = [0, 1]>, fillcolor="#399de5ff"] ;
127 -> 129 ;
130 [label=<X<SUB>3</SUB> &le; 0.5<br/>gini = 0.5<br/>samples = 2<br/>value = [1, 1]>, fillcolor="#e5813900"] ;
124 -> 130 ;
131 [label=<gini = 0.0<br/>samples = 1<br/>value = [1, 0]>, fillcolor="#e58139ff"] ;
130 -> 131 ;
132 [label=<gini = 0.0<br/>samples = 1<br/>value = [0, 1]>, fillcolor="#399de5ff"] ;
130 -> 132 ;
133 [label=<X<SUB>10</SUB> &le; 118871.0<br/>gini = 0.077<br/>samples = 325<br/>value = [312, 13]>, fillcolor="#e58139f4"] ;
101 -> 133 ;
134 [label=<X<SUB>59</SUB> &le; 0.5<br/>gini = 0.054<br/>samples = 288<br/>value = [280, 8]>, fillcolor="#e58139f8"] ;
133 -> 134 ;
135 [label=<X<SUB>29</SUB> &le; 0.5<br/>gini = 0.048<br/>samples = 285<br/>value = [278, 7]>, fillcolor="#e58139f9"] ;
134 -> 135 ;
136 [label=<X<SUB>0</SUB> &le; 45.0<br/>gini = 0.037<br/>samples = 262<br/>value = [257, 5]>, fillcolor="#e58139fa"] ;
135 -> 136 ;
137 [label=<X<SUB>27</SUB> &le; 0.5<br/>gini = 0.025<br/>samples = 233<br/>value = [230, 3]>, fillcolor="#e58139fc"] ;
136 -> 137 ;
138 [label=<X<SUB>10</SUB> &le; 51120.0<br/>gini = 0.01<br/>samples = 198<br/>value = [197, 1]>, fillcolor="#e58139fe"] ;
137 -> 138 ;
139 [label=<X<SUB>10</SUB> &le; 50670.0<br/>gini = 0.105<br/>samples = 18<br/>value = [17, 1]>, fillcolor="#e58139f0"] ;
138 -> 139 ;
140 [label=<gini = 0.0<br/>samples = 17<br/>value = [17, 0]>, fillcolor="#e58139ff"] ;
139 -> 140 ;
141 [label=<gini = 0.0<br/>samples = 1<br/>value = [0, 1]>, fillcolor="#399de5ff"] ;
139 -> 141 ;
142 [label=<gini = 0.0<br/>samples = 180<br/>value = [180, 0]>, fillcolor="#e58139ff"] ;
138 -> 142 ;
143 [label=<X<SUB>10</SUB> &le; 59374.0<br/>gini = 0.108<br/>samples = 35<br/>value = [33, 2]>, fillcolor="#e58139f0"] ;
137 -> 143 ;
144 [label=<X<SUB>8</SUB> &le; 35.0<br/>gini = 0.375<br/>samples = 4<br/>value = [3, 1]>, fillcolor="#e58139aa"] ;
143 -> 144 ;
145 [label=<gini = 0.0<br/>samples = 3<br/>value = [3, 0]>, fillcolor="#e58139ff"] ;
144 -> 145 ;
146 [label=<gini = 0.0<br/>samples = 1<br/>value = [0, 1]>, fillcolor="#399de5ff"] ;
144 -> 146 ;
147 [label=<X<SUB>16</SUB> &le; 0.5<br/>gini = 0.062<br/>samples = 31<br/>value = [30, 1]>, fillcolor="#e58139f6"] ;
143 -> 147 ;
148 [label=<gini = 0.0<br/>samples = 25<br/>value = [25, 0]>, fillcolor="#e58139ff"] ;
147 -> 148 ;
149 [label=<X<SUB>10</SUB> &le; 104591.5<br/>gini = 0.278<br/>samples = 6<br/>value = [5, 1]>, fillcolor="#e58139cc"] ;
147 -> 149 ;
150 [label=<gini = 0.0<br/>samples = 4<br/>value = [4, 0]>, fillcolor="#e58139ff"] ;
149 -> 150 ;
151 [label=<X<SUB>57</SUB> &le; 0.5<br/>gini = 0.5<br/>samples = 2<br/>value = [1, 1]>, fillcolor="#e5813900"] ;
149 -> 151 ;
152 [label=<gini = 0.0<br/>samples = 1<br/>value = [0, 1]>, fillcolor="#399de5ff"] ;
151 -> 152 ;
153 [label=<gini = 0.0<br/>samples = 1<br/>value = [1, 0]>, fillcolor="#e58139ff"] ;
151 -> 153 ;
154 [label=<X<SUB>20</SUB> &le; 0.5<br/>gini = 0.128<br/>samples = 29<br/>value = [27, 2]>, fillcolor="#e58139ec"] ;
136 -> 154 ;
155 [label=<X<SUB>8</SUB> &le; 26.5<br/>gini = 0.245<br/>samples = 14<br/>value = [12, 2]>, fillcolor="#e58139d4"] ;
154 -> 155 ;
156 [label=<gini = 0.0<br/>samples = 1<br/>value = [0, 1]>, fillcolor="#399de5ff"] ;
155 -> 156 ;
157 [label=<X<SUB>10</SUB> &le; 91381.0<br/>gini = 0.142<br/>samples = 13<br/>value = [12, 1]>, fillcolor="#e58139ea"] ;
155 -> 157 ;
158 [label=<X<SUB>10</SUB> &le; 77661.0<br/>gini = 0.375<br/>samples = 4<br/>value = [3, 1]>, fillcolor="#e58139aa"] ;
157 -> 158 ;
159 [label=<gini = 0.0<br/>samples = 3<br/>value = [3, 0]>, fillcolor="#e58139ff"] ;
158 -> 159 ;
160 [label=<gini = 0.0<br/>samples = 1<br/>value = [0, 1]>, fillcolor="#399de5ff"] ;
158 -> 160 ;
161 [label=<gini = 0.0<br/>samples = 9<br/>value = [9, 0]>, fillcolor="#e58139ff"] ;
157 -> 161 ;
162 [label=<gini = 0.0<br/>samples = 15<br/>value = [15, 0]>, fillcolor="#e58139ff"] ;
154 -> 162 ;
163 [label=<X<SUB>14</SUB> &le; 0.5<br/>gini = 0.159<br/>samples = 23<br/>value = [21, 2]>, fillcolor="#e58139e7"] ;
135 -> 163 ;
164 [label=<X<SUB>13</SUB> &le; 0.5<br/>gini = 0.091<br/>samples = 21<br/>value = [20, 1]>, fillcolor="#e58139f2"] ;
163 -> 164 ;
165 [label=<gini = 0.0<br/>samples = 18<br/>value = [18, 0]>, fillcolor="#e58139ff"] ;
164 -> 165 ;
166 [label=<X<SUB>5</SUB> &le; 0.5<br/>gini = 0.444<br/>samples = 3<br/>value = [2, 1]>, fillcolor="#e581397f"] ;
164 -> 166 ;
167 [label=<gini = 0.0<br/>samples = 2<br/>value = [2, 0]>, fillcolor="#e58139ff"] ;
166 -> 167 ;
168 [label=<gini = 0.0<br/>samples = 1<br/>value = [0, 1]>, fillcolor="#399de5ff"] ;
166 -> 168 ;
169 [label=<X<SUB>10</SUB> &le; 54254.5<br/>gini = 0.5<br/>samples = 2<br/>value = [1, 1]>, fillcolor="#e5813900"] ;
163 -> 169 ;
170 [label=<gini = 0.0<br/>samples = 1<br/>value = [0, 1]>, fillcolor="#399de5ff"] ;
169 -> 170 ;
171 [label=<gini = 0.0<br/>samples = 1<br/>value = [1, 0]>, fillcolor="#e58139ff"] ;
169 -> 171 ;
172 [label=<X<SUB>1</SUB> &le; 0.5<br/>gini = 0.444<br/>samples = 3<br/>value = [2, 1]>, fillcolor="#e581397f"] ;
134 -> 172 ;
173 [label=<gini = 0.0<br/>samples = 2<br/>value = [2, 0]>, fillcolor="#e58139ff"] ;
172 -> 173 ;
174 [label=<gini = 0.0<br/>samples = 1<br/>value = [0, 1]>, fillcolor="#399de5ff"] ;
172 -> 174 ;
175 [label=<X<SUB>27</SUB> &le; 0.5<br/>gini = 0.234<br/>samples = 37<br/>value = [32, 5]>, fillcolor="#e58139d7"] ;
133 -> 175 ;
176 [label=<X<SUB>0</SUB> &le; 40.0<br/>gini = 0.17<br/>samples = 32<br/>value = [29, 3]>, fillcolor="#e58139e5"] ;
175 -> 176 ;
177 [label=<X<SUB>7</SUB> &le; 0.5<br/>gini = 0.5<br/>samples = 2<br/>value = [1, 1]>, fillcolor="#e5813900"] ;
176 -> 177 ;
178 [label=<gini = 0.0<br/>samples = 1<br/>value = [0, 1]>, fillcolor="#399de5ff"] ;
177 -> 178 ;
179 [label=<gini = 0.0<br/>samples = 1<br/>value = [1, 0]>, fillcolor="#e58139ff"] ;
177 -> 179 ;
180 [label=<X<SUB>5</SUB> &le; 0.5<br/>gini = 0.124<br/>samples = 30<br/>value = [28, 2]>, fillcolor="#e58139ed"] ;
176 -> 180 ;
181 [label=<gini = 0.0<br/>samples = 19<br/>value = [19, 0]>, fillcolor="#e58139ff"] ;
180 -> 181 ;
182 [label=<X<SUB>18</SUB> &le; 0.5<br/>gini = 0.298<br/>samples = 11<br/>value = [9, 2]>, fillcolor="#e58139c6"] ;
180 -> 182 ;
183 [label=<gini = 0.0<br/>samples = 5<br/>value = [5, 0]>, fillcolor="#e58139ff"] ;
182 -> 183 ;
184 [label=<X<SUB>10</SUB> &le; 122821.0<br/>gini = 0.444<br/>samples = 6<br/>value = [4, 2]>, fillcolor="#e581397f"] ;
182 -> 184 ;
185 [label=<X<SUB>30</SUB> &le; 0.5<br/>gini = 0.444<br/>samples = 3<br/>value = [1, 2]>, fillcolor="#399de57f"] ;
184 -> 185 ;
186 [label=<gini = 0.0<br/>samples = 1<br/>value = [1, 0]>, fillcolor="#e58139ff"] ;
185 -> 186 ;
187 [label=<gini = 0.0<br/>samples = 2<br/>value = [0, 2]>, fillcolor="#399de5ff"] ;
185 -> 187 ;
188 [label=<gini = 0.0<br/>samples = 3<br/>value = [3, 0]>, fillcolor="#e58139ff"] ;
184 -> 188 ;
189 [label=<X<SUB>10</SUB> &le; 123824.5<br/>gini = 0.48<br/>samples = 5<br/>value = [3, 2]>, fillcolor="#e5813955"] ;
175 -> 189 ;
190 [label=<X<SUB>18</SUB> &le; 0.5<br/>gini = 0.444<br/>samples = 3<br/>value = [1, 2]>, fillcolor="#399de57f"] ;
189 -> 190 ;
191 [label=<X<SUB>8</SUB> &le; 31.5<br/>gini = 0.5<br/>samples = 2<br/>value = [1, 1]>, fillcolor="#e5813900"] ;
190 -> 191 ;
192 [label=<gini = 0.0<br/>samples = 1<br/>value = [1, 0]>, fillcolor="#e58139ff"] ;
191 -> 192 ;
193 [label=<gini = 0.0<br/>samples = 1<br/>value = [0, 1]>, fillcolor="#399de5ff"] ;
191 -> 193 ;
194 [label=<gini = 0.0<br/>samples = 1<br/>value = [0, 1]>, fillcolor="#399de5ff"] ;
190 -> 194 ;
195 [label=<gini = 0.0<br/>samples = 2<br/>value = [2, 0]>, fillcolor="#e58139ff"] ;
189 -> 195 ;
196 [label=<X<SUB>8</SUB> &le; 26.5<br/>gini = 0.444<br/>samples = 3<br/>value = [2, 1]>, fillcolor="#e581397f"] ;
100 -> 196 ;
197 [label=<gini = 0.0<br/>samples = 1<br/>value = [0, 1]>, fillcolor="#399de5ff"] ;
196 -> 197 ;
198 [label=<gini = 0.0<br/>samples = 2<br/>value = [2, 0]>, fillcolor="#e58139ff"] ;
196 -> 198 ;
199 [label=<X<SUB>8</SUB> &le; 32.0<br/>gini = 0.444<br/>samples = 3<br/>value = [2, 1]>, fillcolor="#e581397f"] ;
99 -> 199 ;
200 [label=<gini = 0.0<br/>samples = 2<br/>value = [2, 0]>, fillcolor="#e58139ff"] ;
199 -> 200 ;
201 [label=<gini = 0.0<br/>samples = 1<br/>value = [0, 1]>, fillcolor="#399de5ff"] ;
199 -> 201 ;
202 [label=<X<SUB>10</SUB> &le; 47713.0<br/>gini = 0.21<br/>samples = 67<br/>value = [59, 8]>, fillcolor="#e58139dc"] ;
98 -> 202 ;
203 [label=<gini = 0.0<br/>samples = 1<br/>value = [0, 1]>, fillcolor="#399de5ff"] ;
202 -> 203 ;
204 [label=<X<SUB>13</SUB> &le; 0.5<br/>gini = 0.19<br/>samples = 66<br/>value = [59, 7]>, fillcolor="#e58139e1"] ;
202 -> 204 ;
205 [label=<X<SUB>10</SUB> &le; 90672.5<br/>gini = 0.283<br/>samples = 41<br/>value = [34, 7]>, fillcolor="#e58139ca"] ;
204 -> 205 ;
206 [label=<gini = 0.0<br/>samples = 12<br/>value = [12, 0]>, fillcolor="#e58139ff"] ;
205 -> 206 ;
207 [label=<X<SUB>10</SUB> &le; 110072.0<br/>gini = 0.366<br/>samples = 29<br/>value = [22, 7]>, fillcolor="#e58139ae"] ;
205 -> 207 ;
208 [label=<X<SUB>10</SUB> &le; 105511.0<br/>gini = 0.475<br/>samples = 18<br/>value = [11, 7]>, fillcolor="#e581395d"] ;
207 -> 208 ;
209 [label=<X<SUB>0</SUB> &le; 43.0<br/>gini = 0.408<br/>samples = 14<br/>value = [10, 4]>, fillcolor="#e5813999"] ;
208 -> 209 ;
210 [label=<X<SUB>10</SUB> &le; 98336.5<br/>gini = 0.494<br/>samples = 9<br/>value = [5, 4]>, fillcolor="#e5813933"] ;
209 -> 210 ;
211 [label=<X<SUB>30</SUB> &le; 0.5<br/>gini = 0.32<br/>samples = 5<br/>value = [1, 4]>, fillcolor="#399de5bf"] ;
210 -> 211 ;
212 [label=<gini = 0.0<br/>samples = 4<br/>value = [0, 4]>, fillcolor="#399de5ff"] ;
211 -> 212 ;
213 [label=<gini = 0.0<br/>samples = 1<br/>value = [1, 0]>, fillcolor="#e58139ff"] ;
211 -> 213 ;
214 [label=<gini = 0.0<br/>samples = 4<br/>value = [4, 0]>, fillcolor="#e58139ff"] ;
210 -> 214 ;
215 [label=<gini = 0.0<br/>samples = 5<br/>value = [5, 0]>, fillcolor="#e58139ff"] ;
209 -> 215 ;
216 [label=<X<SUB>19</SUB> &le; 0.5<br/>gini = 0.375<br/>samples = 4<br/>value = [1, 3]>, fillcolor="#399de5aa"] ;
208 -> 216 ;
217 [label=<gini = 0.0<br/>samples = 1<br/>value = [1, 0]>, fillcolor="#e58139ff"] ;
216 -> 217 ;
218 [label=<gini = 0.0<br/>samples = 3<br/>value = [0, 3]>, fillcolor="#399de5ff"] ;
216 -> 218 ;
219 [label=<gini = 0.0<br/>samples = 11<br/>value = [11, 0]>, fillcolor="#e58139ff"] ;
207 -> 219 ;
220 [label=<gini = 0.0<br/>samples = 25<br/>value = [25, 0]>, fillcolor="#e58139ff"] ;
204 -> 220 ;
221 [label=<X<SUB>10</SUB> &le; 90330.0<br/>gini = 0.5<br/>samples = 2<br/>value = [1, 1]>, fillcolor="#e5813900"] ;
97 -> 221 ;
222 [label=<gini = 0.0<br/>samples = 1<br/>value = [0, 1]>, fillcolor="#399de5ff"] ;
221 -> 222 ;
223 [label=<gini = 0.0<br/>samples = 1<br/>value = [1, 0]>, fillcolor="#e58139ff"] ;
221 -> 223 ;
224 [label=<X<SUB>14</SUB> &le; 0.5<br/>gini = 0.346<br/>samples = 18<br/>value = [14, 4]>, fillcolor="#e58139b6"] ;
96 -> 224 ;
225 [label=<X<SUB>27</SUB> &le; 0.5<br/>gini = 0.219<br/>samples = 16<br/>value = [14, 2]>, fillcolor="#e58139db"] ;
224 -> 225 ;
226 [label=<X<SUB>0</SUB> &le; 31.5<br/>gini = 0.133<br/>samples = 14<br/>value = [13, 1]>, fillcolor="#e58139eb"] ;
225 -> 226 ;
227 [label=<X<SUB>12</SUB> &le; 0.5<br/>gini = 0.444<br/>samples = 3<br/>value = [2, 1]>, fillcolor="#e581397f"] ;
226 -> 227 ;
228 [label=<gini = 0.0<br/>samples = 1<br/>value = [0, 1]>, fillcolor="#399de5ff"] ;
227 -> 228 ;
229 [label=<gini = 0.0<br/>samples = 2<br/>value = [2, 0]>, fillcolor="#e58139ff"] ;
227 -> 229 ;
230 [label=<gini = 0.0<br/>samples = 11<br/>value = [11, 0]>, fillcolor="#e58139ff"] ;
226 -> 230 ;
231 [label=<X<SUB>8</SUB> &le; 30.0<br/>gini = 0.5<br/>samples = 2<br/>value = [1, 1]>, fillcolor="#e5813900"] ;
225 -> 231 ;
232 [label=<gini = 0.0<br/>samples = 1<br/>value = [1, 0]>, fillcolor="#e58139ff"] ;
231 -> 232 ;
233 [label=<gini = 0.0<br/>samples = 1<br/>value = [0, 1]>, fillcolor="#399de5ff"] ;
231 -> 233 ;
234 [label=<gini = 0.0<br/>samples = 2<br/>value = [0, 2]>, fillcolor="#399de5ff"] ;
224 -> 234 ;
235 [label=<X<SUB>19</SUB> &le; 0.5<br/>gini = 0.444<br/>samples = 6<br/>value = [4, 2]>, fillcolor="#e581397f"] ;
95 -> 235 ;
236 [label=<gini = 0.0<br/>samples = 4<br/>value = [4, 0]>, fillcolor="#e58139ff"] ;
235 -> 236 ;
237 [label=<gini = 0.0<br/>samples = 2<br/>value = [0, 2]>, fillcolor="#399de5ff"] ;
235 -> 237 ;
238 [label=<gini = 0.0<br/>samples = 1<br/>value = [0, 1]>, fillcolor="#399de5ff"] ;
94 -> 238 ;
239 [label=<X<SUB>10</SUB> &le; 70697.0<br/>gini = 0.207<br/>samples = 350<br/>value = [309, 41]>, fillcolor="#e58139dd"] ;
93 -> 239 ;
240 [label=<X<SUB>8</SUB> &le; 44.5<br/>gini = 0.082<br/>samples = 70<br/>value = [67, 3]>, fillcolor="#e58139f4"] ;
239 -> 240 ;
241 [label=<X<SUB>10</SUB> &le; 64326.0<br/>gini = 0.291<br/>samples = 17<br/>value = [14, 3]>, fillcolor="#e58139c8"] ;
240 -> 241 ;
242 [label=<X<SUB>10</SUB> &le; 51148.5<br/>gini = 0.444<br/>samples = 9<br/>value = [6, 3]>, fillcolor="#e581397f"] ;
241 -> 242 ;
243 [label=<gini = 0.0<br/>samples = 3<br/>value = [3, 0]>, fillcolor="#e58139ff"] ;
242 -> 243 ;
244 [label=<X<SUB>0</SUB> &le; 43.5<br/>gini = 0.5<br/>samples = 6<br/>value = [3, 3]>, fillcolor="#e5813900"] ;
242 -> 244 ;
245 [label=<X<SUB>6</SUB> &le; 11.0<br/>gini = 0.48<br/>samples = 5<br/>value = [2, 3]>, fillcolor="#399de555"] ;
244 -> 245 ;
246 [label=<gini = 0.0<br/>samples = 2<br/>value = [0, 2]>, fillcolor="#399de5ff"] ;
245 -> 246 ;
247 [label=<X<SUB>19</SUB> &le; 0.5<br/>gini = 0.444<br/>samples = 3<br/>value = [2, 1]>, fillcolor="#e581397f"] ;
245 -> 247 ;
248 [label=<X<SUB>6</SUB> &le; 12.5<br/>gini = 0.5<br/>samples = 2<br/>value = [1, 1]>, fillcolor="#e5813900"] ;
247 -> 248 ;
249 [label=<gini = 0.0<br/>samples = 1<br/>value = [1, 0]>, fillcolor="#e58139ff"] ;
248 -> 249 ;
250 [label=<gini = 0.0<br/>samples = 1<br/>value = [0, 1]>, fillcolor="#399de5ff"] ;
248 -> 250 ;
251 [label=<gini = 0.0<br/>samples = 1<br/>value = [1, 0]>, fillcolor="#e58139ff"] ;
247 -> 251 ;
252 [label=<gini = 0.0<br/>samples = 1<br/>value = [1, 0]>, fillcolor="#e58139ff"] ;
244 -> 252 ;
253 [label=<gini = 0.0<br/>samples = 8<br/>value = [8, 0]>, fillcolor="#e58139ff"] ;
241 -> 253 ;
254 [label=<gini = 0.0<br/>samples = 53<br/>value = [53, 0]>, fillcolor="#e58139ff"] ;
240 -> 254 ;
255 [label=<X<SUB>5</SUB> &le; 0.5<br/>gini = 0.235<br/>samples = 280<br/>value = [242, 38]>, fillcolor="#e58139d7"] ;
239 -> 255 ;
256 [label=<X<SUB>4</SUB> &le; 0.5<br/>gini = 0.292<br/>samples = 175<br/>value = [144, 31]>, fillcolor="#e58139c8"] ;
255 -> 256 ;
257 [label=<X<SUB>9</SUB> &le; 1960.0<br/>gini = 0.163<br/>samples = 56<br/>value = [51, 5]>, fillcolor="#e58139e6"] ;
256 -> 257 ;
258 [label=<X<SUB>8</SUB> &le; 49.5<br/>gini = 0.135<br/>samples = 55<br/>value = [51, 4]>, fillcolor="#e58139eb"] ;
257 -> 258 ;
259 [label=<X<SUB>0</SUB> &le; 40.0<br/>gini = 0.278<br/>samples = 18<br/>value = [15, 3]>, fillcolor="#e58139cc"] ;
258 -> 259 ;
260 [label=<X<SUB>7</SUB> &le; 0.5<br/>gini = 0.48<br/>samples = 5<br/>value = [3, 2]>, fillcolor="#e5813955"] ;
259 -> 260 ;
261 [label=<gini = 0.0<br/>samples = 1<br/>value = [0, 1]>, fillcolor="#399de5ff"] ;
260 -> 261 ;
262 [label=<X<SUB>8</SUB> &le; 47.5<br/>gini = 0.375<br/>samples = 4<br/>value = [3, 1]>, fillcolor="#e58139aa"] ;
260 -> 262 ;
263 [label=<X<SUB>13</SUB> &le; 0.5<br/>gini = 0.5<br/>samples = 2<br/>value = [1, 1]>, fillcolor="#e5813900"] ;
262 -> 263 ;
264 [label=<gini = 0.0<br/>samples = 1<br/>value = [1, 0]>, fillcolor="#e58139ff"] ;
263 -> 264 ;
265 [label=<gini = 0.0<br/>samples = 1<br/>value = [0, 1]>, fillcolor="#399de5ff"] ;
263 -> 265 ;
266 [label=<gini = 0.0<br/>samples = 2<br/>value = [2, 0]>, fillcolor="#e58139ff"] ;
262 -> 266 ;
267 [label=<X<SUB>8</SUB> &le; 43.5<br/>gini = 0.142<br/>samples = 13<br/>value = [12, 1]>, fillcolor="#e58139ea"] ;
259 -> 267 ;
268 [label=<X<SUB>0</SUB> &le; 43.5<br/>gini = 0.5<br/>samples = 2<br/>value = [1, 1]>, fillcolor="#e5813900"] ;
267 -> 268 ;
269 [label=<gini = 0.0<br/>samples = 1<br/>value = [0, 1]>, fillcolor="#399de5ff"] ;
268 -> 269 ;
270 [label=<gini = 0.0<br/>samples = 1<br/>value = [1, 0]>, fillcolor="#e58139ff"] ;
268 -> 270 ;
271 [label=<gini = 0.0<br/>samples = 11<br/>value = [11, 0]>, fillcolor="#e58139ff"] ;
267 -> 271 ;
272 [label=<X<SUB>35</SUB> &le; 0.5<br/>gini = 0.053<br/>samples = 37<br/>value = [36, 1]>, fillcolor="#e58139f8"] ;
258 -> 272 ;
273 [label=<gini = 0.0<br/>samples = 35<br/>value = [35, 0]>, fillcolor="#e58139ff"] ;
272 -> 273 ;
274 [label=<X<SUB>47</SUB> &le; 0.5<br/>gini = 0.5<br/>samples = 2<br/>value = [1, 1]>, fillcolor="#e5813900"] ;
272 -> 274 ;
275 [label=<gini = 0.0<br/>samples = 1<br/>value = [0, 1]>, fillcolor="#399de5ff"] ;
274 -> 275 ;
276 [label=<gini = 0.0<br/>samples = 1<br/>value = [1, 0]>, fillcolor="#e58139ff"] ;
274 -> 276 ;
277 [label=<gini = 0.0<br/>samples = 1<br/>value = [0, 1]>, fillcolor="#399de5ff"] ;
257 -> 277 ;
278 [label=<X<SUB>8</SUB> &le; 63.5<br/>gini = 0.342<br/>samples = 119<br/>value = [93, 26]>, fillcolor="#e58139b8"] ;
256 -> 278 ;
279 [label=<X<SUB>45</SUB> &le; 0.5<br/>gini = 0.37<br/>samples = 102<br/>value = [77, 25]>, fillcolor="#e58139ac"] ;
278 -> 279 ;
280 [label=<X<SUB>66</SUB> &le; 0.5<br/>gini = 0.347<br/>samples = 94<br/>value = [73, 21]>, fillcolor="#e58139b6"] ;
279 -> 280 ;
281 [label=<X<SUB>19</SUB> &le; 0.5<br/>gini = 0.369<br/>samples = 86<br/>value = [65, 21]>, fillcolor="#e58139ad"] ;
280 -> 281 ;
282 [label=<X<SUB>13</SUB> &le; 0.5<br/>gini = 0.48<br/>samples = 5<br/>value = [2, 3]>, fillcolor="#399de555"] ;
281 -> 282 ;
283 [label=<X<SUB>8</SUB> &le; 45.5<br/>gini = 0.444<br/>samples = 3<br/>value = [2, 1]>, fillcolor="#e581397f"] ;
282 -> 283 ;
284 [label=<gini = 0.0<br/>samples = 1<br/>value = [0, 1]>, fillcolor="#399de5ff"] ;
283 -> 284 ;
285 [label=<gini = 0.0<br/>samples = 2<br/>value = [2, 0]>, fillcolor="#e58139ff"] ;
283 -> 285 ;
286 [label=<gini = 0.0<br/>samples = 2<br/>value = [0, 2]>, fillcolor="#399de5ff"] ;
282 -> 286 ;
287 [label=<X<SUB>29</SUB> &le; 0.5<br/>gini = 0.346<br/>samples = 81<br/>value = [63, 18]>, fillcolor="#e58139b6"] ;
281 -> 287 ;
288 [label=<X<SUB>10</SUB> &le; 74676.0<br/>gini = 0.32<br/>samples = 75<br/>value = [60, 15]>, fillcolor="#e58139bf"] ;
287 -> 288 ;
289 [label=<X<SUB>8</SUB> &le; 55.5<br/>gini = 0.5<br/>samples = 4<br/>value = [2, 2]>, fillcolor="#e5813900"] ;
288 -> 289 ;
290 [label=<gini = 0.0<br/>samples = 2<br/>value = [2, 0]>, fillcolor="#e58139ff"] ;
289 -> 290 ;
291 [label=<gini = 0.0<br/>samples = 2<br/>value = [0, 2]>, fillcolor="#399de5ff"] ;
289 -> 291 ;
292 [label=<X<SUB>14</SUB> &le; 0.5<br/>gini = 0.299<br/>samples = 71<br/>value = [58, 13]>, fillcolor="#e58139c6"] ;
288 -> 292 ;
293 [label=<X<SUB>43</SUB> &le; 0.5<br/>gini = 0.233<br/>samples = 52<br/>value = [45, 7]>, fillcolor="#e58139d7"] ;
292 -> 293 ;
294 [label=<X<SUB>10</SUB> &le; 109814.0<br/>gini = 0.187<br/>samples = 48<br/>value = [43, 5]>, fillcolor="#e58139e1"] ;
293 -> 294 ;
295 [label=<X<SUB>10</SUB> &le; 83179.5<br/>gini = 0.074<br/>samples = 26<br/>value = [25, 1]>, fillcolor="#e58139f5"] ;
294 -> 295 ;
296 [label=<X<SUB>8</SUB> &le; 52.0<br/>gini = 0.375<br/>samples = 4<br/>value = [3, 1]>, fillcolor="#e58139aa"] ;
295 -> 296 ;
297 [label=<gini = 0.0<br/>samples = 1<br/>value = [0, 1]>, fillcolor="#399de5ff"] ;
296 -> 297 ;
298 [label=<gini = 0.0<br/>samples = 3<br/>value = [3, 0]>, fillcolor="#e58139ff"] ;
296 -> 298 ;
299 [label=<gini = 0.0<br/>samples = 22<br/>value = [22, 0]>, fillcolor="#e58139ff"] ;
295 -> 299 ;
300 [label=<X<SUB>6</SUB> &le; 11.5<br/>gini = 0.298<br/>samples = 22<br/>value = [18, 4]>, fillcolor="#e58139c6"] ;
294 -> 300 ;
301 [label=<X<SUB>10</SUB> &le; 110692.0<br/>gini = 0.245<br/>samples = 21<br/>value = [18, 3]>, fillcolor="#e58139d4"] ;
300 -> 301 ;
302 [label=<gini = 0.0<br/>samples = 1<br/>value = [0, 1]>, fillcolor="#399de5ff"] ;
301 -> 302 ;
303 [label=<X<SUB>9</SUB> &le; 783.0<br/>gini = 0.18<br/>samples = 20<br/>value = [18, 2]>, fillcolor="#e58139e3"] ;
301 -> 303 ;
304 [label=<X<SUB>8</SUB> &le; 62.5<br/>gini = 0.1<br/>samples = 19<br/>value = [18, 1]>, fillcolor="#e58139f1"] ;
303 -> 304 ;
305 [label=<gini = 0.0<br/>samples = 17<br/>value = [17, 0]>, fillcolor="#e58139ff"] ;
304 -> 305 ;
306 [label=<X<SUB>11</SUB> &le; 0.5<br/>gini = 0.5<br/>samples = 2<br/>value = [1, 1]>, fillcolor="#e5813900"] ;
304 -> 306 ;
307 [label=<gini = 0.0<br/>samples = 1<br/>value = [1, 0]>, fillcolor="#e58139ff"] ;
306 -> 307 ;
308 [label=<gini = 0.0<br/>samples = 1<br/>value = [0, 1]>, fillcolor="#399de5ff"] ;
306 -> 308 ;
309 [label=<gini = 0.0<br/>samples = 1<br/>value = [0, 1]>, fillcolor="#399de5ff"] ;
303 -> 309 ;
310 [label=<gini = 0.0<br/>samples = 1<br/>value = [0, 1]>, fillcolor="#399de5ff"] ;
300 -> 310 ;
311 [label=<X<SUB>10</SUB> &le; 108935.5<br/>gini = 0.5<br/>samples = 4<br/>value = [2, 2]>, fillcolor="#e5813900"] ;
293 -> 311 ;
312 [label=<gini = 0.0<br/>samples = 2<br/>value = [0, 2]>, fillcolor="#399de5ff"] ;
311 -> 312 ;
313 [label=<gini = 0.0<br/>samples = 2<br/>value = [2, 0]>, fillcolor="#e58139ff"] ;
311 -> 313 ;
314 [label=<X<SUB>13</SUB> &le; 0.5<br/>gini = 0.432<br/>samples = 19<br/>value = [13, 6]>, fillcolor="#e5813989"] ;
292 -> 314 ;
315 [label=<X<SUB>20</SUB> &le; 0.5<br/>gini = 0.219<br/>samples = 8<br/>value = [7, 1]>, fillcolor="#e58139db"] ;
314 -> 315 ;
316 [label=<gini = 0.0<br/>samples = 5<br/>value = [5, 0]>, fillcolor="#e58139ff"] ;
315 -> 316 ;
317 [label=<X<SUB>8</SUB> &le; 55.5<br/>gini = 0.444<br/>samples = 3<br/>value = [2, 1]>, fillcolor="#e581397f"] ;
315 -> 317 ;
318 [label=<gini = 0.0<br/>samples = 1<br/>value = [0, 1]>, fillcolor="#399de5ff"] ;
317 -> 318 ;
319 [label=<gini = 0.0<br/>samples = 2<br/>value = [2, 0]>, fillcolor="#e58139ff"] ;
317 -> 319 ;
320 [label=<X<SUB>8</SUB> &le; 51.5<br/>gini = 0.496<br/>samples = 11<br/>value = [6, 5]>, fillcolor="#e581392a"] ;
314 -> 320 ;
321 [label=<X<SUB>8</SUB> &le; 43.5<br/>gini = 0.375<br/>samples = 4<br/>value = [1, 3]>, fillcolor="#399de5aa"] ;
320 -> 321 ;
322 [label=<gini = 0.0<br/>samples = 1<br/>value = [1, 0]>, fillcolor="#e58139ff"] ;
321 -> 322 ;
323 [label=<gini = 0.0<br/>samples = 3<br/>value = [0, 3]>, fillcolor="#399de5ff"] ;
321 -> 323 ;
324 [label=<X<SUB>0</SUB> &le; 40.0<br/>gini = 0.408<br/>samples = 7<br/>value = [5, 2]>, fillcolor="#e5813999"] ;
320 -> 324 ;
325 [label=<gini = 0.0<br/>samples = 1<br/>value = [0, 1]>, fillcolor="#399de5ff"] ;
324 -> 325 ;
326 [label=<X<SUB>6</SUB> &le; 6.5<br/>gini = 0.278<br/>samples = 6<br/>value = [5, 1]>, fillcolor="#e58139cc"] ;
324 -> 326 ;
327 [label=<gini = 0.0<br/>samples = 1<br/>value = [0, 1]>, fillcolor="#399de5ff"] ;
326 -> 327 ;
328 [label=<gini = 0.0<br/>samples = 5<br/>value = [5, 0]>, fillcolor="#e58139ff"] ;
326 -> 328 ;
329 [label=<X<SUB>13</SUB> &le; 0.5<br/>gini = 0.5<br/>samples = 6<br/>value = [3, 3]>, fillcolor="#e5813900"] ;
287 -> 329 ;
330 [label=<gini = 0.0<br/>samples = 3<br/>value = [3, 0]>, fillcolor="#e58139ff"] ;
329 -> 330 ;
331 [label=<gini = 0.0<br/>samples = 3<br/>value = [0, 3]>, fillcolor="#399de5ff"] ;
329 -> 331 ;
332 [label=<gini = 0.0<br/>samples = 8<br/>value = [8, 0]>, fillcolor="#e58139ff"] ;
280 -> 332 ;
333 [label=<X<SUB>0</SUB> &le; 39.5<br/>gini = 0.5<br/>samples = 8<br/>value = [4, 4]>, fillcolor="#e5813900"] ;
279 -> 333 ;
334 [label=<gini = 0.0<br/>samples = 3<br/>value = [3, 0]>, fillcolor="#e58139ff"] ;
333 -> 334 ;
335 [label=<X<SUB>40</SUB> &le; 0.5<br/>gini = 0.32<br/>samples = 5<br/>value = [1, 4]>, fillcolor="#399de5bf"] ;
333 -> 335 ;
336 [label=<gini = 0.0<br/>samples = 4<br/>value = [0, 4]>, fillcolor="#399de5ff"] ;
335 -> 336 ;
337 [label=<gini = 0.0<br/>samples = 1<br/>value = [1, 0]>, fillcolor="#e58139ff"] ;
335 -> 337 ;
338 [label=<X<SUB>10</SUB> &le; 124310.5<br/>gini = 0.111<br/>samples = 17<br/>value = [16, 1]>, fillcolor="#e58139ef"] ;
278 -> 338 ;
339 [label=<gini = 0.0<br/>samples = 16<br/>value = [16, 0]>, fillcolor="#e58139ff"] ;
338 -> 339 ;
340 [label=<gini = 0.0<br/>samples = 1<br/>value = [0, 1]>, fillcolor="#399de5ff"] ;
338 -> 340 ;
341 [label=<X<SUB>10</SUB> &le; 72936.5<br/>gini = 0.124<br/>samples = 105<br/>value = [98, 7]>, fillcolor="#e58139ed"] ;
255 -> 341 ;
342 [label=<gini = 0.0<br/>samples = 1<br/>value = [0, 1]>, fillcolor="#399de5ff"] ;
341 -> 342 ;
343 [label=<X<SUB>9</SUB> &le; 1644.0<br/>gini = 0.109<br/>samples = 104<br/>value = [98, 6]>, fillcolor="#e58139ef"] ;
341 -> 343 ;
344 [label=<X<SUB>10</SUB> &le; 99199.5<br/>gini = 0.092<br/>samples = 103<br/>value = [98, 5]>, fillcolor="#e58139f2"] ;
343 -> 344 ;
345 [label=<X<SUB>10</SUB> &le; 99183.0<br/>gini = 0.198<br/>samples = 36<br/>value = [32, 4]>, fillcolor="#e58139df"] ;
344 -> 345 ;
346 [label=<X<SUB>8</SUB> &le; 46.5<br/>gini = 0.157<br/>samples = 35<br/>value = [32, 3]>, fillcolor="#e58139e7"] ;
345 -> 346 ;
347 [label=<X<SUB>8</SUB> &le; 44.5<br/>gini = 0.32<br/>samples = 15<br/>value = [12, 3]>, fillcolor="#e58139bf"] ;
346 -> 347 ;
348 [label=<gini = 0.0<br/>samples = 7<br/>value = [7, 0]>, fillcolor="#e58139ff"] ;
347 -> 348 ;
349 [label=<X<SUB>10</SUB> &le; 97076.5<br/>gini = 0.469<br/>samples = 8<br/>value = [5, 3]>, fillcolor="#e5813966"] ;
347 -> 349 ;
350 [label=<X<SUB>20</SUB> &le; 0.5<br/>gini = 0.48<br/>samples = 5<br/>value = [2, 3]>, fillcolor="#399de555"] ;
349 -> 350 ;
351 [label=<X<SUB>10</SUB> &le; 94460.0<br/>gini = 0.375<br/>samples = 4<br/>value = [1, 3]>, fillcolor="#399de5aa"] ;
350 -> 351 ;
352 [label=<gini = 0.0<br/>samples = 2<br/>value = [0, 2]>, fillcolor="#399de5ff"] ;
351 -> 352 ;
353 [label=<X<SUB>10</SUB> &le; 96116.0<br/>gini = 0.5<br/>samples = 2<br/>value = [1, 1]>, fillcolor="#e5813900"] ;
351 -> 353 ;
354 [label=<gini = 0.0<br/>samples = 1<br/>value = [1, 0]>, fillcolor="#e58139ff"] ;
353 -> 354 ;
355 [label=<gini = 0.0<br/>samples = 1<br/>value = [0, 1]>, fillcolor="#399de5ff"] ;
353 -> 355 ;
356 [label=<gini = 0.0<br/>samples = 1<br/>value = [1, 0]>, fillcolor="#e58139ff"] ;
350 -> 356 ;
357 [label=<gini = 0.0<br/>samples = 3<br/>value = [3, 0]>, fillcolor="#e58139ff"] ;
349 -> 357 ;
358 [label=<gini = 0.0<br/>samples = 20<br/>value = [20, 0]>, fillcolor="#e58139ff"] ;
346 -> 358 ;
359 [label=<gini = 0.0<br/>samples = 1<br/>value = [0, 1]>, fillcolor="#399de5ff"] ;
345 -> 359 ;
360 [label=<X<SUB>47</SUB> &le; 0.5<br/>gini = 0.029<br/>samples = 67<br/>value = [66, 1]>, fillcolor="#e58139fb"] ;
344 -> 360 ;
361 [label=<gini = 0.0<br/>samples = 65<br/>value = [65, 0]>, fillcolor="#e58139ff"] ;
360 -> 361 ;
362 [label=<X<SUB>23</SUB> &le; 0.5<br/>gini = 0.5<br/>samples = 2<br/>value = [1, 1]>, fillcolor="#e5813900"] ;
360 -> 362 ;
363 [label=<gini = 0.0<br/>samples = 1<br/>value = [1, 0]>, fillcolor="#e58139ff"] ;
362 -> 363 ;
364 [label=<gini = 0.0<br/>samples = 1<br/>value = [0, 1]>, fillcolor="#399de5ff"] ;
362 -> 364 ;
365 [label=<gini = 0.0<br/>samples = 1<br/>value = [0, 1]>, fillcolor="#399de5ff"] ;
343 -> 365 ;
366 [label=<gini = 0.0<br/>samples = 1<br/>value = [0, 1]>, fillcolor="#399de5ff"] ;
30 -> 366 ;
367 [label=<X<SUB>10</SUB> &le; 121515.5<br/>gini = 0.361<br/>samples = 72<br/>value = [55, 17]>, fillcolor="#e58139b0"] ;
29 -> 367 ;
368 [label=<X<SUB>0</SUB> &le; 45.5<br/>gini = 0.323<br/>samples = 69<br/>value = [55, 14]>, fillcolor="#e58139be"] ;
367 -> 368 ;
369 [label=<X<SUB>35</SUB> &le; 0.5<br/>gini = 0.255<br/>samples = 60<br/>value = [51, 9]>, fillcolor="#e58139d2"] ;
368 -> 369 ;
370 [label=<X<SUB>54</SUB> &le; 0.5<br/>gini = 0.234<br/>samples = 59<br/>value = [51, 8]>, fillcolor="#e58139d7"] ;
369 -> 370 ;
371 [label=<X<SUB>8</SUB> &le; 56.5<br/>gini = 0.212<br/>samples = 58<br/>value = [51, 7]>, fillcolor="#e58139dc"] ;
370 -> 371 ;
372 [label=<X<SUB>55</SUB> &le; 0.5<br/>gini = 0.147<br/>samples = 50<br/>value = [46, 4]>, fillcolor="#e58139e9"] ;
371 -> 372 ;
373 [label=<X<SUB>10</SUB> &le; 114557.0<br/>gini = 0.115<br/>samples = 49<br/>value = [46, 3]>, fillcolor="#e58139ee"] ;
372 -> 373 ;
374 [label=<X<SUB>18</SUB> &le; 0.5<br/>gini = 0.085<br/>samples = 45<br/>value = [43, 2]>, fillcolor="#e58139f3"] ;
373 -> 374 ;
375 [label=<gini = 0.0<br/>samples = 27<br/>value = [27, 0]>, fillcolor="#e58139ff"] ;
374 -> 375 ;
376 [label=<X<SUB>10</SUB> &le; 62683.0<br/>gini = 0.198<br/>samples = 18<br/>value = [16, 2]>, fillcolor="#e58139df"] ;
374 -> 376 ;
377 [label=<X<SUB>10</SUB> &le; 57086.0<br/>gini = 0.298<br/>samples = 11<br/>value = [9, 2]>, fillcolor="#e58139c6"] ;
376 -> 377 ;
378 [label=<X<SUB>10</SUB> &le; 42209.0<br/>gini = 0.18<br/>samples = 10<br/>value = [9, 1]>, fillcolor="#e58139e3"] ;
377 -> 378 ;
379 [label=<X<SUB>10</SUB> &le; 36263.0<br/>gini = 0.375<br/>samples = 4<br/>value = [3, 1]>, fillcolor="#e58139aa"] ;
378 -> 379 ;
380 [label=<gini = 0.0<br/>samples = 3<br/>value = [3, 0]>, fillcolor="#e58139ff"] ;
379 -> 380 ;
381 [label=<gini = 0.0<br/>samples = 1<br/>value = [0, 1]>, fillcolor="#399de5ff"] ;
379 -> 381 ;
382 [label=<gini = 0.0<br/>samples = 6<br/>value = [6, 0]>, fillcolor="#e58139ff"] ;
378 -> 382 ;
383 [label=<gini = 0.0<br/>samples = 1<br/>value = [0, 1]>, fillcolor="#399de5ff"] ;
377 -> 383 ;
384 [label=<gini = 0.0<br/>samples = 7<br/>value = [7, 0]>, fillcolor="#e58139ff"] ;
376 -> 384 ;
385 [label=<X<SUB>6</SUB> &le; 8.5<br/>gini = 0.375<br/>samples = 4<br/>value = [3, 1]>, fillcolor="#e58139aa"] ;
373 -> 385 ;
386 [label=<gini = 0.0<br/>samples = 1<br/>value = [0, 1]>, fillcolor="#399de5ff"] ;
385 -> 386 ;
387 [label=<gini = 0.0<br/>samples = 3<br/>value = [3, 0]>, fillcolor="#e58139ff"] ;
385 -> 387 ;
388 [label=<gini = 0.0<br/>samples = 1<br/>value = [0, 1]>, fillcolor="#399de5ff"] ;
372 -> 388 ;
389 [label=<X<SUB>4</SUB> &le; 0.5<br/>gini = 0.469<br/>samples = 8<br/>value = [5, 3]>, fillcolor="#e5813966"] ;
371 -> 389 ;
390 [label=<gini = 0.0<br/>samples = 1<br/>value = [0, 1]>, fillcolor="#399de5ff"] ;
389 -> 390 ;
391 [label=<X<SUB>10</SUB> &le; 74104.0<br/>gini = 0.408<br/>samples = 7<br/>value = [5, 2]>, fillcolor="#e5813999"] ;
389 -> 391 ;
392 [label=<gini = 0.0<br/>samples = 4<br/>value = [4, 0]>, fillcolor="#e58139ff"] ;
391 -> 392 ;
393 [label=<X<SUB>10</SUB> &le; 103237.0<br/>gini = 0.444<br/>samples = 3<br/>value = [1, 2]>, fillcolor="#399de57f"] ;
391 -> 393 ;
394 [label=<gini = 0.0<br/>samples = 2<br/>value = [0, 2]>, fillcolor="#399de5ff"] ;
393 -> 394 ;
395 [label=<gini = 0.0<br/>samples = 1<br/>value = [1, 0]>, fillcolor="#e58139ff"] ;
393 -> 395 ;
396 [label=<gini = 0.0<br/>samples = 1<br/>value = [0, 1]>, fillcolor="#399de5ff"] ;
370 -> 396 ;
397 [label=<gini = 0.0<br/>samples = 1<br/>value = [0, 1]>, fillcolor="#399de5ff"] ;
369 -> 397 ;
398 [label=<X<SUB>8</SUB> &le; 27.5<br/>gini = 0.494<br/>samples = 9<br/>value = [4, 5]>, fillcolor="#399de533"] ;
368 -> 398 ;
399 [label=<gini = 0.0<br/>samples = 3<br/>value = [3, 0]>, fillcolor="#e58139ff"] ;
398 -> 399 ;
400 [label=<X<SUB>10</SUB> &le; 116386.5<br/>gini = 0.278<br/>samples = 6<br/>value = [1, 5]>, fillcolor="#399de5cc"] ;
398 -> 400 ;
401 [label=<gini = 0.0<br/>samples = 5<br/>value = [0, 5]>, fillcolor="#399de5ff"] ;
400 -> 401 ;
402 [label=<gini = 0.0<br/>samples = 1<br/>value = [1, 0]>, fillcolor="#e58139ff"] ;
400 -> 402 ;
403 [label=<gini = 0.0<br/>samples = 3<br/>value = [0, 3]>, fillcolor="#399de5ff"] ;
367 -> 403 ;
404 [label=<X<SUB>26</SUB> &le; 0.5<br/>gini = 0.151<br/>samples = 3218<br/>value = [2953, 265]>, fillcolor="#e58139e8"] ;
28 -> 404 ;
405 [label=<X<SUB>10</SUB> &le; 204642.0<br/>gini = 0.151<br/>samples = 3217<br/>value = [2953, 264]>, fillcolor="#e58139e8"] ;
404 -> 405 ;
406 [label=<X<SUB>73</SUB> &le; 0.5<br/>gini = 0.127<br/>samples = 1507<br/>value = [1404, 103]>, fillcolor="#e58139ec"] ;
405 -> 406 ;
407 [label=<X<SUB>10</SUB> &le; 199241.0<br/>gini = 0.125<br/>samples = 1502<br/>value = [1401, 101]>, fillcolor="#e58139ed"] ;
406 -> 407 ;
408 [label=<X<SUB>10</SUB> &le; 199212.0<br/>gini = 0.134<br/>samples = 1382<br/>value = [1282, 100]>, fillcolor="#e58139eb"] ;
407 -> 408 ;
409 [label=<X<SUB>8</SUB> &le; 31.5<br/>gini = 0.133<br/>samples = 1381<br/>value = [1282, 99]>, fillcolor="#e58139eb"] ;
408 -> 409 ;
410 [label=<X<SUB>36</SUB> &le; 0.5<br/>gini = 0.176<br/>samples = 409<br/>value = [369, 40]>, fillcolor="#e58139e3"] ;
409 -> 410 ;
411 [label=<X<SUB>54</SUB> &le; 0.5<br/>gini = 0.173<br/>samples = 408<br/>value = [369, 39]>, fillcolor="#e58139e4"] ;
410 -> 411 ;
412 [label=<X<SUB>9</SUB> &le; 1260.0<br/>gini = 0.164<br/>samples = 400<br/>value = [364, 36]>, fillcolor="#e58139e6"] ;
411 -> 412 ;
413 [label=<X<SUB>8</SUB> &le; 22.5<br/>gini = 0.155<br/>samples = 389<br/>value = [356, 33]>, fillcolor="#e58139e7"] ;
412 -> 413 ;
414 [label=<X<SUB>29</SUB> &le; 0.5<br/>gini = 0.027<br/>samples = 73<br/>value = [72, 1]>, fillcolor="#e58139fb"] ;
413 -> 414 ;
415 [label=<gini = 0.0<br/>samples = 69<br/>value = [69, 0]>, fillcolor="#e58139ff"] ;
414 -> 415 ;
416 [label=<X<SUB>66</SUB> &le; 0.5<br/>gini = 0.375<br/>samples = 4<br/>value = [3, 1]>, fillcolor="#e58139aa"] ;
414 -> 416 ;
417 [label=<gini = 0.0<br/>samples = 3<br/>value = [3, 0]>, fillcolor="#e58139ff"] ;
416 -> 417 ;
418 [label=<gini = 0.0<br/>samples = 1<br/>value = [0, 1]>, fillcolor="#399de5ff"] ;
416 -> 418 ;
419 [label=<X<SUB>55</SUB> &le; 0.5<br/>gini = 0.182<br/>samples = 316<br/>value = [284, 32]>, fillcolor="#e58139e2"] ;
413 -> 419 ;
420 [label=<X<SUB>8</SUB> &le; 23.5<br/>gini = 0.177<br/>samples = 315<br/>value = [284, 31]>, fillcolor="#e58139e3"] ;
419 -> 420 ;
421 [label=<X<SUB>59</SUB> &le; 0.5<br/>gini = 0.327<br/>samples = 34<br/>value = [27, 7]>, fillcolor="#e58139bd"] ;
420 -> 421 ;
422 [label=<X<SUB>6</SUB> &le; 7.5<br/>gini = 0.264<br/>samples = 32<br/>value = [27, 5]>, fillcolor="#e58139d0"] ;
421 -> 422 ;
423 [label=<X<SUB>0</SUB> &le; 36.0<br/>gini = 0.444<br/>samples = 3<br/>value = [1, 2]>, fillcolor="#399de57f"] ;
422 -> 423 ;
424 [label=<gini = 0.0<br/>samples = 1<br/>value = [1, 0]>, fillcolor="#e58139ff"] ;
423 -> 424 ;
425 [label=<gini = 0.0<br/>samples = 2<br/>value = [0, 2]>, fillcolor="#399de5ff"] ;
423 -> 425 ;
426 [label=<X<SUB>46</SUB> &le; 0.5<br/>gini = 0.185<br/>samples = 29<br/>value = [26, 3]>, fillcolor="#e58139e2"] ;
422 -> 426 ;
427 [label=<X<SUB>12</SUB> &le; 0.5<br/>gini = 0.133<br/>samples = 28<br/>value = [26, 2]>, fillcolor="#e58139eb"] ;
426 -> 427 ;
428 [label=<gini = 0.0<br/>samples = 17<br/>value = [17, 0]>, fillcolor="#e58139ff"] ;
427 -> 428 ;
429 [label=<X<SUB>16</SUB> &le; 0.5<br/>gini = 0.298<br/>samples = 11<br/>value = [9, 2]>, fillcolor="#e58139c6"] ;
427 -> 429 ;
430 [label=<gini = 0.0<br/>samples = 7<br/>value = [7, 0]>, fillcolor="#e58139ff"] ;
429 -> 430 ;
431 [label=<X<SUB>0</SUB> &le; 35.0<br/>gini = 0.5<br/>samples = 4<br/>value = [2, 2]>, fillcolor="#e5813900"] ;
429 -> 431 ;
432 [label=<gini = 0.0<br/>samples = 2<br/>value = [0, 2]>, fillcolor="#399de5ff"] ;
431 -> 432 ;
433 [label=<gini = 0.0<br/>samples = 2<br/>value = [2, 0]>, fillcolor="#e58139ff"] ;
431 -> 433 ;
434 [label=<gini = 0.0<br/>samples = 1<br/>value = [0, 1]>, fillcolor="#399de5ff"] ;
426 -> 434 ;
435 [label=<gini = 0.0<br/>samples = 2<br/>value = [0, 2]>, fillcolor="#399de5ff"] ;
421 -> 435 ;
436 [label=<X<SUB>10</SUB> &le; 182450.5<br/>gini = 0.156<br/>samples = 281<br/>value = [257, 24]>, fillcolor="#e58139e7"] ;
420 -> 436 ;
437 [label=<X<SUB>10</SUB> &le; 182386.0<br/>gini = 0.195<br/>samples = 201<br/>value = [179, 22]>, fillcolor="#e58139e0"] ;
436 -> 437 ;
438 [label=<X<SUB>8</SUB> &le; 30.5<br/>gini = 0.188<br/>samples = 200<br/>value = [179, 21]>, fillcolor="#e58139e1"] ;
437 -> 438 ;
439 [label=<X<SUB>11</SUB> &le; 0.5<br/>gini = 0.159<br/>samples = 172<br/>value = [157, 15]>, fillcolor="#e58139e7"] ;
438 -> 439 ;
440 [label=<gini = 0.0<br/>samples = 25<br/>value = [25, 0]>, fillcolor="#e58139ff"] ;
439 -> 440 ;
441 [label=<X<SUB>0</SUB> &le; 27.5<br/>gini = 0.183<br/>samples = 147<br/>value = [132, 15]>, fillcolor="#e58139e2"] ;
439 -> 441 ;
442 [label=<X<SUB>8</SUB> &le; 29.5<br/>gini = 0.408<br/>samples = 7<br/>value = [5, 2]>, fillcolor="#e5813999"] ;
441 -> 442 ;
443 [label=<X<SUB>40</SUB> &le; 0.5<br/>gini = 0.278<br/>samples = 6<br/>value = [5, 1]>, fillcolor="#e58139cc"] ;
442 -> 443 ;
444 [label=<gini = 0.0<br/>samples = 5<br/>value = [5, 0]>, fillcolor="#e58139ff"] ;
443 -> 444 ;
445 [label=<gini = 0.0<br/>samples = 1<br/>value = [0, 1]>, fillcolor="#399de5ff"] ;
443 -> 445 ;
446 [label=<gini = 0.0<br/>samples = 1<br/>value = [0, 1]>, fillcolor="#399de5ff"] ;
442 -> 446 ;
447 [label=<X<SUB>8</SUB> &le; 28.5<br/>gini = 0.168<br/>samples = 140<br/>value = [127, 13]>, fillcolor="#e58139e5"] ;
441 -> 447 ;
448 [label=<X<SUB>13</SUB> &le; 0.5<br/>gini = 0.196<br/>samples = 109<br/>value = [97, 12]>, fillcolor="#e58139df"] ;
447 -> 448 ;
449 [label=<X<SUB>4</SUB> &le; 0.5<br/>gini = 0.217<br/>samples = 97<br/>value = [85, 12]>, fillcolor="#e58139db"] ;
448 -> 449 ;
450 [label=<gini = 0.0<br/>samples = 12<br/>value = [12, 0]>, fillcolor="#e58139ff"] ;
449 -> 450 ;
451 [label=<X<SUB>10</SUB> &le; 130420.5<br/>gini = 0.242<br/>samples = 85<br/>value = [73, 12]>, fillcolor="#e58139d5"] ;
449 -> 451 ;
452 [label=<gini = 0.0<br/>samples = 8<br/>value = [8, 0]>, fillcolor="#e58139ff"] ;
451 -> 452 ;
453 [label=<X<SUB>10</SUB> &le; 132374.5<br/>gini = 0.263<br/>samples = 77<br/>value = [65, 12]>, fillcolor="#e58139d0"] ;
451 -> 453 ;
454 [label=<X<SUB>10</SUB> &le; 131642.5<br/>gini = 0.375<br/>samples = 4<br/>value = [1, 3]>, fillcolor="#399de5aa"] ;
453 -> 454 ;
455 [label=<X<SUB>6</SUB> &le; 11.0<br/>gini = 0.5<br/>samples = 2<br/>value = [1, 1]>, fillcolor="#e5813900"] ;
454 -> 455 ;
456 [label=<gini = 0.0<br/>samples = 1<br/>value = [1, 0]>, fillcolor="#e58139ff"] ;
455 -> 456 ;
457 [label=<gini = 0.0<br/>samples = 1<br/>value = [0, 1]>, fillcolor="#399de5ff"] ;
455 -> 457 ;
458 [label=<gini = 0.0<br/>samples = 2<br/>value = [0, 2]>, fillcolor="#399de5ff"] ;
454 -> 458 ;
459 [label=<X<SUB>0</SUB> &le; 44.5<br/>gini = 0.216<br/>samples = 73<br/>value = [64, 9]>, fillcolor="#e58139db"] ;
453 -> 459 ;
460 [label=<X<SUB>20</SUB> &le; 0.5<br/>gini = 0.187<br/>samples = 67<br/>value = [60, 7]>, fillcolor="#e58139e1"] ;
459 -> 460 ;
461 [label=<X<SUB>10</SUB> &le; 160350.0<br/>gini = 0.408<br/>samples = 7<br/>value = [5, 2]>, fillcolor="#e5813999"] ;
460 -> 461 ;
462 [label=<gini = 0.0<br/>samples = 5<br/>value = [5, 0]>, fillcolor="#e58139ff"] ;
461 -> 462 ;
463 [label=<gini = 0.0<br/>samples = 2<br/>value = [0, 2]>, fillcolor="#399de5ff"] ;
461 -> 463 ;
464 [label=<X<SUB>27</SUB> &le; 0.5<br/>gini = 0.153<br/>samples = 60<br/>value = [55, 5]>, fillcolor="#e58139e8"] ;
460 -> 464 ;
465 [label=<X<SUB>10</SUB> &le; 178182.5<br/>gini = 0.105<br/>samples = 54<br/>value = [51, 3]>, fillcolor="#e58139f0"] ;
464 -> 465 ;
466 [label=<X<SUB>8</SUB> &le; 26.5<br/>gini = 0.044<br/>samples = 44<br/>value = [43, 1]>, fillcolor="#e58139f9"] ;
465 -> 466 ;
467 [label=<gini = 0.0<br/>samples = 31<br/>value = [31, 0]>, fillcolor="#e58139ff"] ;
466 -> 467 ;
468 [label=<X<SUB>10</SUB> &le; 171943.5<br/>gini = 0.142<br/>samples = 13<br/>value = [12, 1]>, fillcolor="#e58139ea"] ;
466 -> 468 ;
469 [label=<gini = 0.0<br/>samples = 11<br/>value = [11, 0]>, fillcolor="#e58139ff"] ;
468 -> 469 ;
470 [label=<X<SUB>30</SUB> &le; 0.5<br/>gini = 0.5<br/>samples = 2<br/>value = [1, 1]>, fillcolor="#e5813900"] ;
468 -> 470 ;
471 [label=<gini = 0.0<br/>samples = 1<br/>value = [1, 0]>, fillcolor="#e58139ff"] ;
470 -> 471 ;
472 [label=<gini = 0.0<br/>samples = 1<br/>value = [0, 1]>, fillcolor="#399de5ff"] ;
470 -> 472 ;
473 [label=<X<SUB>10</SUB> &le; 178870.5<br/>gini = 0.32<br/>samples = 10<br/>value = [8, 2]>, fillcolor="#e58139bf"] ;
465 -> 473 ;
474 [label=<gini = 0.0<br/>samples = 1<br/>value = [0, 1]>, fillcolor="#399de5ff"] ;
473 -> 474 ;
475 [label=<X<SUB>17</SUB> &le; 0.5<br/>gini = 0.198<br/>samples = 9<br/>value = [8, 1]>, fillcolor="#e58139df"] ;
473 -> 475 ;
476 [label=<gini = 0.0<br/>samples = 7<br/>value = [7, 0]>, fillcolor="#e58139ff"] ;
475 -> 476 ;
477 [label=<X<SUB>14</SUB> &le; 0.5<br/>gini = 0.5<br/>samples = 2<br/>value = [1, 1]>, fillcolor="#e5813900"] ;
475 -> 477 ;
478 [label=<gini = 0.0<br/>samples = 1<br/>value = [0, 1]>, fillcolor="#399de5ff"] ;
477 -> 478 ;
479 [label=<gini = 0.0<br/>samples = 1<br/>value = [1, 0]>, fillcolor="#e58139ff"] ;
477 -> 479 ;
480 [label=<X<SUB>10</SUB> &le; 153656.0<br/>gini = 0.444<br/>samples = 6<br/>value = [4, 2]>, fillcolor="#e581397f"] ;
464 -> 480 ;
481 [label=<gini = 0.0<br/>samples = 2<br/>value = [0, 2]>, fillcolor="#399de5ff"] ;
480 -> 481 ;
482 [label=<gini = 0.0<br/>samples = 4<br/>value = [4, 0]>, fillcolor="#e58139ff"] ;
480 -> 482 ;
483 [label=<X<SUB>45</SUB> &le; 0.5<br/>gini = 0.444<br/>samples = 6<br/>value = [4, 2]>, fillcolor="#e581397f"] ;
459 -> 483 ;
484 [label=<X<SUB>16</SUB> &le; 0.5<br/>gini = 0.32<br/>samples = 5<br/>value = [4, 1]>, fillcolor="#e58139bf"] ;
483 -> 484 ;
485 [label=<X<SUB>0</SUB> &le; 46.5<br/>gini = 0.5<br/>samples = 2<br/>value = [1, 1]>, fillcolor="#e5813900"] ;
484 -> 485 ;
486 [label=<gini = 0.0<br/>samples = 1<br/>value = [0, 1]>, fillcolor="#399de5ff"] ;
485 -> 486 ;
487 [label=<gini = 0.0<br/>samples = 1<br/>value = [1, 0]>, fillcolor="#e58139ff"] ;
485 -> 487 ;
488 [label=<gini = 0.0<br/>samples = 3<br/>value = [3, 0]>, fillcolor="#e58139ff"] ;
484 -> 488 ;
489 [label=<gini = 0.0<br/>samples = 1<br/>value = [0, 1]>, fillcolor="#399de5ff"] ;
483 -> 489 ;
490 [label=<gini = 0.0<br/>samples = 12<br/>value = [12, 0]>, fillcolor="#e58139ff"] ;
448 -> 490 ;
491 [label=<X<SUB>13</SUB> &le; 0.5<br/>gini = 0.062<br/>samples = 31<br/>value = [30, 1]>, fillcolor="#e58139f6"] ;
447 -> 491 ;
492 [label=<gini = 0.0<br/>samples = 25<br/>value = [25, 0]>, fillcolor="#e58139ff"] ;
491 -> 492 ;
493 [label=<X<SUB>4</SUB> &le; 0.5<br/>gini = 0.278<br/>samples = 6<br/>value = [5, 1]>, fillcolor="#e58139cc"] ;
491 -> 493 ;
494 [label=<gini = 0.0<br/>samples = 1<br/>value = [0, 1]>, fillcolor="#399de5ff"] ;
493 -> 494 ;
495 [label=<gini = 0.0<br/>samples = 5<br/>value = [5, 0]>, fillcolor="#e58139ff"] ;
493 -> 495 ;
496 [label=<X<SUB>5</SUB> &le; 0.5<br/>gini = 0.337<br/>samples = 28<br/>value = [22, 6]>, fillcolor="#e58139b9"] ;
438 -> 496 ;
497 [label=<X<SUB>57</SUB> &le; 0.5<br/>gini = 0.111<br/>samples = 17<br/>value = [16, 1]>, fillcolor="#e58139ef"] ;
496 -> 497 ;
498 [label=<gini = 0.0<br/>samples = 16<br/>value = [16, 0]>, fillcolor="#e58139ff"] ;
497 -> 498 ;
499 [label=<gini = 0.0<br/>samples = 1<br/>value = [0, 1]>, fillcolor="#399de5ff"] ;
497 -> 499 ;
500 [label=<X<SUB>20</SUB> &le; 0.5<br/>gini = 0.496<br/>samples = 11<br/>value = [6, 5]>, fillcolor="#e581392a"] ;
496 -> 500 ;
501 [label=<X<SUB>2</SUB> &le; 576.5<br/>gini = 0.278<br/>samples = 6<br/>value = [5, 1]>, fillcolor="#e58139cc"] ;
500 -> 501 ;
502 [label=<gini = 0.0<br/>samples = 5<br/>value = [5, 0]>, fillcolor="#e58139ff"] ;
501 -> 502 ;
503 [label=<gini = 0.0<br/>samples = 1<br/>value = [0, 1]>, fillcolor="#399de5ff"] ;
501 -> 503 ;
504 [label=<X<SUB>10</SUB> &le; 145172.5<br/>gini = 0.32<br/>samples = 5<br/>value = [1, 4]>, fillcolor="#399de5bf"] ;
500 -> 504 ;
505 [label=<gini = 0.0<br/>samples = 1<br/>value = [1, 0]>, fillcolor="#e58139ff"] ;
504 -> 505 ;
506 [label=<gini = 0.0<br/>samples = 4<br/>value = [0, 4]>, fillcolor="#399de5ff"] ;
504 -> 506 ;
507 [label=<gini = 0.0<br/>samples = 1<br/>value = [0, 1]>, fillcolor="#399de5ff"] ;
437 -> 507 ;
508 [label=<X<SUB>10</SUB> &le; 195485.0<br/>gini = 0.049<br/>samples = 80<br/>value = [78, 2]>, fillcolor="#e58139f8"] ;
436 -> 508 ;
509 [label=<gini = 0.0<br/>samples = 60<br/>value = [60, 0]>, fillcolor="#e58139ff"] ;
508 -> 509 ;
510 [label=<X<SUB>10</SUB> &le; 195663.0<br/>gini = 0.18<br/>samples = 20<br/>value = [18, 2]>, fillcolor="#e58139e3"] ;
508 -> 510 ;
511 [label=<gini = 0.0<br/>samples = 1<br/>value = [0, 1]>, fillcolor="#399de5ff"] ;
510 -> 511 ;
512 [label=<X<SUB>12</SUB> &le; 0.5<br/>gini = 0.1<br/>samples = 19<br/>value = [18, 1]>, fillcolor="#e58139f1"] ;
510 -> 512 ;
513 [label=<gini = 0.0<br/>samples = 14<br/>value = [14, 0]>, fillcolor="#e58139ff"] ;
512 -> 513 ;
514 [label=<X<SUB>10</SUB> &le; 197259.5<br/>gini = 0.32<br/>samples = 5<br/>value = [4, 1]>, fillcolor="#e58139bf"] ;
512 -> 514 ;
515 [label=<X<SUB>10</SUB> &le; 196431.0<br/>gini = 0.5<br/>samples = 2<br/>value = [1, 1]>, fillcolor="#e5813900"] ;
514 -> 515 ;
516 [label=<gini = 0.0<br/>samples = 1<br/>value = [1, 0]>, fillcolor="#e58139ff"] ;
515 -> 516 ;
517 [label=<gini = 0.0<br/>samples = 1<br/>value = [0, 1]>, fillcolor="#399de5ff"] ;
515 -> 517 ;
518 [label=<gini = 0.0<br/>samples = 3<br/>value = [3, 0]>, fillcolor="#e58139ff"] ;
514 -> 518 ;
519 [label=<gini = 0.0<br/>samples = 1<br/>value = [0, 1]>, fillcolor="#399de5ff"] ;
419 -> 519 ;
520 [label=<X<SUB>9</SUB> &le; 1742.5<br/>gini = 0.397<br/>samples = 11<br/>value = [8, 3]>, fillcolor="#e581399f"] ;
412 -> 520 ;
521 [label=<X<SUB>20</SUB> &le; 0.5<br/>gini = 0.5<br/>samples = 6<br/>value = [3, 3]>, fillcolor="#e5813900"] ;
520 -> 521 ;
522 [label=<gini = 0.0<br/>samples = 1<br/>value = [1, 0]>, fillcolor="#e58139ff"] ;
521 -> 522 ;
523 [label=<X<SUB>19</SUB> &le; 0.5<br/>gini = 0.48<br/>samples = 5<br/>value = [2, 3]>, fillcolor="#399de555"] ;
521 -> 523 ;
524 [label=<gini = 0.0<br/>samples = 2<br/>value = [0, 2]>, fillcolor="#399de5ff"] ;
523 -> 524 ;
525 [label=<X<SUB>7</SUB> &le; 0.5<br/>gini = 0.444<br/>samples = 3<br/>value = [2, 1]>, fillcolor="#e581397f"] ;
523 -> 525 ;
526 [label=<gini = 0.0<br/>samples = 2<br/>value = [2, 0]>, fillcolor="#e58139ff"] ;
525 -> 526 ;
527 [label=<gini = 0.0<br/>samples = 1<br/>value = [0, 1]>, fillcolor="#399de5ff"] ;
525 -> 527 ;
528 [label=<gini = 0.0<br/>samples = 5<br/>value = [5, 0]>, fillcolor="#e58139ff"] ;
520 -> 528 ;
529 [label=<X<SUB>20</SUB> &le; 0.5<br/>gini = 0.469<br/>samples = 8<br/>value = [5, 3]>, fillcolor="#e5813966"] ;
411 -> 529 ;
530 [label=<X<SUB>12</SUB> &le; 0.5<br/>gini = 0.375<br/>samples = 4<br/>value = [1, 3]>, fillcolor="#399de5aa"] ;
529 -> 530 ;
531 [label=<gini = 0.0<br/>samples = 3<br/>value = [0, 3]>, fillcolor="#399de5ff"] ;
530 -> 531 ;
532 [label=<gini = 0.0<br/>samples = 1<br/>value = [1, 0]>, fillcolor="#e58139ff"] ;
530 -> 532 ;
533 [label=<gini = 0.0<br/>samples = 4<br/>value = [4, 0]>, fillcolor="#e58139ff"] ;
529 -> 533 ;
534 [label=<gini = 0.0<br/>samples = 1<br/>value = [0, 1]>, fillcolor="#399de5ff"] ;
410 -> 534 ;
535 [label=<X<SUB>8</SUB> &le; 64.5<br/>gini = 0.114<br/>samples = 972<br/>value = [913, 59]>, fillcolor="#e58139ef"] ;
409 -> 535 ;
536 [label=<X<SUB>102</SUB> &le; 0.5<br/>gini = 0.103<br/>samples = 885<br/>value = [837, 48]>, fillcolor="#e58139f0"] ;
535 -> 536 ;
537 [label=<X<SUB>10</SUB> &le; 195829.0<br/>gini = 0.101<br/>samples = 883<br/>value = [836, 47]>, fillcolor="#e58139f1"] ;
536 -> 537 ;
538 [label=<X<SUB>7</SUB> &le; 0.5<br/>gini = 0.093<br/>samples = 838<br/>value = [797, 41]>, fillcolor="#e58139f2"] ;
537 -> 538 ;
539 [label=<X<SUB>10</SUB> &le; 156788.5<br/>gini = 0.133<br/>samples = 322<br/>value = [299, 23]>, fillcolor="#e58139eb"] ;
538 -> 539 ;
540 [label=<X<SUB>35</SUB> &le; 0.5<br/>gini = 0.034<br/>samples = 115<br/>value = [113, 2]>, fillcolor="#e58139fa"] ;
539 -> 540 ;
541 [label=<X<SUB>1</SUB> &le; 0.5<br/>gini = 0.017<br/>samples = 114<br/>value = [113, 1]>, fillcolor="#e58139fd"] ;
540 -> 541 ;
542 [label=<gini = 0.0<br/>samples = 88<br/>value = [88, 0]>, fillcolor="#e58139ff"] ;
541 -> 542 ;
543 [label=<X<SUB>13</SUB> &le; 0.5<br/>gini = 0.074<br/>samples = 26<br/>value = [25, 1]>, fillcolor="#e58139f5"] ;
541 -> 543 ;
544 [label=<gini = 0.0<br/>samples = 18<br/>value = [18, 0]>, fillcolor="#e58139ff"] ;
543 -> 544 ;
545 [label=<X<SUB>10</SUB> &le; 143997.5<br/>gini = 0.219<br/>samples = 8<br/>value = [7, 1]>, fillcolor="#e58139db"] ;
543 -> 545 ;
546 [label=<gini = 0.0<br/>samples = 5<br/>value = [5, 0]>, fillcolor="#e58139ff"] ;
545 -> 546 ;
547 [label=<X<SUB>19</SUB> &le; 0.5<br/>gini = 0.444<br/>samples = 3<br/>value = [2, 1]>, fillcolor="#e581397f"] ;
545 -> 547 ;
548 [label=<gini = 0.0<br/>samples = 2<br/>value = [2, 0]>, fillcolor="#e58139ff"] ;
547 -> 548 ;
549 [label=<gini = 0.0<br/>samples = 1<br/>value = [0, 1]>, fillcolor="#399de5ff"] ;
547 -> 549 ;
550 [label=<gini = 0.0<br/>samples = 1<br/>value = [0, 1]>, fillcolor="#399de5ff"] ;
540 -> 550 ;
551 [label=<X<SUB>10</SUB> &le; 157082.0<br/>gini = 0.182<br/>samples = 207<br/>value = [186, 21]>, fillcolor="#e58139e2"] ;
539 -> 551 ;
552 [label=<gini = 0.0<br/>samples = 1<br/>value = [0, 1]>, fillcolor="#399de5ff"] ;
551 -> 552 ;
553 [label=<X<SUB>10</SUB> &le; 180145.0<br/>gini = 0.175<br/>samples = 206<br/>value = [186, 20]>, fillcolor="#e58139e4"] ;
551 -> 553 ;
554 [label=<X<SUB>9</SUB> &le; 1861.5<br/>gini = 0.254<br/>samples = 107<br/>value = [91, 16]>, fillcolor="#e58139d2"] ;
553 -> 554 ;
555 [label=<X<SUB>10</SUB> &le; 179905.5<br/>gini = 0.243<br/>samples = 106<br/>value = [91, 15]>, fillcolor="#e58139d5"] ;
554 -> 555 ;
556 [label=<X<SUB>63</SUB> &le; 0.5<br/>gini = 0.231<br/>samples = 105<br/>value = [91, 14]>, fillcolor="#e58139d8"] ;
555 -> 556 ;
557 [label=<X<SUB>40</SUB> &le; 0.5<br/>gini = 0.219<br/>samples = 104<br/>value = [91, 13]>, fillcolor="#e58139db"] ;
556 -> 557 ;
558 [label=<X<SUB>66</SUB> &le; 0.5<br/>gini = 0.199<br/>samples = 98<br/>value = [87, 11]>, fillcolor="#e58139df"] ;
557 -> 558 ;
559 [label=<X<SUB>8</SUB> &le; 56.5<br/>gini = 0.169<br/>samples = 86<br/>value = [78, 8]>, fillcolor="#e58139e5"] ;
558 -> 559 ;
560 [label=<X<SUB>44</SUB> &le; 0.5<br/>gini = 0.128<br/>samples = 73<br/>value = [68, 5]>, fillcolor="#e58139ec"] ;
559 -> 560 ;
561 [label=<X<SUB>43</SUB> &le; 0.5<br/>gini = 0.108<br/>samples = 70<br/>value = [66, 4]>, fillcolor="#e58139f0"] ;
560 -> 561 ;
562 [label=<X<SUB>51</SUB> &le; 0.5<br/>gini = 0.087<br/>samples = 66<br/>value = [63, 3]>, fillcolor="#e58139f3"] ;
561 -> 562 ;
563 [label=<X<SUB>1</SUB> &le; 0.5<br/>gini = 0.062<br/>samples = 62<br/>value = [60, 2]>, fillcolor="#e58139f6"] ;
562 -> 563 ;
564 [label=<gini = 0.0<br/>samples = 40<br/>value = [40, 0]>, fillcolor="#e58139ff"] ;
563 -> 564 ;
565 [label=<X<SUB>10</SUB> &le; 170393.0<br/>gini = 0.165<br/>samples = 22<br/>value = [20, 2]>, fillcolor="#e58139e6"] ;
563 -> 565 ;
566 [label=<X<SUB>10</SUB> &le; 170075.5<br/>gini = 0.26<br/>samples = 13<br/>value = [11, 2]>, fillcolor="#e58139d1"] ;
565 -> 566 ;
567 [label=<X<SUB>49</SUB> &le; 0.5<br/>gini = 0.153<br/>samples = 12<br/>value = [11, 1]>, fillcolor="#e58139e8"] ;
566 -> 567 ;
568 [label=<gini = 0.0<br/>samples = 8<br/>value = [8, 0]>, fillcolor="#e58139ff"] ;
567 -> 568 ;
569 [label=<X<SUB>19</SUB> &le; 0.5<br/>gini = 0.375<br/>samples = 4<br/>value = [3, 1]>, fillcolor="#e58139aa"] ;
567 -> 569 ;
570 [label=<gini = 0.0<br/>samples = 3<br/>value = [3, 0]>, fillcolor="#e58139ff"] ;
569 -> 570 ;
571 [label=<gini = 0.0<br/>samples = 1<br/>value = [0, 1]>, fillcolor="#399de5ff"] ;
569 -> 571 ;
572 [label=<gini = 0.0<br/>samples = 1<br/>value = [0, 1]>, fillcolor="#399de5ff"] ;
566 -> 572 ;
573 [label=<gini = 0.0<br/>samples = 9<br/>value = [9, 0]>, fillcolor="#e58139ff"] ;
565 -> 573 ;
574 [label=<X<SUB>34</SUB> &le; 0.5<br/>gini = 0.375<br/>samples = 4<br/>value = [3, 1]>, fillcolor="#e58139aa"] ;
562 -> 574 ;
575 [label=<gini = 0.0<br/>samples = 3<br/>value = [3, 0]>, fillcolor="#e58139ff"] ;
574 -> 575 ;
576 [label=<gini = 0.0<br/>samples = 1<br/>value = [0, 1]>, fillcolor="#399de5ff"] ;
574 -> 576 ;
577 [label=<X<SUB>30</SUB> &le; 0.5<br/>gini = 0.375<br/>samples = 4<br/>value = [3, 1]>, fillcolor="#e58139aa"] ;
561 -> 577 ;
578 [label=<gini = 0.0<br/>samples = 2<br/>value = [2, 0]>, fillcolor="#e58139ff"] ;
577 -> 578 ;
579 [label=<X<SUB>70</SUB> &le; 0.5<br/>gini = 0.5<br/>samples = 2<br/>value = [1, 1]>, fillcolor="#e5813900"] ;
577 -> 579 ;
580 [label=<gini = 0.0<br/>samples = 1<br/>value = [0, 1]>, fillcolor="#399de5ff"] ;
579 -> 580 ;
581 [label=<gini = 0.0<br/>samples = 1<br/>value = [1, 0]>, fillcolor="#e58139ff"] ;
579 -> 581 ;
582 [label=<X<SUB>8</SUB> &le; 42.5<br/>gini = 0.444<br/>samples = 3<br/>value = [2, 1]>, fillcolor="#e581397f"] ;
560 -> 582 ;
583 [label=<gini = 0.0<br/>samples = 1<br/>value = [0, 1]>, fillcolor="#399de5ff"] ;
582 -> 583 ;
584 [label=<gini = 0.0<br/>samples = 2<br/>value = [2, 0]>, fillcolor="#e58139ff"] ;
582 -> 584 ;
585 [label=<X<SUB>8</SUB> &le; 57.5<br/>gini = 0.355<br/>samples = 13<br/>value = [10, 3]>, fillcolor="#e58139b3"] ;
559 -> 585 ;
586 [label=<gini = 0.0<br/>samples = 3<br/>value = [0, 3]>, fillcolor="#399de5ff"] ;
585 -> 586 ;
587 [label=<gini = 0.0<br/>samples = 10<br/>value = [10, 0]>, fillcolor="#e58139ff"] ;
585 -> 587 ;
588 [label=<X<SUB>23</SUB> &le; 0.5<br/>gini = 0.375<br/>samples = 12<br/>value = [9, 3]>, fillcolor="#e58139aa"] ;
558 -> 588 ;
589 [label=<X<SUB>8</SUB> &le; 37.5<br/>gini = 0.298<br/>samples = 11<br/>value = [9, 2]>, fillcolor="#e58139c6"] ;
588 -> 589 ;
590 [label=<X<SUB>20</SUB> &le; 0.5<br/>gini = 0.48<br/>samples = 5<br/>value = [3, 2]>, fillcolor="#e5813955"] ;
589 -> 590 ;
591 [label=<gini = 0.0<br/>samples = 3<br/>value = [3, 0]>, fillcolor="#e58139ff"] ;
590 -> 591 ;
592 [label=<gini = 0.0<br/>samples = 2<br/>value = [0, 2]>, fillcolor="#399de5ff"] ;
590 -> 592 ;
593 [label=<gini = 0.0<br/>samples = 6<br/>value = [6, 0]>, fillcolor="#e58139ff"] ;
589 -> 593 ;
594 [label=<gini = 0.0<br/>samples = 1<br/>value = [0, 1]>, fillcolor="#399de5ff"] ;
588 -> 594 ;
595 [label=<X<SUB>2</SUB> &le; 1663.5<br/>gini = 0.444<br/>samples = 6<br/>value = [4, 2]>, fillcolor="#e581397f"] ;
557 -> 595 ;
596 [label=<X<SUB>8</SUB> &le; 35.5<br/>gini = 0.32<br/>samples = 5<br/>value = [4, 1]>, fillcolor="#e58139bf"] ;
595 -> 596 ;
597 [label=<gini = 0.0<br/>samples = 1<br/>value = [0, 1]>, fillcolor="#399de5ff"] ;
596 -> 597 ;
598 [label=<gini = 0.0<br/>samples = 4<br/>value = [4, 0]>, fillcolor="#e58139ff"] ;
596 -> 598 ;
599 [label=<gini = 0.0<br/>samples = 1<br/>value = [0, 1]>, fillcolor="#399de5ff"] ;
595 -> 599 ;
600 [label=<gini = 0.0<br/>samples = 1<br/>value = [0, 1]>, fillcolor="#399de5ff"] ;
556 -> 600 ;
601 [label=<gini = 0.0<br/>samples = 1<br/>value = [0, 1]>, fillcolor="#399de5ff"] ;
555 -> 601 ;
602 [label=<gini = 0.0<br/>samples = 1<br/>value = [0, 1]>, fillcolor="#399de5ff"] ;
554 -> 602 ;
603 [label=<X<SUB>54</SUB> &le; 0.5<br/>gini = 0.078<br/>samples = 99<br/>value = [95, 4]>, fillcolor="#e58139f4"] ;
553 -> 603 ;
604 [label=<X<SUB>30</SUB> &le; 0.5<br/>gini = 0.06<br/>samples = 97<br/>value = [94, 3]>, fillcolor="#e58139f7"] ;
603 -> 604 ;
605 [label=<X<SUB>43</SUB> &le; 0.5<br/>gini = 0.023<br/>samples = 86<br/>value = [85, 1]>, fillcolor="#e58139fc"] ;
604 -> 605 ;
606 [label=<gini = 0.0<br/>samples = 76<br/>value = [76, 0]>, fillcolor="#e58139ff"] ;
605 -> 606 ;
607 [label=<X<SUB>8</SUB> &le; 46.0<br/>gini = 0.18<br/>samples = 10<br/>value = [9, 1]>, fillcolor="#e58139e3"] ;
605 -> 607 ;
608 [label=<gini = 0.0<br/>samples = 6<br/>value = [6, 0]>, fillcolor="#e58139ff"] ;
607 -> 608 ;
609 [label=<X<SUB>8</SUB> &le; 51.0<br/>gini = 0.375<br/>samples = 4<br/>value = [3, 1]>, fillcolor="#e58139aa"] ;
607 -> 609 ;
610 [label=<gini = 0.0<br/>samples = 1<br/>value = [0, 1]>, fillcolor="#399de5ff"] ;
609 -> 610 ;
611 [label=<gini = 0.0<br/>samples = 3<br/>value = [3, 0]>, fillcolor="#e58139ff"] ;
609 -> 611 ;
612 [label=<X<SUB>8</SUB> &le; 55.5<br/>gini = 0.298<br/>samples = 11<br/>value = [9, 2]>, fillcolor="#e58139c6"] ;
604 -> 612 ;
613 [label=<X<SUB>44</SUB> &le; 0.5<br/>gini = 0.18<br/>samples = 10<br/>value = [9, 1]>, fillcolor="#e58139e3"] ;
612 -> 613 ;
614 [label=<gini = 0.0<br/>samples = 7<br/>value = [7, 0]>, fillcolor="#e58139ff"] ;
613 -> 614 ;
615 [label=<X<SUB>20</SUB> &le; 0.5<br/>gini = 0.444<br/>samples = 3<br/>value = [2, 1]>, fillcolor="#e581397f"] ;
613 -> 615 ;
616 [label=<gini = 0.0<br/>samples = 1<br/>value = [0, 1]>, fillcolor="#399de5ff"] ;
615 -> 616 ;
617 [label=<gini = 0.0<br/>samples = 2<br/>value = [2, 0]>, fillcolor="#e58139ff"] ;
615 -> 617 ;
618 [label=<gini = 0.0<br/>samples = 1<br/>value = [0, 1]>, fillcolor="#399de5ff"] ;
612 -> 618 ;
619 [label=<X<SUB>14</SUB> &le; 0.5<br/>gini = 0.5<br/>samples = 2<br/>value = [1, 1]>, fillcolor="#e5813900"] ;
603 -> 619 ;
620 [label=<gini = 0.0<br/>samples = 1<br/>value = [1, 0]>, fillcolor="#e58139ff"] ;
619 -> 620 ;
621 [label=<gini = 0.0<br/>samples = 1<br/>value = [0, 1]>, fillcolor="#399de5ff"] ;
619 -> 621 ;
622 [label=<X<SUB>8</SUB> &le; 48.5<br/>gini = 0.067<br/>samples = 516<br/>value = [498, 18]>, fillcolor="#e58139f6"] ;
538 -> 622 ;
623 [label=<X<SUB>62</SUB> &le; 0.5<br/>gini = 0.092<br/>samples = 332<br/>value = [316, 16]>, fillcolor="#e58139f2"] ;
622 -> 623 ;
624 [label=<X<SUB>15</SUB> &le; 0.5<br/>gini = 0.087<br/>samples = 329<br/>value = [314, 15]>, fillcolor="#e58139f3"] ;
623 -> 624 ;
625 [label=<X<SUB>12</SUB> &le; 0.5<br/>gini = 0.083<br/>samples = 324<br/>value = [310, 14]>, fillcolor="#e58139f3"] ;
624 -> 625 ;
626 [label=<X<SUB>10</SUB> &le; 152763.5<br/>gini = 0.065<br/>samples = 267<br/>value = [258, 9]>, fillcolor="#e58139f6"] ;
625 -> 626 ;
627 [label=<X<SUB>10</SUB> &le; 152199.5<br/>gini = 0.136<br/>samples = 68<br/>value = [63, 5]>, fillcolor="#e58139eb"] ;
626 -> 627 ;
628 [label=<X<SUB>51</SUB> &le; 0.5<br/>gini = 0.112<br/>samples = 67<br/>value = [63, 4]>, fillcolor="#e58139ef"] ;
627 -> 628 ;
629 [label=<X<SUB>8</SUB> &le; 39.5<br/>gini = 0.089<br/>samples = 64<br/>value = [61, 3]>, fillcolor="#e58139f2"] ;
628 -> 629 ;
630 [label=<X<SUB>8</SUB> &le; 38.5<br/>gini = 0.219<br/>samples = 24<br/>value = [21, 3]>, fillcolor="#e58139db"] ;
629 -> 630 ;
631 [label=<X<SUB>13</SUB> &le; 0.5<br/>gini = 0.159<br/>samples = 23<br/>value = [21, 2]>, fillcolor="#e58139e7"] ;
630 -> 631 ;
632 [label=<gini = 0.0<br/>samples = 12<br/>value = [12, 0]>, fillcolor="#e58139ff"] ;
631 -> 632 ;
633 [label=<X<SUB>10</SUB> &le; 136860.0<br/>gini = 0.298<br/>samples = 11<br/>value = [9, 2]>, fillcolor="#e58139c6"] ;
631 -> 633 ;
634 [label=<gini = 0.0<br/>samples = 5<br/>value = [5, 0]>, fillcolor="#e58139ff"] ;
633 -> 634 ;
635 [label=<X<SUB>10</SUB> &le; 141901.5<br/>gini = 0.444<br/>samples = 6<br/>value = [4, 2]>, fillcolor="#e581397f"] ;
633 -> 635 ;
636 [label=<gini = 0.0<br/>samples = 2<br/>value = [0, 2]>, fillcolor="#399de5ff"] ;
635 -> 636 ;
637 [label=<gini = 0.0<br/>samples = 4<br/>value = [4, 0]>, fillcolor="#e58139ff"] ;
635 -> 637 ;
638 [label=<gini = 0.0<br/>samples = 1<br/>value = [0, 1]>, fillcolor="#399de5ff"] ;
630 -> 638 ;
639 [label=<gini = 0.0<br/>samples = 40<br/>value = [40, 0]>, fillcolor="#e58139ff"] ;
629 -> 639 ;
640 [label=<X<SUB>10</SUB> &le; 129853.5<br/>gini = 0.444<br/>samples = 3<br/>value = [2, 1]>, fillcolor="#e581397f"] ;
628 -> 640 ;
641 [label=<gini = 0.0<br/>samples = 1<br/>value = [0, 1]>, fillcolor="#399de5ff"] ;
640 -> 641 ;
642 [label=<gini = 0.0<br/>samples = 2<br/>value = [2, 0]>, fillcolor="#e58139ff"] ;
640 -> 642 ;
643 [label=<gini = 0.0<br/>samples = 1<br/>value = [0, 1]>, fillcolor="#399de5ff"] ;
627 -> 643 ;
644 [label=<X<SUB>0</SUB> &le; 39.5<br/>gini = 0.039<br/>samples = 199<br/>value = [195, 4]>, fillcolor="#e58139fa"] ;
626 -> 644 ;
645 [label=<X<SUB>8</SUB> &le; 42.5<br/>gini = 0.095<br/>samples = 60<br/>value = [57, 3]>, fillcolor="#e58139f2"] ;
644 -> 645 ;
646 [label=<gini = 0.0<br/>samples = 35<br/>value = [35, 0]>, fillcolor="#e58139ff"] ;
645 -> 646 ;
647 [label=<X<SUB>8</SUB> &le; 45.5<br/>gini = 0.211<br/>samples = 25<br/>value = [22, 3]>, fillcolor="#e58139dc"] ;
645 -> 647 ;
648 [label=<X<SUB>27</SUB> &le; 0.5<br/>gini = 0.375<br/>samples = 12<br/>value = [9, 3]>, fillcolor="#e58139aa"] ;
647 -> 648 ;
649 [label=<X<SUB>0</SUB> &le; 37.5<br/>gini = 0.298<br/>samples = 11<br/>value = [9, 2]>, fillcolor="#e58139c6"] ;
648 -> 649 ;
650 [label=<gini = 0.0<br/>samples = 7<br/>value = [7, 0]>, fillcolor="#e58139ff"] ;
649 -> 650 ;
651 [label=<X<SUB>30</SUB> &le; 0.5<br/>gini = 0.5<br/>samples = 4<br/>value = [2, 2]>, fillcolor="#e5813900"] ;
649 -> 651 ;
652 [label=<gini = 0.0<br/>samples = 1<br/>value = [1, 0]>, fillcolor="#e58139ff"] ;
651 -> 652 ;
653 [label=<X<SUB>10</SUB> &le; 164534.5<br/>gini = 0.444<br/>samples = 3<br/>value = [1, 2]>, fillcolor="#399de57f"] ;
651 -> 653 ;
654 [label=<gini = 0.0<br/>samples = 1<br/>value = [1, 0]>, fillcolor="#e58139ff"] ;
653 -> 654 ;
655 [label=<gini = 0.0<br/>samples = 2<br/>value = [0, 2]>, fillcolor="#399de5ff"] ;
653 -> 655 ;
656 [label=<gini = 0.0<br/>samples = 1<br/>value = [0, 1]>, fillcolor="#399de5ff"] ;
648 -> 656 ;
657 [label=<gini = 0.0<br/>samples = 13<br/>value = [13, 0]>, fillcolor="#e58139ff"] ;
647 -> 657 ;
658 [label=<X<SUB>6</SUB> &le; 12.5<br/>gini = 0.014<br/>samples = 139<br/>value = [138, 1]>, fillcolor="#e58139fd"] ;
644 -> 658 ;
659 [label=<gini = 0.0<br/>samples = 131<br/>value = [131, 0]>, fillcolor="#e58139ff"] ;
658 -> 659 ;
660 [label=<X<SUB>8</SUB> &le; 32.5<br/>gini = 0.219<br/>samples = 8<br/>value = [7, 1]>, fillcolor="#e58139db"] ;
658 -> 660 ;
661 [label=<gini = 0.0<br/>samples = 1<br/>value = [0, 1]>, fillcolor="#399de5ff"] ;
660 -> 661 ;
662 [label=<gini = 0.0<br/>samples = 7<br/>value = [7, 0]>, fillcolor="#e58139ff"] ;
660 -> 662 ;
663 [label=<X<SUB>8</SUB> &le; 47.5<br/>gini = 0.16<br/>samples = 57<br/>value = [52, 5]>, fillcolor="#e58139e6"] ;
625 -> 663 ;
664 [label=<X<SUB>10</SUB> &le; 189048.0<br/>gini = 0.133<br/>samples = 56<br/>value = [52, 4]>, fillcolor="#e58139eb"] ;
663 -> 664 ;
665 [label=<X<SUB>40</SUB> &le; 0.5<br/>gini = 0.081<br/>samples = 47<br/>value = [45, 2]>, fillcolor="#e58139f4"] ;
664 -> 665 ;
666 [label=<X<SUB>24</SUB> &le; 0.5<br/>gini = 0.043<br/>samples = 45<br/>value = [44, 1]>, fillcolor="#e58139f9"] ;
665 -> 666 ;
667 [label=<gini = 0.0<br/>samples = 41<br/>value = [41, 0]>, fillcolor="#e58139ff"] ;
666 -> 667 ;
668 [label=<X<SUB>29</SUB> &le; 0.5<br/>gini = 0.375<br/>samples = 4<br/>value = [3, 1]>, fillcolor="#e58139aa"] ;
666 -> 668 ;
669 [label=<gini = 0.0<br/>samples = 3<br/>value = [3, 0]>, fillcolor="#e58139ff"] ;
668 -> 669 ;
670 [label=<gini = 0.0<br/>samples = 1<br/>value = [0, 1]>, fillcolor="#399de5ff"] ;
668 -> 670 ;
671 [label=<X<SUB>10</SUB> &le; 135069.0<br/>gini = 0.5<br/>samples = 2<br/>value = [1, 1]>, fillcolor="#e5813900"] ;
665 -> 671 ;
672 [label=<gini = 0.0<br/>samples = 1<br/>value = [0, 1]>, fillcolor="#399de5ff"] ;
671 -> 672 ;
673 [label=<gini = 0.0<br/>samples = 1<br/>value = [1, 0]>, fillcolor="#e58139ff"] ;
671 -> 673 ;
674 [label=<X<SUB>0</SUB> &le; 37.5<br/>gini = 0.346<br/>samples = 9<br/>value = [7, 2]>, fillcolor="#e58139b6"] ;
664 -> 674 ;
675 [label=<X<SUB>10</SUB> &le; 192797.5<br/>gini = 0.444<br/>samples = 3<br/>value = [1, 2]>, fillcolor="#399de57f"] ;
674 -> 675 ;
676 [label=<gini = 0.0<br/>samples = 2<br/>value = [0, 2]>, fillcolor="#399de5ff"] ;
675 -> 676 ;
677 [label=<gini = 0.0<br/>samples = 1<br/>value = [1, 0]>, fillcolor="#e58139ff"] ;
675 -> 677 ;
678 [label=<gini = 0.0<br/>samples = 6<br/>value = [6, 0]>, fillcolor="#e58139ff"] ;
674 -> 678 ;
679 [label=<gini = 0.0<br/>samples = 1<br/>value = [0, 1]>, fillcolor="#399de5ff"] ;
663 -> 679 ;
680 [label=<X<SUB>47</SUB> &le; 0.5<br/>gini = 0.32<br/>samples = 5<br/>value = [4, 1]>, fillcolor="#e58139bf"] ;
624 -> 680 ;
681 [label=<gini = 0.0<br/>samples = 4<br/>value = [4, 0]>, fillcolor="#e58139ff"] ;
680 -> 681 ;
682 [label=<gini = 0.0<br/>samples = 1<br/>value = [0, 1]>, fillcolor="#399de5ff"] ;
680 -> 682 ;
683 [label=<X<SUB>3</SUB> &le; 0.5<br/>gini = 0.444<br/>samples = 3<br/>value = [2, 1]>, fillcolor="#e581397f"] ;
623 -> 683 ;
684 [label=<gini = 0.0<br/>samples = 1<br/>value = [0, 1]>, fillcolor="#399de5ff"] ;
683 -> 684 ;
685 [label=<gini = 0.0<br/>samples = 2<br/>value = [2, 0]>, fillcolor="#e58139ff"] ;
683 -> 685 ;
686 [label=<X<SUB>42</SUB> &le; 0.5<br/>gini = 0.022<br/>samples = 184<br/>value = [182, 2]>, fillcolor="#e58139fc"] ;
622 -> 686 ;
687 [label=<X<SUB>12</SUB> &le; 0.5<br/>gini = 0.011<br/>samples = 182<br/>value = [181, 1]>, fillcolor="#e58139fe"] ;
686 -> 687 ;
688 [label=<gini = 0.0<br/>samples = 144<br/>value = [144, 0]>, fillcolor="#e58139ff"] ;
687 -> 688 ;
689 [label=<X<SUB>8</SUB> &le; 58.5<br/>gini = 0.051<br/>samples = 38<br/>value = [37, 1]>, fillcolor="#e58139f8"] ;
687 -> 689 ;
690 [label=<gini = 0.0<br/>samples = 30<br/>value = [30, 0]>, fillcolor="#e58139ff"] ;
689 -> 690 ;
691 [label=<X<SUB>8</SUB> &le; 59.5<br/>gini = 0.219<br/>samples = 8<br/>value = [7, 1]>, fillcolor="#e58139db"] ;
689 -> 691 ;
692 [label=<X<SUB>13</SUB> &le; 0.5<br/>gini = 0.5<br/>samples = 2<br/>value = [1, 1]>, fillcolor="#e5813900"] ;
691 -> 692 ;
693 [label=<gini = 0.0<br/>samples = 1<br/>value = [0, 1]>, fillcolor="#399de5ff"] ;
692 -> 693 ;
694 [label=<gini = 0.0<br/>samples = 1<br/>value = [1, 0]>, fillcolor="#e58139ff"] ;
692 -> 694 ;
695 [label=<gini = 0.0<br/>samples = 6<br/>value = [6, 0]>, fillcolor="#e58139ff"] ;
691 -> 695 ;
696 [label=<X<SUB>1</SUB> &le; 0.5<br/>gini = 0.5<br/>samples = 2<br/>value = [1, 1]>, fillcolor="#e5813900"] ;
686 -> 696 ;
697 [label=<gini = 0.0<br/>samples = 1<br/>value = [0, 1]>, fillcolor="#399de5ff"] ;
696 -> 697 ;
698 [label=<gini = 0.0<br/>samples = 1<br/>value = [1, 0]>, fillcolor="#e58139ff"] ;
696 -> 698 ;
699 [label=<X<SUB>46</SUB> &le; 0.5<br/>gini = 0.231<br/>samples = 45<br/>value = [39, 6]>, fillcolor="#e58139d8"] ;
537 -> 699 ;
700 [label=<X<SUB>1</SUB> &le; 0.5<br/>gini = 0.201<br/>samples = 44<br/>value = [39, 5]>, fillcolor="#e58139de"] ;
699 -> 700 ;
701 [label=<gini = 0.0<br/>samples = 25<br/>value = [25, 0]>, fillcolor="#e58139ff"] ;
700 -> 701 ;
702 [label=<X<SUB>8</SUB> &le; 47.0<br/>gini = 0.388<br/>samples = 19<br/>value = [14, 5]>, fillcolor="#e58139a4"] ;
700 -> 702 ;
703 [label=<X<SUB>8</SUB> &le; 37.5<br/>gini = 0.245<br/>samples = 14<br/>value = [12, 2]>, fillcolor="#e58139d4"] ;
702 -> 703 ;
704 [label=<X<SUB>10</SUB> &le; 197840.0<br/>gini = 0.444<br/>samples = 6<br/>value = [4, 2]>, fillcolor="#e581397f"] ;
703 -> 704 ;
705 [label=<gini = 0.0<br/>samples = 2<br/>value = [0, 2]>, fillcolor="#399de5ff"] ;
704 -> 705 ;
706 [label=<gini = 0.0<br/>samples = 4<br/>value = [4, 0]>, fillcolor="#e58139ff"] ;
704 -> 706 ;
707 [label=<gini = 0.0<br/>samples = 8<br/>value = [8, 0]>, fillcolor="#e58139ff"] ;
703 -> 707 ;
708 [label=<X<SUB>14</SUB> &le; 0.5<br/>gini = 0.48<br/>samples = 5<br/>value = [2, 3]>, fillcolor="#399de555"] ;
702 -> 708 ;
709 [label=<X<SUB>8</SUB> &le; 53.0<br/>gini = 0.444<br/>samples = 3<br/>value = [2, 1]>, fillcolor="#e581397f"] ;
708 -> 709 ;
710 [label=<gini = 0.0<br/>samples = 1<br/>value = [0, 1]>, fillcolor="#399de5ff"] ;
709 -> 710 ;
711 [label=<gini = 0.0<br/>samples = 2<br/>value = [2, 0]>, fillcolor="#e58139ff"] ;
709 -> 711 ;
712 [label=<gini = 0.0<br/>samples = 2<br/>value = [0, 2]>, fillcolor="#399de5ff"] ;
708 -> 712 ;
713 [label=<gini = 0.0<br/>samples = 1<br/>value = [0, 1]>, fillcolor="#399de5ff"] ;
699 -> 713 ;
714 [label=<X<SUB>83</SUB> &le; 0.5<br/>gini = 0.5<br/>samples = 2<br/>value = [1, 1]>, fillcolor="#e5813900"] ;
536 -> 714 ;
715 [label=<gini = 0.0<br/>samples = 1<br/>value = [1, 0]>, fillcolor="#e58139ff"] ;
714 -> 715 ;
716 [label=<gini = 0.0<br/>samples = 1<br/>value = [0, 1]>, fillcolor="#399de5ff"] ;
714 -> 716 ;
717 [label=<X<SUB>8</SUB> &le; 67.5<br/>gini = 0.221<br/>samples = 87<br/>value = [76, 11]>, fillcolor="#e58139da"] ;
535 -> 717 ;
718 [label=<X<SUB>14</SUB> &le; 0.5<br/>gini = 0.436<br/>samples = 28<br/>value = [19, 9]>, fillcolor="#e5813986"] ;
717 -> 718 ;
719 [label=<X<SUB>5</SUB> &le; 0.5<br/>gini = 0.365<br/>samples = 25<br/>value = [19, 6]>, fillcolor="#e58139ae"] ;
718 -> 719 ;
720 [label=<X<SUB>46</SUB> &le; 0.5<br/>gini = 0.188<br/>samples = 19<br/>value = [17, 2]>, fillcolor="#e58139e1"] ;
719 -> 720 ;
721 [label=<X<SUB>10</SUB> &le; 142204.0<br/>gini = 0.105<br/>samples = 18<br/>value = [17, 1]>, fillcolor="#e58139f0"] ;
720 -> 721 ;
722 [label=<X<SUB>10</SUB> &le; 134488.0<br/>gini = 0.444<br/>samples = 3<br/>value = [2, 1]>, fillcolor="#e581397f"] ;
721 -> 722 ;
723 [label=<gini = 0.0<br/>samples = 2<br/>value = [2, 0]>, fillcolor="#e58139ff"] ;
722 -> 723 ;
724 [label=<gini = 0.0<br/>samples = 1<br/>value = [0, 1]>, fillcolor="#399de5ff"] ;
722 -> 724 ;
725 [label=<gini = 0.0<br/>samples = 15<br/>value = [15, 0]>, fillcolor="#e58139ff"] ;
721 -> 725 ;
726 [label=<gini = 0.0<br/>samples = 1<br/>value = [0, 1]>, fillcolor="#399de5ff"] ;
720 -> 726 ;
727 [label=<X<SUB>23</SUB> &le; 0.5<br/>gini = 0.444<br/>samples = 6<br/>value = [2, 4]>, fillcolor="#399de57f"] ;
719 -> 727 ;
728 [label=<gini = 0.0<br/>samples = 3<br/>value = [0, 3]>, fillcolor="#399de5ff"] ;
727 -> 728 ;
729 [label=<X<SUB>30</SUB> &le; 0.5<br/>gini = 0.444<br/>samples = 3<br/>value = [2, 1]>, fillcolor="#e581397f"] ;
727 -> 729 ;
730 [label=<gini = 0.0<br/>samples = 2<br/>value = [2, 0]>, fillcolor="#e58139ff"] ;
729 -> 730 ;
731 [label=<gini = 0.0<br/>samples = 1<br/>value = [0, 1]>, fillcolor="#399de5ff"] ;
729 -> 731 ;
732 [label=<gini = 0.0<br/>samples = 3<br/>value = [0, 3]>, fillcolor="#399de5ff"] ;
718 -> 732 ;
733 [label=<X<SUB>45</SUB> &le; 0.5<br/>gini = 0.065<br/>samples = 59<br/>value = [57, 2]>, fillcolor="#e58139f6"] ;
717 -> 733 ;
734 [label=<X<SUB>83</SUB> &le; 0.5<br/>gini = 0.034<br/>samples = 58<br/>value = [57, 1]>, fillcolor="#e58139fb"] ;
733 -> 734 ;
735 [label=<gini = 0.0<br/>samples = 54<br/>value = [54, 0]>, fillcolor="#e58139ff"] ;
734 -> 735 ;
736 [label=<X<SUB>0</SUB> &le; 18.0<br/>gini = 0.375<br/>samples = 4<br/>value = [3, 1]>, fillcolor="#e58139aa"] ;
734 -> 736 ;
737 [label=<gini = 0.0<br/>samples = 1<br/>value = [0, 1]>, fillcolor="#399de5ff"] ;
736 -> 737 ;
738 [label=<gini = 0.0<br/>samples = 3<br/>value = [3, 0]>, fillcolor="#e58139ff"] ;
736 -> 738 ;
739 [label=<gini = 0.0<br/>samples = 1<br/>value = [0, 1]>, fillcolor="#399de5ff"] ;
733 -> 739 ;
740 [label=<gini = 0.0<br/>samples = 1<br/>value = [0, 1]>, fillcolor="#399de5ff"] ;
408 -> 740 ;
741 [label=<X<SUB>47</SUB> &le; 0.5<br/>gini = 0.017<br/>samples = 120<br/>value = [119, 1]>, fillcolor="#e58139fd"] ;
407 -> 741 ;
742 [label=<gini = 0.0<br/>samples = 111<br/>value = [111, 0]>, fillcolor="#e58139ff"] ;
741 -> 742 ;
743 [label=<X<SUB>0</SUB> &le; 26.0<br/>gini = 0.198<br/>samples = 9<br/>value = [8, 1]>, fillcolor="#e58139df"] ;
741 -> 743 ;
744 [label=<X<SUB>8</SUB> &le; 23.5<br/>gini = 0.5<br/>samples = 2<br/>value = [1, 1]>, fillcolor="#e5813900"] ;
743 -> 744 ;
745 [label=<gini = 0.0<br/>samples = 1<br/>value = [1, 0]>, fillcolor="#e58139ff"] ;
744 -> 745 ;
746 [label=<gini = 0.0<br/>samples = 1<br/>value = [0, 1]>, fillcolor="#399de5ff"] ;
744 -> 746 ;
747 [label=<gini = 0.0<br/>samples = 7<br/>value = [7, 0]>, fillcolor="#e58139ff"] ;
743 -> 747 ;
748 [label=<X<SUB>18</SUB> &le; 0.5<br/>gini = 0.48<br/>samples = 5<br/>value = [3, 2]>, fillcolor="#e5813955"] ;
406 -> 748 ;
749 [label=<gini = 0.0<br/>samples = 3<br/>value = [3, 0]>, fillcolor="#e58139ff"] ;
748 -> 749 ;
750 [label=<gini = 0.0<br/>samples = 2<br/>value = [0, 2]>, fillcolor="#399de5ff"] ;
748 -> 750 ;
751 [label=<X<SUB>10</SUB> &le; 205374.0<br/>gini = 0.171<br/>samples = 1710<br/>value = [1549, 161]>, fillcolor="#e58139e4"] ;
405 -> 751 ;
752 [label=<X<SUB>8</SUB> &le; 42.5<br/>gini = 0.494<br/>samples = 9<br/>value = [5, 4]>, fillcolor="#e5813933"] ;
751 -> 752 ;
753 [label=<X<SUB>8</SUB> &le; 27.5<br/>gini = 0.32<br/>samples = 5<br/>value = [1, 4]>, fillcolor="#399de5bf"] ;
752 -> 753 ;
754 [label=<gini = 0.0<br/>samples = 1<br/>value = [1, 0]>, fillcolor="#e58139ff"] ;
753 -> 754 ;
755 [label=<gini = 0.0<br/>samples = 4<br/>value = [0, 4]>, fillcolor="#399de5ff"] ;
753 -> 755 ;
756 [label=<gini = 0.0<br/>samples = 4<br/>value = [4, 0]>, fillcolor="#e58139ff"] ;
752 -> 756 ;
757 [label=<X<SUB>87</SUB> &le; 0.5<br/>gini = 0.168<br/>samples = 1701<br/>value = [1544, 157]>, fillcolor="#e58139e5"] ;
751 -> 757 ;
758 [label=<X<SUB>51</SUB> &le; 0.5<br/>gini = 0.167<br/>samples = 1700<br/>value = [1544, 156]>, fillcolor="#e58139e5"] ;
757 -> 758 ;
759 [label=<X<SUB>8</SUB> &le; 77.5<br/>gini = 0.172<br/>samples = 1635<br/>value = [1480, 155]>, fillcolor="#e58139e4"] ;
758 -> 759 ;
760 [label=<X<SUB>86</SUB> &le; 0.5<br/>gini = 0.17<br/>samples = 1629<br/>value = [1476, 153]>, fillcolor="#e58139e5"] ;
759 -> 760 ;
761 [label=<X<SUB>31</SUB> &le; 0.5<br/>gini = 0.169<br/>samples = 1627<br/>value = [1475, 152]>, fillcolor="#e58139e5"] ;
760 -> 761 ;
762 [label=<X<SUB>96</SUB> &le; 0.5<br/>gini = 0.169<br/>samples = 1625<br/>value = [1474, 151]>, fillcolor="#e58139e5"] ;
761 -> 762 ;
763 [label=<X<SUB>58</SUB> &le; 0.5<br/>gini = 0.168<br/>samples = 1623<br/>value = [1473, 150]>, fillcolor="#e58139e5"] ;
762 -> 763 ;
764 [label=<X<SUB>8</SUB> &le; 34.5<br/>gini = 0.166<br/>samples = 1610<br/>value = [1463, 147]>, fillcolor="#e58139e5"] ;
763 -> 764 ;
765 [label=<X<SUB>10</SUB> &le; 306692.5<br/>gini = 0.184<br/>samples = 819<br/>value = [735, 84]>, fillcolor="#e58139e2"] ;
764 -> 765 ;
766 [label=<X<SUB>2</SUB> &le; 4259.5<br/>gini = 0.157<br/>samples = 512<br/>value = [468, 44]>, fillcolor="#e58139e7"] ;
765 -> 766 ;
767 [label=<X<SUB>0</SUB> &le; 9.5<br/>gini = 0.154<br/>samples = 510<br/>value = [467, 43]>, fillcolor="#e58139e8"] ;
766 -> 767 ;
768 [label=<X<SUB>10</SUB> &le; 251593.0<br/>gini = 0.5<br/>samples = 2<br/>value = [1, 1]>, fillcolor="#e5813900"] ;
767 -> 768 ;
769 [label=<gini = 0.0<br/>samples = 1<br/>value = [1, 0]>, fillcolor="#e58139ff"] ;
768 -> 769 ;
770 [label=<gini = 0.0<br/>samples = 1<br/>value = [0, 1]>, fillcolor="#399de5ff"] ;
768 -> 770 ;
771 [label=<X<SUB>10</SUB> &le; 278549.5<br/>gini = 0.152<br/>samples = 508<br/>value = [466, 42]>, fillcolor="#e58139e8"] ;
767 -> 771 ;
772 [label=<X<SUB>10</SUB> &le; 278306.0<br/>gini = 0.172<br/>samples = 411<br/>value = [372, 39]>, fillcolor="#e58139e4"] ;
771 -> 772 ;
773 [label=<X<SUB>10</SUB> &le; 269691.0<br/>gini = 0.168<br/>samples = 410<br/>value = [372, 38]>, fillcolor="#e58139e5"] ;
772 -> 773 ;
774 [label=<X<SUB>23</SUB> &le; 0.5<br/>gini = 0.154<br/>samples = 380<br/>value = [348, 32]>, fillcolor="#e58139e8"] ;
773 -> 774 ;
775 [label=<X<SUB>43</SUB> &le; 0.5<br/>gini = 0.144<br/>samples = 370<br/>value = [341, 29]>, fillcolor="#e58139e9"] ;
774 -> 775 ;
776 [label=<X<SUB>8</SUB> &le; 32.5<br/>gini = 0.129<br/>samples = 346<br/>value = [322, 24]>, fillcolor="#e58139ec"] ;
775 -> 776 ;
777 [label=<X<SUB>2</SUB> &le; 2895.0<br/>gini = 0.104<br/>samples = 308<br/>value = [291, 17]>, fillcolor="#e58139f0"] ;
776 -> 777 ;
778 [label=<X<SUB>64</SUB> &le; 0.5<br/>gini = 0.099<br/>samples = 305<br/>value = [289, 16]>, fillcolor="#e58139f1"] ;
777 -> 778 ;
779 [label=<X<SUB>56</SUB> &le; 0.5<br/>gini = 0.094<br/>samples = 302<br/>value = [287, 15]>, fillcolor="#e58139f2"] ;
778 -> 779 ;
780 [label=<X<SUB>3</SUB> &le; 0.5<br/>gini = 0.09<br/>samples = 297<br/>value = [283, 14]>, fillcolor="#e58139f2"] ;
779 -> 780 ;
781 [label=<gini = 0.0<br/>samples = 52<br/>value = [52, 0]>, fillcolor="#e58139ff"] ;
780 -> 781 ;
782 [label=<X<SUB>0</SUB> &le; 33.5<br/>gini = 0.108<br/>samples = 245<br/>value = [231, 14]>, fillcolor="#e58139f0"] ;
780 -> 782 ;
783 [label=<X<SUB>10</SUB> &le; 238889.0<br/>gini = 0.187<br/>samples = 48<br/>value = [43, 5]>, fillcolor="#e58139e1"] ;
782 -> 783 ;
784 [label=<X<SUB>10</SUB> &le; 238535.5<br/>gini = 0.285<br/>samples = 29<br/>value = [24, 5]>, fillcolor="#e58139ca"] ;
783 -> 784 ;
785 [label=<X<SUB>8</SUB> &le; 27.5<br/>gini = 0.198<br/>samples = 27<br/>value = [24, 3]>, fillcolor="#e58139df"] ;
784 -> 785 ;
786 [label=<X<SUB>14</SUB> &le; 0.5<br/>gini = 0.095<br/>samples = 20<br/>value = [19, 1]>, fillcolor="#e58139f2"] ;
785 -> 786 ;
787 [label=<gini = 0.0<br/>samples = 17<br/>value = [17, 0]>, fillcolor="#e58139ff"] ;
786 -> 787 ;
788 [label=<X<SUB>6</SUB> &le; 10.0<br/>gini = 0.444<br/>samples = 3<br/>value = [2, 1]>, fillcolor="#e581397f"] ;
786 -> 788 ;
789 [label=<X<SUB>8</SUB> &le; 20.5<br/>gini = 0.5<br/>samples = 2<br/>value = [1, 1]>, fillcolor="#e5813900"] ;
788 -> 789 ;
790 [label=<gini = 0.0<br/>samples = 1<br/>value = [1, 0]>, fillcolor="#e58139ff"] ;
789 -> 790 ;
791 [label=<gini = 0.0<br/>samples = 1<br/>value = [0, 1]>, fillcolor="#399de5ff"] ;
789 -> 791 ;
792 [label=<gini = 0.0<br/>samples = 1<br/>value = [1, 0]>, fillcolor="#e58139ff"] ;
788 -> 792 ;
793 [label=<X<SUB>21</SUB> &le; 0.5<br/>gini = 0.408<br/>samples = 7<br/>value = [5, 2]>, fillcolor="#e5813999"] ;
785 -> 793 ;
794 [label=<X<SUB>12</SUB> &le; 0.5<br/>gini = 0.278<br/>samples = 6<br/>value = [5, 1]>, fillcolor="#e58139cc"] ;
793 -> 794 ;
795 [label=<gini = 0.0<br/>samples = 5<br/>value = [5, 0]>, fillcolor="#e58139ff"] ;
794 -> 795 ;
796 [label=<gini = 0.0<br/>samples = 1<br/>value = [0, 1]>, fillcolor="#399de5ff"] ;
794 -> 796 ;
797 [label=<gini = 0.0<br/>samples = 1<br/>value = [0, 1]>, fillcolor="#399de5ff"] ;
793 -> 797 ;
798 [label=<gini = 0.0<br/>samples = 2<br/>value = [0, 2]>, fillcolor="#399de5ff"] ;
784 -> 798 ;
799 [label=<gini = 0.0<br/>samples = 19<br/>value = [19, 0]>, fillcolor="#e58139ff"] ;
783 -> 799 ;
800 [label=<X<SUB>76</SUB> &le; 0.5<br/>gini = 0.087<br/>samples = 197<br/>value = [188, 9]>, fillcolor="#e58139f3"] ;
782 -> 800 ;
801 [label=<X<SUB>57</SUB> &le; 0.5<br/>gini = 0.079<br/>samples = 193<br/>value = [185, 8]>, fillcolor="#e58139f4"] ;
800 -> 801 ;
802 [label=<X<SUB>6</SUB> &le; 10.5<br/>gini = 0.071<br/>samples = 189<br/>value = [182, 7]>, fillcolor="#e58139f5"] ;
801 -> 802 ;
803 [label=<X<SUB>49</SUB> &le; 0.5<br/>gini = 0.036<br/>samples = 110<br/>value = [108, 2]>, fillcolor="#e58139fa"] ;
802 -> 803 ;
804 [label=<X<SUB>27</SUB> &le; 0.5<br/>gini = 0.019<br/>samples = 105<br/>value = [104, 1]>, fillcolor="#e58139fd"] ;
803 -> 804 ;
805 [label=<gini = 0.0<br/>samples = 97<br/>value = [97, 0]>, fillcolor="#e58139ff"] ;
804 -> 805 ;
806 [label=<X<SUB>8</SUB> &le; 28.0<br/>gini = 0.219<br/>samples = 8<br/>value = [7, 1]>, fillcolor="#e58139db"] ;
804 -> 806 ;
807 [label=<X<SUB>8</SUB> &le; 26.0<br/>gini = 0.444<br/>samples = 3<br/>value = [2, 1]>, fillcolor="#e581397f"] ;
806 -> 807 ;
808 [label=<gini = 0.0<br/>samples = 2<br/>value = [2, 0]>, fillcolor="#e58139ff"] ;
807 -> 808 ;
809 [label=<gini = 0.0<br/>samples = 1<br/>value = [0, 1]>, fillcolor="#399de5ff"] ;
807 -> 809 ;
810 [label=<gini = 0.0<br/>samples = 5<br/>value = [5, 0]>, fillcolor="#e58139ff"] ;
806 -> 810 ;
811 [label=<X<SUB>8</SUB> &le; 25.0<br/>gini = 0.32<br/>samples = 5<br/>value = [4, 1]>, fillcolor="#e58139bf"] ;
803 -> 811 ;
812 [label=<gini = 0.0<br/>samples = 1<br/>value = [0, 1]>, fillcolor="#399de5ff"] ;
811 -> 812 ;
813 [label=<gini = 0.0<br/>samples = 4<br/>value = [4, 0]>, fillcolor="#e58139ff"] ;
811 -> 813 ;
814 [label=<X<SUB>30</SUB> &le; 0.5<br/>gini = 0.119<br/>samples = 79<br/>value = [74, 5]>, fillcolor="#e58139ee"] ;
802 -> 814 ;
815 [label=<X<SUB>0</SUB> &le; 43.0<br/>gini = 0.041<br/>samples = 48<br/>value = [47, 1]>, fillcolor="#e58139fa"] ;
814 -> 815 ;
816 [label=<gini = 0.0<br/>samples = 39<br/>value = [39, 0]>, fillcolor="#e58139ff"] ;
815 -> 816 ;
817 [label=<X<SUB>0</SUB> &le; 45.5<br/>gini = 0.198<br/>samples = 9<br/>value = [8, 1]>, fillcolor="#e58139df"] ;
815 -> 817 ;
818 [label=<gini = 0.0<br/>samples = 1<br/>value = [0, 1]>, fillcolor="#399de5ff"] ;
817 -> 818 ;
819 [label=<gini = 0.0<br/>samples = 8<br/>value = [8, 0]>, fillcolor="#e58139ff"] ;
817 -> 819 ;
820 [label=<X<SUB>0</SUB> &le; 40.0<br/>gini = 0.225<br/>samples = 31<br/>value = [27, 4]>, fillcolor="#e58139d9"] ;
814 -> 820 ;
821 [label=<gini = 0.0<br/>samples = 1<br/>value = [0, 1]>, fillcolor="#399de5ff"] ;
820 -> 821 ;
822 [label=<X<SUB>8</SUB> &le; 21.0<br/>gini = 0.18<br/>samples = 30<br/>value = [27, 3]>, fillcolor="#e58139e3"] ;
820 -> 822 ;
823 [label=<X<SUB>10</SUB> &le; 238297.5<br/>gini = 0.5<br/>samples = 2<br/>value = [1, 1]>, fillcolor="#e5813900"] ;
822 -> 823 ;
824 [label=<gini = 0.0<br/>samples = 1<br/>value = [0, 1]>, fillcolor="#399de5ff"] ;
823 -> 824 ;
825 [label=<gini = 0.0<br/>samples = 1<br/>value = [1, 0]>, fillcolor="#e58139ff"] ;
823 -> 825 ;
826 [label=<X<SUB>10</SUB> &le; 211682.0<br/>gini = 0.133<br/>samples = 28<br/>value = [26, 2]>, fillcolor="#e58139eb"] ;
822 -> 826 ;
827 [label=<X<SUB>7</SUB> &le; 0.5<br/>gini = 0.444<br/>samples = 3<br/>value = [2, 1]>, fillcolor="#e581397f"] ;
826 -> 827 ;
828 [label=<gini = 0.0<br/>samples = 2<br/>value = [2, 0]>, fillcolor="#e58139ff"] ;
827 -> 828 ;
829 [label=<gini = 0.0<br/>samples = 1<br/>value = [0, 1]>, fillcolor="#399de5ff"] ;
827 -> 829 ;
830 [label=<X<SUB>10</SUB> &le; 252497.0<br/>gini = 0.077<br/>samples = 25<br/>value = [24, 1]>, fillcolor="#e58139f4"] ;
826 -> 830 ;
831 [label=<gini = 0.0<br/>samples = 18<br/>value = [18, 0]>, fillcolor="#e58139ff"] ;
830 -> 831 ;
832 [label=<X<SUB>10</SUB> &le; 253698.5<br/>gini = 0.245<br/>samples = 7<br/>value = [6, 1]>, fillcolor="#e58139d4"] ;
830 -> 832 ;
833 [label=<gini = 0.0<br/>samples = 1<br/>value = [0, 1]>, fillcolor="#399de5ff"] ;
832 -> 833 ;
834 [label=<gini = 0.0<br/>samples = 6<br/>value = [6, 0]>, fillcolor="#e58139ff"] ;
832 -> 834 ;
835 [label=<X<SUB>8</SUB> &le; 30.5<br/>gini = 0.375<br/>samples = 4<br/>value = [3, 1]>, fillcolor="#e58139aa"] ;
801 -> 835 ;
836 [label=<gini = 0.0<br/>samples = 3<br/>value = [3, 0]>, fillcolor="#e58139ff"] ;
835 -> 836 ;
837 [label=<gini = 0.0<br/>samples = 1<br/>value = [0, 1]>, fillcolor="#399de5ff"] ;
835 -> 837 ;
838 [label=<X<SUB>17</SUB> &le; 0.5<br/>gini = 0.375<br/>samples = 4<br/>value = [3, 1]>, fillcolor="#e58139aa"] ;
800 -> 838 ;
839 [label=<gini = 0.0<br/>samples = 1<br/>value = [0, 1]>, fillcolor="#399de5ff"] ;
838 -> 839 ;
840 [label=<gini = 0.0<br/>samples = 3<br/>value = [3, 0]>, fillcolor="#e58139ff"] ;
838 -> 840 ;
841 [label=<X<SUB>19</SUB> &le; 0.5<br/>gini = 0.32<br/>samples = 5<br/>value = [4, 1]>, fillcolor="#e58139bf"] ;
779 -> 841 ;
842 [label=<gini = 0.0<br/>samples = 4<br/>value = [4, 0]>, fillcolor="#e58139ff"] ;
841 -> 842 ;
843 [label=<gini = 0.0<br/>samples = 1<br/>value = [0, 1]>, fillcolor="#399de5ff"] ;
841 -> 843 ;
844 [label=<X<SUB>7</SUB> &le; 0.5<br/>gini = 0.444<br/>samples = 3<br/>value = [2, 1]>, fillcolor="#e581397f"] ;
778 -> 844 ;
845 [label=<gini = 0.0<br/>samples = 2<br/>value = [2, 0]>, fillcolor="#e58139ff"] ;
844 -> 845 ;
846 [label=<gini = 0.0<br/>samples = 1<br/>value = [0, 1]>, fillcolor="#399de5ff"] ;
844 -> 846 ;
847 [label=<X<SUB>16</SUB> &le; 0.5<br/>gini = 0.444<br/>samples = 3<br/>value = [2, 1]>, fillcolor="#e581397f"] ;
777 -> 847 ;
848 [label=<gini = 0.0<br/>samples = 2<br/>value = [2, 0]>, fillcolor="#e58139ff"] ;
847 -> 848 ;
849 [label=<gini = 0.0<br/>samples = 1<br/>value = [0, 1]>, fillcolor="#399de5ff"] ;
847 -> 849 ;
850 [label=<X<SUB>10</SUB> &le; 227532.5<br/>gini = 0.301<br/>samples = 38<br/>value = [31, 7]>, fillcolor="#e58139c5"] ;
776 -> 850 ;
851 [label=<X<SUB>20</SUB> &le; 0.5<br/>gini = 0.492<br/>samples = 16<br/>value = [9, 7]>, fillcolor="#e5813939"] ;
850 -> 851 ;
852 [label=<X<SUB>30</SUB> &le; 0.5<br/>gini = 0.245<br/>samples = 7<br/>value = [6, 1]>, fillcolor="#e58139d4"] ;
851 -> 852 ;
853 [label=<gini = 0.0<br/>samples = 5<br/>value = [5, 0]>, fillcolor="#e58139ff"] ;
852 -> 853 ;
854 [label=<X<SUB>18</SUB> &le; 0.5<br/>gini = 0.5<br/>samples = 2<br/>value = [1, 1]>, fillcolor="#e5813900"] ;
852 -> 854 ;
855 [label=<gini = 0.0<br/>samples = 1<br/>value = [1, 0]>, fillcolor="#e58139ff"] ;
854 -> 855 ;
856 [label=<gini = 0.0<br/>samples = 1<br/>value = [0, 1]>, fillcolor="#399de5ff"] ;
854 -> 856 ;
857 [label=<X<SUB>18</SUB> &le; 0.5<br/>gini = 0.444<br/>samples = 9<br/>value = [3, 6]>, fillcolor="#399de57f"] ;
851 -> 857 ;
858 [label=<X<SUB>10</SUB> &le; 219551.0<br/>gini = 0.48<br/>samples = 5<br/>value = [3, 2]>, fillcolor="#e5813955"] ;
857 -> 858 ;
859 [label=<gini = 0.0<br/>samples = 3<br/>value = [3, 0]>, fillcolor="#e58139ff"] ;
858 -> 859 ;
860 [label=<gini = 0.0<br/>samples = 2<br/>value = [0, 2]>, fillcolor="#399de5ff"] ;
858 -> 860 ;
861 [label=<gini = 0.0<br/>samples = 4<br/>value = [0, 4]>, fillcolor="#399de5ff"] ;
857 -> 861 ;
862 [label=<gini = 0.0<br/>samples = 22<br/>value = [22, 0]>, fillcolor="#e58139ff"] ;
850 -> 862 ;
863 [label=<X<SUB>10</SUB> &le; 243719.0<br/>gini = 0.33<br/>samples = 24<br/>value = [19, 5]>, fillcolor="#e58139bc"] ;
775 -> 863 ;
864 [label=<gini = 0.0<br/>samples = 14<br/>value = [14, 0]>, fillcolor="#e58139ff"] ;
863 -> 864 ;
865 [label=<X<SUB>10</SUB> &le; 246677.5<br/>gini = 0.5<br/>samples = 10<br/>value = [5, 5]>, fillcolor="#e5813900"] ;
863 -> 865 ;
866 [label=<gini = 0.0<br/>samples = 2<br/>value = [0, 2]>, fillcolor="#399de5ff"] ;
865 -> 866 ;
867 [label=<X<SUB>8</SUB> &le; 28.0<br/>gini = 0.469<br/>samples = 8<br/>value = [5, 3]>, fillcolor="#e5813966"] ;
865 -> 867 ;
868 [label=<gini = 0.0<br/>samples = 3<br/>value = [3, 0]>, fillcolor="#e58139ff"] ;
867 -> 868 ;
869 [label=<X<SUB>1</SUB> &le; 0.5<br/>gini = 0.48<br/>samples = 5<br/>value = [2, 3]>, fillcolor="#399de555"] ;
