digraph Tree {
node [shape=box, style="filled, rounded", color="black", fontname=helvetica] ;
edge [fontname=helvetica] ;
0 [label=<X<SUB>22</SUB> &le; 0.5<br/>gini = 0.375<br/>samples = 26948<br/>value = [20222, 6726]>, fillcolor="#e58139aa"] ;
1 [label=<X<SUB>2</SUB> &le; 8297.0<br/>gini = 0.211<br/>samples = 14394<br/>value = [12669, 1725]>, fillcolor="#e58139dc"] ;
0 -> 1 [labeldistance=2.5, labelangle=45, headlabel="True"] ;
2 [label=<X<SUB>9</SUB> &le; 2392.5<br/>gini = 0.192<br/>samples = 14138<br/>value = [12619, 1519]>, fillcolor="#e58139e0"] ;
1 -> 2 ;
3 [label=<X<SUB>6</SUB> &le; 13.5<br/>gini = 0.189<br/>samples = 14092<br/>value = [12607, 1485]>, fillcolor="#e58139e1"] ;
2 -> 3 ;
4 [label=<X<SUB>28</SUB> &le; 0.5<br/>gini = 0.162<br/>samples = 11197<br/>value = [10201, 996]>, fillcolor="#e58139e6"] ;
3 -> 4 ;
5 [label=<X<SUB>0</SUB> &le; 47.5<br/>gini = 0.177<br/>samples = 7874<br/>value = [7100, 774]>, fillcolor="#e58139e3"] ;
4 -> 5 ;
6 [label=<X<SUB>38</SUB> &le; 0.5<br/>gini = 0.166<br/>samples = 6648<br/>value = [6041, 607]>, fillcolor="#e58139e5"] ;
5 -> 6 ;
7 [label=<X<SUB>2</SUB> &le; 4719.5<br/>gini = 0.16<br/>samples = 6336<br/>value = [5782, 554]>, fillcolor="#e58139e7"] ;
6 -> 7 ;
8 [label=<X<SUB>9</SUB> &le; 2143.5<br/>gini = 0.158<br/>samples = 6301<br/>value = [5757, 544]>, fillcolor="#e58139e7"] ;
7 -> 8 ;
9 [label=<X<SUB>8</SUB> &le; 73.5<br/>gini = 0.157<br/>samples = 6283<br/>value = [5745, 538]>, fillcolor="#e58139e7"] ;
8 -> 9 ;
10 [label=<X<SUB>16</SUB> &le; 0.5<br/>gini = 0.154<br/>samples = 6193<br/>value = [5671, 522]>, fillcolor="#e58139e8"] ;
9 -> 10 ;
11 [label=<X<SUB>74</SUB> &le; 0.5<br/>gini = 0.139<br/>samples = 3546<br/>value = [3280, 266]>, fillcolor="#e58139ea"] ;
10 -> 11 ;
12 [label=<X<SUB>27</SUB> &le; 0.5<br/>gini = 0.138<br/>samples = 3539<br/>value = [3276, 263]>, fillcolor="#e58139eb"] ;
11 -> 12 ;
13 [label=<X<SUB>33</SUB> &le; 0.5<br/>gini = 0.13<br/>samples = 3223<br/>value = [2998, 225]>, fillcolor="#e58139ec"] ;
12 -> 13 ;
14 [label=<X<SUB>0</SUB> &le; 30.5<br/>gini = 0.136<br/>samples = 2939<br/>value = [2724, 215]>, fillcolor="#e58139eb"] ;
13 -> 14 ;
15 [label=<X<SUB>64</SUB> &le; 0.5<br/>gini = 0.087<br/>samples = 506<br/>value = [483, 23]>, fillcolor="#e58139f3"] ;
14 -> 15 ;
16 [label=<X<SUB>35</SUB> &le; 0.5<br/>gini = 0.083<br/>samples = 505<br/>value = [483, 22]>, fillcolor="#e58139f3"] ;
15 -> 16 ;
17 [label=<X<SUB>51</SUB> &le; 0.5<br/>gini = 0.077<br/>samples = 499<br/>value = [479, 20]>, fillcolor="#e58139f4"] ;
16 -> 17 ;
18 [label=<X<SUB>66</SUB> &le; 0.5<br/>gini = 0.065<br/>samples = 478<br/>value = [462, 16]>, fillcolor="#e58139f6"] ;
17 -> 18 ;
19 [label=<X<SUB>57</SUB> &le; 0.5<br/>gini = 0.058<br/>samples = 470<br/>value = [456, 14]>, fillcolor="#e58139f7"] ;
18 -> 19 ;
20 [label=<X<SUB>42</SUB> &le; 0.5<br/>gini = 0.052<br/>samples = 453<br/>value = [441, 12]>, fillcolor="#e58139f8"] ;
19 -> 20 ;
21 [label=<X<SUB>12</SUB> &le; 0.5<br/>gini = 0.048<br/>samples = 447<br/>value = [436, 11]>, fillcolor="#e58139f9"] ;
20 -> 21 ;
22 [label=<X<SUB>24</SUB> &le; 0.5<br/>gini = 0.033<br/>samples = 360<br/>value = [354, 6]>, fillcolor="#e58139fb"] ;
21 -> 22 ;
23 [label=<X<SUB>8</SUB> &le; 22.5<br/>gini = 0.023<br/>samples = 337<br/>value = [333, 4]>, fillcolor="#e58139fc"] ;
22 -> 23 ;
24 [label=<X<SUB>10</SUB> &le; 44368.0<br/>gini = 0.093<br/>samples = 41<br/>value = [39, 2]>, fillcolor="#e58139f2"] ;
23 -> 24 ;
25 [label=<X<SUB>1</SUB> &le; 0.5<br/>gini = 0.444<br/>samples = 3<br/>value = [2, 1]>, fillcolor="#e581397f"] ;
24 -> 25 ;
26 [label=<gini = 0.0<br/>samples = 2<br/>value = [2, 0]>, fillcolor="#e58139ff"] ;
25 -> 26 ;
27 [label=<gini = 0.0<br/>samples = 1<br/>value = [0, 1]>, fillcolor="#399de5ff"] ;
25 -> 27 ;
28 [label=<X<SUB>10</SUB> &le; 279338.5<br/>gini = 0.051<br/>samples = 38<br/>value = [37, 1]>, fillcolor="#e58139f8"] ;
24 -> 28 ;
29 [label=<gini = 0.0<br/>samples = 28<br/>value = [28, 0]>, fillcolor="#e58139ff"] ;
28 -> 29 ;
30 [label=<X<SUB>10</SUB> &le; 296919.0<br/>gini = 0.18<br/>samples = 10<br/>value = [9, 1]>, fillcolor="#e58139e3"] ;
28 -> 30 ;
31 [label=<gini = 0.0<br/>samples = 1<br/>value = [0, 1]>, fillcolor="#399de5ff"] ;
30 -> 31 ;
32 [label=<gini = 0.0<br/>samples = 9<br/>value = [9, 0]>, fillcolor="#e58139ff"] ;
30 -> 32 ;
33 [label=<X<SUB>18</SUB> &le; 0.5<br/>gini = 0.013<br/>samples = 296<br/>value = [294, 2]>, fillcolor="#e58139fd"] ;
23 -> 33 ;
34 [label=<gini = 0.0<br/>samples = 162<br/>value = [162, 0]>, fillcolor="#e58139ff"] ;
33 -> 34 ;
35 [label=<X<SUB>8</SUB> &le; 28.0<br/>gini = 0.029<br/>samples = 134<br/>value = [132, 2]>, fillcolor="#e58139fb"] ;
33 -> 35 ;
36 [label=<X<SUB>13</SUB> &le; 0.5<br/>gini = 0.111<br/>samples = 17<br/>value = [16, 1]>, fillcolor="#e58139ef"] ;
35 -> 36 ;
37 [label=<gini = 0.0<br/>samples = 15<br/>value = [15, 0]>, fillcolor="#e58139ff"] ;
36 -> 37 ;
38 [label=<X<SUB>0</SUB> &le; 19.0<br/>gini = 0.5<br/>samples = 2<br/>value = [1, 1]>, fillcolor="#e5813900"] ;
36 -> 38 ;
39 [label=<gini = 0.0<br/>samples = 1<br/>value = [0, 1]>, fillcolor="#399de5ff"] ;
38 -> 39 ;
40 [label=<gini = 0.0<br/>samples = 1<br/>value = [1, 0]>, fillcolor="#e58139ff"] ;
38 -> 40 ;
41 [label=<X<SUB>8</SUB> &le; 62.5<br/>gini = 0.017<br/>samples = 117<br/>value = [116, 1]>, fillcolor="#e58139fd"] ;
35 -> 41 ;
42 [label=<gini = 0.0<br/>samples = 80<br/>value = [80, 0]>, fillcolor="#e58139ff"] ;
41 -> 42 ;
43 [label=<X<SUB>8</SUB> &le; 63.5<br/>gini = 0.053<br/>samples = 37<br/>value = [36, 1]>, fillcolor="#e58139f8"] ;
41 -> 43 ;
44 [label=<X<SUB>0</SUB> &le; 16.0<br/>gini = 0.5<br/>samples = 2<br/>value = [1, 1]>, fillcolor="#e5813900"] ;
43 -> 44 ;
45 [label=<gini = 0.0<br/>samples = 1<br/>value = [1, 0]>, fillcolor="#e58139ff"] ;
44 -> 45 ;
46 [label=<gini = 0.0<br/>samples = 1<br/>value = [0, 1]>, fillcolor="#399de5ff"] ;
44 -> 46 ;
47 [label=<gini = 0.0<br/>samples = 35<br/>value = [35, 0]>, fillcolor="#e58139ff"] ;
43 -> 47 ;
48 [label=<X<SUB>45</SUB> &le; 0.5<br/>gini = 0.159<br/>samples = 23<br/>value = [21, 2]>, fillcolor="#e58139e7"] ;
22 -> 48 ;
49 [label=<X<SUB>0</SUB> &le; 24.0<br/>gini = 0.087<br/>samples = 22<br/>value = [21, 1]>, fillcolor="#e58139f3"] ;
48 -> 49 ;
50 [label=<gini = 0.0<br/>samples = 17<br/>value = [17, 0]>, fillcolor="#e58139ff"] ;
49 -> 50 ;
51 [label=<X<SUB>19</SUB> &le; 0.5<br/>gini = 0.32<br/>samples = 5<br/>value = [4, 1]>, fillcolor="#e58139bf"] ;
49 -> 51 ;
52 [label=<gini = 0.0<br/>samples = 3<br/>value = [3, 0]>, fillcolor="#e58139ff"] ;
51 -> 52 ;
53 [label=<X<SUB>36</SUB> &le; 0.5<br/>gini = 0.5<br/>samples = 2<br/>value = [1, 1]>, fillcolor="#e5813900"] ;
51 -> 53 ;
54 [label=<gini = 0.0<br/>samples = 1<br/>value = [0, 1]>, fillcolor="#399de5ff"] ;
53 -> 54 ;
55 [label=<gini = 0.0<br/>samples = 1<br/>value = [1, 0]>, fillcolor="#e58139ff"] ;
53 -> 55 ;
56 [label=<gini = 0.0<br/>samples = 1<br/>value = [0, 1]>, fillcolor="#399de5ff"] ;
48 -> 56 ;
57 [label=<X<SUB>0</SUB> &le; 28.5<br/>gini = 0.108<br/>samples = 87<br/>value = [82, 5]>, fillcolor="#e58139ef"] ;
21 -> 57 ;
58 [label=<X<SUB>17</SUB> &le; 0.5<br/>gini = 0.09<br/>samples = 85<br/>value = [81, 4]>, fillcolor="#e58139f2"] ;
57 -> 58 ;
59 [label=<X<SUB>10</SUB> &le; 169184.5<br/>gini = 0.059<br/>samples = 66<br/>value = [64, 2]>, fillcolor="#e58139f7"] ;
58 -> 59 ;
60 [label=<X<SUB>10</SUB> &le; 168521.0<br/>gini = 0.137<br/>samples = 27<br/>value = [25, 2]>, fillcolor="#e58139eb"] ;
59 -> 60 ;
61 [label=<X<SUB>8</SUB> &le; 65.0<br/>gini = 0.074<br/>samples = 26<br/>value = [25, 1]>, fillcolor="#e58139f5"] ;
60 -> 61 ;
62 [label=<gini = 0.0<br/>samples = 22<br/>value = [22, 0]>, fillcolor="#e58139ff"] ;
61 -> 62 ;
63 [label=<X<SUB>0</SUB> &le; 22.0<br/>gini = 0.375<br/>samples = 4<br/>value = [3, 1]>, fillcolor="#e58139aa"] ;
61 -> 63 ;
64 [label=<gini = 0.0<br/>samples = 2<br/>value = [2, 0]>, fillcolor="#e58139ff"] ;
63 -> 64 ;
65 [label=<X<SUB>1</SUB> &le; 0.5<br/>gini = 0.5<br/>samples = 2<br/>value = [1, 1]>, fillcolor="#e5813900"] ;
63 -> 65 ;
66 [label=<gini = 0.0<br/>samples = 1<br/>value = [1, 0]>, fillcolor="#e58139ff"] ;
65 -> 66 ;
67 [label=<gini = 0.0<br/>samples = 1<br/>value = [0, 1]>, fillcolor="#399de5ff"] ;
65 -> 67 ;
68 [label=<gini = 0.0<br/>samples = 1<br/>value = [0, 1]>, fillcolor="#399de5ff"] ;
60 -> 68 ;
69 [label=<gini = 0.0<br/>samples = 39<br/>value = [39, 0]>, fillcolor="#e58139ff"] ;
59 -> 69 ;
70 [label=<X<SUB>10</SUB> &le; 299253.5<br/>gini = 0.188<br/>samples = 19<br/>value = [17, 2]>, fillcolor="#e58139e1"] ;
58 -> 70 ;
71 [label=<X<SUB>13</SUB> &le; 0.5<br/>gini = 0.105<br/>samples = 18<br/>value = [17, 1]>, fillcolor="#e58139f0"] ;
70 -> 71 ;
72 [label=<gini = 0.0<br/>samples = 16<br/>value = [16, 0]>, fillcolor="#e58139ff"] ;
71 -> 72 ;
73 [label=<X<SUB>1</SUB> &le; 0.5<br/>gini = 0.5<br/>samples = 2<br/>value = [1, 1]>, fillcolor="#e5813900"] ;
71 -> 73 ;
74 [label=<gini = 0.0<br/>samples = 1<br/>value = [1, 0]>, fillcolor="#e58139ff"] ;
73 -> 74 ;
75 [label=<gini = 0.0<br/>samples = 1<br/>value = [0, 1]>, fillcolor="#399de5ff"] ;
73 -> 75 ;
76 [label=<gini = 0.0<br/>samples = 1<br/>value = [0, 1]>, fillcolor="#399de5ff"] ;
70 -> 76 ;
77 [label=<X<SUB>1</SUB> &le; 0.5<br/>gini = 0.5<br/>samples = 2<br/>value = [1, 1]>, fillcolor="#e5813900"] ;
57 -> 77 ;
78 [label=<gini = 0.0<br/>samples = 1<br/>value = [1, 0]>, fillcolor="#e58139ff"] ;
77 -> 78 ;
79 [label=<gini = 0.0<br/>samples = 1<br/>value = [0, 1]>, fillcolor="#399de5ff"] ;
77 -> 79 ;
80 [label=<X<SUB>8</SUB> &le; 58.5<br/>gini = 0.278<br/>samples = 6<br/>value = [5, 1]>, fillcolor="#e58139cc"] ;
20 -> 80 ;
81 [label=<gini = 0.0<br/>samples = 5<br/>value = [5, 0]>, fillcolor="#e58139ff"] ;
80 -> 81 ;
82 [label=<gini = 0.0<br/>samples = 1<br/>value = [0, 1]>, fillcolor="#399de5ff"] ;
80 -> 82 ;
83 [label=<X<SUB>10</SUB> &le; 133860.5<br/>gini = 0.208<br/>samples = 17<br/>value = [15, 2]>, fillcolor="#e58139dd"] ;
19 -> 83 ;
84 [label=<X<SUB>10</SUB> &le; 107187.0<br/>gini = 0.5<br/>samples = 4<br/>value = [2, 2]>, fillcolor="#e5813900"] ;
83 -> 84 ;
85 [label=<gini = 0.0<br/>samples = 2<br/>value = [2, 0]>, fillcolor="#e58139ff"] ;
84 -> 85 ;
86 [label=<gini = 0.0<br/>samples = 2<br/>value = [0, 2]>, fillcolor="#399de5ff"] ;
84 -> 86 ;
87 [label=<gini = 0.0<br/>samples = 13<br/>value = [13, 0]>, fillcolor="#e58139ff"] ;
83 -> 87 ;
88 [label=<X<SUB>6</SUB> &le; 10.5<br/>gini = 0.375<br/>samples = 8<br/>value = [6, 2]>, fillcolor="#e58139aa"] ;
18 -> 88 ;
89 [label=<gini = 0.0<br/>samples = 5<br/>value = [5, 0]>, fillcolor="#e58139ff"] ;
88 -> 89 ;
90 [label=<X<SUB>10</SUB> &le; 383960.5<br/>gini = 0.444<br/>samples = 3<br/>value = [1, 2]>, fillcolor="#399de57f"] ;
88 -> 90 ;
91 [label=<gini = 0.0<br/>samples = 2<br/>value = [0, 2]>, fillcolor="#399de5ff"] ;
90 -> 91 ;
92 [label=<gini = 0.0<br/>samples = 1<br/>value = [1, 0]>, fillcolor="#e58139ff"] ;
90 -> 92 ;
93 [label=<X<SUB>10</SUB> &le; 213528.0<br/>gini = 0.308<br/>samples = 21<br/>value = [17, 4]>, fillcolor="#e58139c3"] ;
17 -> 93 ;
94 [label=<X<SUB>10</SUB> &le; 164003.5<br/>gini = 0.408<br/>samples = 14<br/>value = [10, 4]>, fillcolor="#e5813999"] ;
93 -> 94 ;
95 [label=<X<SUB>10</SUB> &le; 52009.0<br/>gini = 0.18<br/>samples = 10<br/>value = [9, 1]>, fillcolor="#e58139e3"] ;
94 -> 95 ;
96 [label=<X<SUB>30</SUB> &le; 0.5<br/>gini = 0.444<br/>samples = 3<br/>value = [2, 1]>, fillcolor="#e581397f"] ;
95 -> 96 ;
97 [label=<gini = 0.0<br/>samples = 2<br/>value = [2, 0]>, fillcolor="#e58139ff"] ;
96 -> 97 ;
98 [label=<gini = 0.0<br/>samples = 1<br/>value = [0, 1]>, fillcolor="#399de5ff"] ;
96 -> 98 ;
99 [label=<gini = 0.0<br/>samples = 7<br/>value = [7, 0]>, fillcolor="#e58139ff"] ;
95 -> 99 ;
100 [label=<X<SUB>30</SUB> &le; 0.5<br/>gini = 0.375<br/>samples = 4<br/>value = [1, 3]>, fillcolor="#399de5aa"] ;
94 -> 100 ;
101 [label=<gini = 0.0<br/>samples = 2<br/>value = [0, 2]>, fillcolor="#399de5ff"] ;
100 -> 101 ;
102 [label=<X<SUB>1</SUB> &le; 0.5<br/>gini = 0.5<br/>samples = 2<br/>value = [1, 1]>, fillcolor="#e5813900"] ;
100 -> 102 ;
103 [label=<gini = 0.0<br/>samples = 1<br/>value = [0, 1]>, fillcolor="#399de5ff"] ;
102 -> 103 ;
104 [label=<gini = 0.0<br/>samples = 1<br/>value = [1, 0]>, fillcolor="#e58139ff"] ;
102 -> 104 ;
105 [label=<gini = 0.0<br/>samples = 7<br/>value = [7, 0]>, fillcolor="#e58139ff"] ;
93 -> 105 ;
106 [label=<X<SUB>10</SUB> &le; 203200.0<br/>gini = 0.444<br/>samples = 6<br/>value = [4, 2]>, fillcolor="#e581397f"] ;
16 -> 106 ;
107 [label=<gini = 0.0<br/>samples = 3<br/>value = [3, 0]>, fillcolor="#e58139ff"] ;
106 -> 107 ;
108 [label=<X<SUB>8</SUB> &le; 60.5<br/>gini = 0.444<br/>samples = 3<br/>value = [1, 2]>, fillcolor="#399de57f"] ;
106 -> 108 ;
109 [label=<gini = 0.0<br/>samples = 2<br/>value = [0, 2]>, fillcolor="#399de5ff"] ;
108 -> 109 ;
110 [label=<gini = 0.0<br/>samples = 1<br/>value = [1, 0]>, fillcolor="#e58139ff"] ;
108 -> 110 ;
111 [label=<gini = 0.0<br/>samples = 1<br/>value = [0, 1]>, fillcolor="#399de5ff"] ;
15 -> 111 ;
112 [label=<X<SUB>10</SUB> &le; 21427.0<br/>gini = 0.145<br/>samples = 2433<br/>value = [2241, 192]>, fillcolor="#e58139e9"] ;
14 -> 112 ;
113 [label=<X<SUB>0</SUB> &le; 38.5<br/>gini = 0.444<br/>samples = 6<br/>value = [4, 2]>, fillcolor="#e581397f"] ;
112 -> 113 ;
114 [label=<gini = 0.0<br/>samples = 2<br/>value = [0, 2]>, fillcolor="#399de5ff"] ;
113 -> 114 ;
115 [label=<gini = 0.0<br/>samples = 4<br/>value = [4, 0]>, fillcolor="#e58139ff"] ;
113 -> 115 ;
116 [label=<X<SUB>10</SUB> &le; 216093.0<br/>gini = 0.144<br/>samples = 2427<br/>value = [2237, 190]>, fillcolor="#e58139e9"] ;
112 -> 116 ;
117 [label=<X<SUB>1</SUB> &le; 0.5<br/>gini = 0.129<br/>samples = 1657<br/>value = [1542, 115]>, fillcolor="#e58139ec"] ;
116 -> 117 ;
118 [label=<X<SUB>102</SUB> &le; 0.5<br/>gini = 0.109<br/>samples = 1155<br/>value = [1088, 67]>, fillcolor="#e58139ef"] ;
117 -> 118 ;
119 [label=<X<SUB>93</SUB> &le; 0.5<br/>gini = 0.108<br/>samples = 1154<br/>value = [1088, 66]>, fillcolor="#e58139f0"] ;
118 -> 119 ;
120 [label=<X<SUB>46</SUB> &le; 0.5<br/>gini = 0.106<br/>samples = 1152<br/>value = [1087, 65]>, fillcolor="#e58139f0"] ;
119 -> 120 ;
121 [label=<X<SUB>8</SUB> &le; 66.5<br/>gini = 0.104<br/>samples = 1145<br/>value = [1082, 63]>, fillcolor="#e58139f0"] ;
120 -> 121 ;
122 [label=<X<SUB>43</SUB> &le; 0.5<br/>gini = 0.1<br/>samples = 1117<br/>value = [1058, 59]>, fillcolor="#e58139f1"] ;
121 -> 122 ;
123 [label=<X<SUB>10</SUB> &le; 167587.5<br/>gini = 0.091<br/>samples = 987<br/>value = [940, 47]>, fillcolor="#e58139f2"] ;
122 -> 123 ;
124 [label=<X<SUB>10</SUB> &le; 164243.0<br/>gini = 0.109<br/>samples = 621<br/>value = [585, 36]>, fillcolor="#e58139ef"] ;
123 -> 124 ;
125 [label=<X<SUB>2</SUB> &le; 2189.0<br/>gini = 0.098<br/>samples = 603<br/>value = [572, 31]>, fillcolor="#e58139f1"] ;
124 -> 125 ;
126 [label=<X<SUB>10</SUB> &le; 160873.5<br/>gini = 0.093<br/>samples = 593<br/>value = [564, 29]>, fillcolor="#e58139f2"] ;
125 -> 126 ;
127 [label=<X<SUB>14</SUB> &le; 0.5<br/>gini = 0.087<br/>samples = 573<br/>value = [547, 26]>, fillcolor="#e58139f3"] ;
126 -> 127 ;
128 [label=<X<SUB>15</SUB> &le; 0.5<br/>gini = 0.08<br/>samples = 551<br/>value = [528, 23]>, fillcolor="#e58139f4"] ;
127 -> 128 ;
129 [label=<X<SUB>9</SUB> &le; 1926.0<br/>gini = 0.075<br/>samples = 540<br/>value = [519, 21]>, fillcolor="#e58139f5"] ;
128 -> 129 ;
130 [label=<X<SUB>10</SUB> &le; 151869.0<br/>gini = 0.072<br/>samples = 536<br/>value = [516, 20]>, fillcolor="#e58139f5"] ;
129 -> 130 ;
131 [label=<X<SUB>10</SUB> &le; 151804.0<br/>gini = 0.079<br/>samples = 484<br/>value = [464, 20]>, fillcolor="#e58139f4"] ;
130 -> 131 ;
132 [label=<X<SUB>3</SUB> &le; 0.5<br/>gini = 0.076<br/>samples = 483<br/>value = [464, 19]>, fillcolor="#e58139f5"] ;
131 -> 132 ;
133 [label=<X<SUB>54</SUB> &le; 0.5<br/>gini = 0.02<br/>samples = 97<br/>value = [96, 1]>, fillcolor="#e58139fc"] ;
132 -> 133 ;
134 [label=<gini = 0.0<br/>samples = 93<br/>value = [93, 0]>, fillcolor="#e58139ff"] ;
133 -> 134 ;
135 [label=<X<SUB>10</SUB> &le; 45668.5<br/>gini = 0.375<br/>samples = 4<br/>value = [3, 1]>, fillcolor="#e58139aa"] ;
133 -> 135 ;
136 [label=<gini = 0.0<br/>samples = 1<br/>value = [0, 1]>, fillcolor="#399de5ff"] ;
135 -> 136 ;
137 [label=<gini = 0.0<br/>samples = 3<br/>value = [3, 0]>, fillcolor="#e58139ff"] ;
135 -> 137 ;
138 [label=<X<SUB>8</SUB> &le; 38.5<br/>gini = 0.089<br/>samples = 386<br/>value = [368, 18]>, fillcolor="#e58139f3"] ;
132 -> 138 ;
139 [label=<X<SUB>10</SUB> &le; 106085.0<br/>gini = 0.12<br/>samples = 172<br/>value = [161, 11]>, fillcolor="#e58139ee"] ;
138 -> 139 ;
140 [label=<X<SUB>10</SUB> &le; 31948.5<br/>gini = 0.043<br/>samples = 90<br/>value = [88, 2]>, fillcolor="#e58139f9"] ;
139 -> 140 ;
141 [label=<X<SUB>10</SUB> &le; 31474.5<br/>gini = 0.298<br/>samples = 11<br/>value = [9, 2]>, fillcolor="#e58139c6"] ;
140 -> 141 ;
142 [label=<X<SUB>0</SUB> &le; 37.5<br/>gini = 0.18<br/>samples = 10<br/>value = [9, 1]>, fillcolor="#e58139e3"] ;
141 -> 142 ;
143 [label=<gini = 0.0<br/>samples = 1<br/>value = [0, 1]>, fillcolor="#399de5ff"] ;
142 -> 143 ;
144 [label=<gini = 0.0<br/>samples = 9<br/>value = [9, 0]>, fillcolor="#e58139ff"] ;
142 -> 144 ;
145 [label=<gini = 0.0<br/>samples = 1<br/>value = [0, 1]>, fillcolor="#399de5ff"] ;
141 -> 145 ;
146 [label=<gini = 0.0<br/>samples = 79<br/>value = [79, 0]>, fillcolor="#e58139ff"] ;
140 -> 146 ;
147 [label=<X<SUB>10</SUB> &le; 107370.0<br/>gini = 0.195<br/>samples = 82<br/>value = [73, 9]>, fillcolor="#e58139e0"] ;
139 -> 147 ;
148 [label=<gini = 0.0<br/>samples = 1<br/>value = [0, 1]>, fillcolor="#399de5ff"] ;
147 -> 148 ;
149 [label=<X<SUB>10</SUB> &le; 123874.0<br/>gini = 0.178<br/>samples = 81<br/>value = [73, 8]>, fillcolor="#e58139e3"] ;
147 -> 149 ;
150 [label=<X<SUB>17</SUB> &le; 0.5<br/>gini = 0.293<br/>samples = 28<br/>value = [23, 5]>, fillcolor="#e58139c8"] ;
149 -> 150 ;
151 [label=<X<SUB>18</SUB> &le; 0.5<br/>gini = 0.252<br/>samples = 27<br/>value = [23, 4]>, fillcolor="#e58139d3"] ;
150 -> 151 ;
152 [label=<gini = 0.0<br/>samples = 8<br/>value = [8, 0]>, fillcolor="#e58139ff"] ;
151 -> 152 ;
153 [label=<X<SUB>8</SUB> &le; 31.5<br/>gini = 0.332<br/>samples = 19<br/>value = [15, 4]>, fillcolor="#e58139bb"] ;
151 -> 153 ;
154 [label=<X<SUB>8</SUB> &le; 23.5<br/>gini = 0.165<br/>samples = 11<br/>value = [10, 1]>, fillcolor="#e58139e6"] ;
153 -> 154 ;
155 [label=<X<SUB>10</SUB> &le; 121196.5<br/>gini = 0.5<br/>samples = 2<br/>value = [1, 1]>, fillcolor="#e5813900"] ;
154 -> 155 ;
156 [label=<gini = 0.0<br/>samples = 1<br/>value = [0, 1]>, fillcolor="#399de5ff"] ;
155 -> 156 ;
157 [label=<gini = 0.0<br/>samples = 1<br/>value = [1, 0]>, fillcolor="#e58139ff"] ;
155 -> 157 ;
158 [label=<gini = 0.0<br/>samples = 9<br/>value = [9, 0]>, fillcolor="#e58139ff"] ;
154 -> 158 ;
159 [label=<X<SUB>10</SUB> &le; 122288.5<br/>gini = 0.469<br/>samples = 8<br/>value = [5, 3]>, fillcolor="#e5813966"] ;
153 -> 159 ;
160 [label=<X<SUB>10</SUB> &le; 116867.5<br/>gini = 0.408<br/>samples = 7<br/>value = [5, 2]>, fillcolor="#e5813999"] ;
159 -> 160 ;
161 [label=<X<SUB>19</SUB> &le; 0.5<br/>gini = 0.444<br/>samples = 3<br/>value = [1, 2]>, fillcolor="#399de57f"] ;
160 -> 161 ;
162 [label=<gini = 0.0<br/>samples = 1<br/>value = [1, 0]>, fillcolor="#e58139ff"] ;
161 -> 162 ;
163 [label=<gini = 0.0<br/>samples = 2<br/>value = [0, 2]>, fillcolor="#399de5ff"] ;
161 -> 163 ;
164 [label=<gini = 0.0<br/>samples = 4<br/>value = [4, 0]>, fillcolor="#e58139ff"] ;
160 -> 164 ;
165 [label=<gini = 0.0<br/>samples = 1<br/>value = [0, 1]>, fillcolor="#399de5ff"] ;
159 -> 165 ;
166 [label=<gini = 0.0<br/>samples = 1<br/>value = [0, 1]>, fillcolor="#399de5ff"] ;
150 -> 166 ;
167 [label=<X<SUB>40</SUB> &le; 0.5<br/>gini = 0.107<br/>samples = 53<br/>value = [50, 3]>, fillcolor="#e58139f0"] ;
149 -> 167 ;
168 [label=<X<SUB>13</SUB> &le; 0.5<br/>gini = 0.045<br/>samples = 43<br/>value = [42, 1]>, fillcolor="#e58139f9"] ;
167 -> 168 ;
169 [label=<gini = 0.0<br/>samples = 32<br/>value = [32, 0]>, fillcolor="#e58139ff"] ;
168 -> 169 ;
170 [label=<X<SUB>30</SUB> &le; 0.5<br/>gini = 0.165<br/>samples = 11<br/>value = [10, 1]>, fillcolor="#e58139e6"] ;
168 -> 170 ;
171 [label=<gini = 0.0<br/>samples = 8<br/>value = [8, 0]>, fillcolor="#e58139ff"] ;
170 -> 171 ;
172 [label=<X<SUB>8</SUB> &le; 36.0<br/>gini = 0.444<br/>samples = 3<br/>value = [2, 1]>, fillcolor="#e581397f"] ;
170 -> 172 ;
173 [label=<X<SUB>0</SUB> &le; 38.5<br/>gini = 0.5<br/>samples = 2<br/>value = [1, 1]>, fillcolor="#e5813900"] ;
172 -> 173 ;
174 [label=<gini = 0.0<br/>samples = 1<br/>value = [0, 1]>, fillcolor="#399de5ff"] ;
173 -> 174 ;
175 [label=<gini = 0.0<br/>samples = 1<br/>value = [1, 0]>, fillcolor="#e58139ff"] ;
173 -> 175 ;
176 [label=<gini = 0.0<br/>samples = 1<br/>value = [1, 0]>, fillcolor="#e58139ff"] ;
172 -> 176 ;
177 [label=<X<SUB>10</SUB> &le; 146931.0<br/>gini = 0.32<br/>samples = 10<br/>value = [8, 2]>, fillcolor="#e58139bf"] ;
167 -> 177 ;
178 [label=<X<SUB>5</SUB> &le; 0.5<br/>gini = 0.198<br/>samples = 9<br/>value = [8, 1]>, fillcolor="#e58139df"] ;
177 -> 178 ;
179 [label=<gini = 0.0<br/>samples = 7<br/>value = [7, 0]>, fillcolor="#e58139ff"] ;
178 -> 179 ;
180 [label=<X<SUB>12</SUB> &le; 0.5<br/>gini = 0.5<br/>samples = 2<br/>value = [1, 1]>, fillcolor="#e5813900"] ;
178 -> 180 ;
181 [label=<gini = 0.0<br/>samples = 1<br/>value = [1, 0]>, fillcolor="#e58139ff"] ;
180 -> 181 ;
182 [label=<gini = 0.0<br/>samples = 1<br/>value = [0, 1]>, fillcolor="#399de5ff"] ;
180 -> 182 ;
183 [label=<gini = 0.0<br/>samples = 1<br/>value = [0, 1]>, fillcolor="#399de5ff"] ;
177 -> 183 ;
184 [label=<X<SUB>49</SUB> &le; 0.5<br/>gini = 0.063<br/>samples = 214<br/>value = [207, 7]>, fillcolor="#e58139f6"] ;
138 -> 184 ;
185 [label=<X<SUB>57</SUB> &le; 0.5<br/>gini = 0.055<br/>samples = 211<br/>value = [205, 6]>, fillcolor="#e58139f8"] ;
184 -> 185 ;
186 [label=<X<SUB>13</SUB> &le; 0.5<br/>gini = 0.047<br/>samples = 207<br/>value = [202, 5]>, fillcolor="#e58139f9"] ;
185 -> 186 ;
187 [label=<X<SUB>0</SUB> &le; 31.5<br/>gini = 0.112<br/>samples = 67<br/>value = [63, 4]>, fillcolor="#e58139ef"] ;
186 -> 187 ;
188 [label=<X<SUB>24</SUB> &le; 0.5<br/>gini = 0.444<br/>samples = 3<br/>value = [2, 1]>, fillcolor="#e581397f"] ;
187 -> 188 ;
189 [label=<gini = 0.0<br/>samples = 2<br/>value = [2, 0]>, fillcolor="#e58139ff"] ;
188 -> 189 ;
190 [label=<gini = 0.0<br/>samples = 1<br/>value = [0, 1]>, fillcolor="#399de5ff"] ;
188 -> 190 ;
191 [label=<X<SUB>10</SUB> &le; 114259.0<br/>gini = 0.089<br/>samples = 64<br/>value = [61, 3]>, fillcolor="#e58139f2"] ;
187 -> 191 ;
192 [label=<X<SUB>10</SUB> &le; 109687.0<br/>gini = 0.13<br/>samples = 43<br/>value = [40, 3]>, fillcolor="#e58139ec"] ;
191 -> 192 ;
193 [label=<X<SUB>12</SUB> &le; 0.5<br/>gini = 0.091<br/>samples = 42<br/>value = [40, 2]>, fillcolor="#e58139f2"] ;
192 -> 193 ;
194 [label=<X<SUB>8</SUB> &le; 61.0<br/>gini = 0.054<br/>samples = 36<br/>value = [35, 1]>, fillcolor="#e58139f8"] ;
193 -> 194 ;
195 [label=<gini = 0.0<br/>samples = 30<br/>value = [30, 0]>, fillcolor="#e58139ff"] ;
194 -> 195 ;
196 [label=<X<SUB>8</SUB> &le; 62.5<br/>gini = 0.278<br/>samples = 6<br/>value = [5, 1]>, fillcolor="#e58139cc"] ;
194 -> 196 ;
197 [label=<gini = 0.0<br/>samples = 1<br/>value = [0, 1]>, fillcolor="#399de5ff"] ;
196 -> 197 ;
198 [label=<gini = 0.0<br/>samples = 5<br/>value = [5, 0]>, fillcolor="#e58139ff"] ;
196 -> 198 ;
199 [label=<X<SUB>8</SUB> &le; 50.0<br/>gini = 0.278<br/>samples = 6<br/>value = [5, 1]>, fillcolor="#e58139cc"] ;
193 -> 199 ;
200 [label=<X<SUB>6</SUB> &le; 11.5<br/>gini = 0.5<br/>samples = 2<br/>value = [1, 1]>, fillcolor="#e5813900"] ;
199 -> 200 ;
201 [label=<gini = 0.0<br/>samples = 1<br/>value = [0, 1]>, fillcolor="#399de5ff"] ;
200 -> 201 ;
202 [label=<gini = 0.0<br/>samples = 1<br/>value = [1, 0]>, fillcolor="#e58139ff"] ;
200 -> 202 ;
203 [label=<gini = 0.0<br/>samples = 4<br/>value = [4, 0]>, fillcolor="#e58139ff"] ;
199 -> 203 ;
204 [label=<gini = 0.0<br/>samples = 1<br/>value = [0, 1]>, fillcolor="#399de5ff"] ;
192 -> 204 ;
205 [label=<gini = 0.0<br/>samples = 21<br/>value = [21, 0]>, fillcolor="#e58139ff"] ;
191 -> 205 ;
206 [label=<X<SUB>8</SUB> &le; 45.5<br/>gini = 0.014<br/>samples = 140<br/>value = [139, 1]>, fillcolor="#e58139fd"] ;
186 -> 206 ;
207 [label=<X<SUB>8</SUB> &le; 44.5<br/>gini = 0.041<br/>samples = 48<br/>value = [47, 1]>, fillcolor="#e58139fa"] ;
206 -> 207 ;
208 [label=<gini = 0.0<br/>samples = 43<br/>value = [43, 0]>, fillcolor="#e58139ff"] ;
207 -> 208 ;
209 [label=<X<SUB>10</SUB> &le; 97932.5<br/>gini = 0.32<br/>samples = 5<br/>value = [4, 1]>, fillcolor="#e58139bf"] ;
207 -> 209 ;
210 [label=<X<SUB>30</SUB> &le; 0.5<br/>gini = 0.5<br/>samples = 2<br/>value = [1, 1]>, fillcolor="#e5813900"] ;
209 -> 210 ;
211 [label=<gini = 0.0<br/>samples = 1<br/>value = [1, 0]>, fillcolor="#e58139ff"] ;
210 -> 211 ;
212 [label=<gini = 0.0<br/>samples = 1<br/>value = [0, 1]>, fillcolor="#399de5ff"] ;
210 -> 212 ;
213 [label=<gini = 0.0<br/>samples = 3<br/>value = [3, 0]>, fillcolor="#e58139ff"] ;
209 -> 213 ;
214 [label=<gini = 0.0<br/>samples = 92<br/>value = [92, 0]>, fillcolor="#e58139ff"] ;
206 -> 214 ;
215 [label=<X<SUB>8</SUB> &le; 45.0<br/>gini = 0.375<br/>samples = 4<br/>value = [3, 1]>, fillcolor="#e58139aa"] ;
185 -> 215 ;
216 [label=<gini = 0.0<br/>samples = 1<br/>value = [0, 1]>, fillcolor="#399de5ff"] ;
215 -> 216 ;
217 [label=<gini = 0.0<br/>samples = 3<br/>value = [3, 0]>, fillcolor="#e58139ff"] ;
215 -> 217 ;
218 [label=<X<SUB>5</SUB> &le; 0.5<br/>gini = 0.444<br/>samples = 3<br/>value = [2, 1]>, fillcolor="#e581397f"] ;
184 -> 218 ;
219 [label=<gini = 0.0<br/>samples = 1<br/>value = [0, 1]>, fillcolor="#399de5ff"] ;
218 -> 219 ;
220 [label=<gini = 0.0<br/>samples = 2<br/>value = [2, 0]>, fillcolor="#e58139ff"] ;
218 -> 220 ;
221 [label=<gini = 0.0<br/>samples = 1<br/>value = [0, 1]>, fillcolor="#399de5ff"] ;
131 -> 221 ;
222 [label=<gini = 0.0<br/>samples = 52<br/>value = [52, 0]>, fillcolor="#e58139ff"] ;
130 -> 222 ;
223 [label=<X<SUB>51</SUB> &le; 0.5<br/>gini = 0.375<br/>samples = 4<br/>value = [3, 1]>, fillcolor="#e58139aa"] ;
129 -> 223 ;
224 [label=<gini = 0.0<br/>samples = 3<br/>value = [3, 0]>, fillcolor="#e58139ff"] ;
223 -> 224 ;
225 [label=<gini = 0.0<br/>samples = 1<br/>value = [0, 1]>, fillcolor="#399de5ff"] ;
223 -> 225 ;
226 [label=<X<SUB>49</SUB> &le; 0.5<br/>gini = 0.298<br/>samples = 11<br/>value = [9, 2]>, fillcolor="#e58139c6"] ;
128 -> 226 ;
227 [label=<X<SUB>10</SUB> &le; 31663.5<br/>gini = 0.18<br/>samples = 10<br/>value = [9, 1]>, fillcolor="#e58139e3"] ;
226 -> 227 ;
228 [label=<gini = 0.0<br/>samples = 1<br/>value = [0, 1]>, fillcolor="#399de5ff"] ;
227 -> 228 ;
229 [label=<gini = 0.0<br/>samples = 9<br/>value = [9, 0]>, fillcolor="#e58139ff"] ;
227 -> 229 ;
230 [label=<gini = 0.0<br/>samples = 1<br/>value = [0, 1]>, fillcolor="#399de5ff"] ;
226 -> 230 ;
231 [label=<X<SUB>8</SUB> &le; 41.5<br/>gini = 0.236<br/>samples = 22<br/>value = [19, 3]>, fillcolor="#e58139d7"] ;
127 -> 231 ;
232 [label=<X<SUB>5</SUB> &le; 0.5<br/>gini = 0.49<br/>samples = 7<br/>value = [4, 3]>, fillcolor="#e5813940"] ;
231 -> 232 ;
233 [label=<gini = 0.0<br/>samples = 2<br/>value = [2, 0]>, fillcolor="#e58139ff"] ;
232 -> 233 ;
234 [label=<X<SUB>3</SUB> &le; 0.5<br/>gini = 0.48<br/>samples = 5<br/>value = [2, 3]>, fillcolor="#399de555"] ;
232 -> 234 ;
235 [label=<gini = 0.0<br/>samples = 2<br/>value = [0, 2]>, fillcolor="#399de5ff"] ;
234 -> 235 ;
236 [label=<X<SUB>8</SUB> &le; 38.5<br/>gini = 0.444<br/>samples = 3<br/>value = [2, 1]>, fillcolor="#e581397f"] ;
234 -> 236 ;
237 [label=<gini = 0.0<br/>samples = 2<br/>value = [2, 0]>, fillcolor="#e58139ff"] ;
236 -> 237 ;
238 [label=<gini = 0.0<br/>samples = 1<br/>value = [0, 1]>, fillcolor="#399de5ff"] ;
236 -> 238 ;
239 [label=<gini = 0.0<br/>samples = 15<br/>value = [15, 0]>, fillcolor="#e58139ff"] ;
231 -> 239 ;
240 [label=<X<SUB>6</SUB> &le; 7.0<br/>gini = 0.255<br/>samples = 20<br/>value = [17, 3]>, fillcolor="#e58139d2"] ;
126 -> 240 ;
241 [label=<gini = 0.0<br/>samples = 1<br/>value = [0, 1]>, fillcolor="#399de5ff"] ;
240 -> 241 ;
242 [label=<X<SUB>6</SUB> &le; 11.5<br/>gini = 0.188<br/>samples = 19<br/>value = [17, 2]>, fillcolor="#e58139e1"] ;
240 -> 242 ;
243 [label=<X<SUB>36</SUB> &le; 0.5<br/>gini = 0.105<br/>samples = 18<br/>value = [17, 1]>, fillcolor="#e58139f0"] ;
242 -> 243 ;
244 [label=<gini = 0.0<br/>samples = 16<br/>value = [16, 0]>, fillcolor="#e58139ff"] ;
243 -> 244 ;
245 [label=<X<SUB>10</SUB> &le; 163005.5<br/>gini = 0.5<br/>samples = 2<br/>value = [1, 1]>, fillcolor="#e5813900"] ;
243 -> 245 ;
246 [label=<gini = 0.0<br/>samples = 1<br/>value = [0, 1]>, fillcolor="#399de5ff"] ;
245 -> 246 ;
247 [label=<gini = 0.0<br/>samples = 1<br/>value = [1, 0]>, fillcolor="#e58139ff"] ;
245 -> 247 ;
248 [label=<gini = 0.0<br/>samples = 1<br/>value = [0, 1]>, fillcolor="#399de5ff"] ;
242 -> 248 ;
249 [label=<X<SUB>8</SUB> &le; 51.0<br/>gini = 0.32<br/>samples = 10<br/>value = [8, 2]>, fillcolor="#e58139bf"] ;
125 -> 249 ;
250 [label=<gini = 0.0<br/>samples = 8<br/>value = [8, 0]>, fillcolor="#e58139ff"] ;
249 -> 250 ;
251 [label=<gini = 0.0<br/>samples = 2<br/>value = [0, 2]>, fillcolor="#399de5ff"] ;
249 -> 251 ;
252 [label=<X<SUB>10</SUB> &le; 165261.5<br/>gini = 0.401<br/>samples = 18<br/>value = [13, 5]>, fillcolor="#e581399d"] ;
124 -> 252 ;
253 [label=<X<SUB>5</SUB> &le; 0.5<br/>gini = 0.48<br/>samples = 5<br/>value = [2, 3]>, fillcolor="#399de555"] ;
252 -> 253 ;
254 [label=<gini = 0.0<br/>samples = 3<br/>value = [0, 3]>, fillcolor="#399de5ff"] ;
253 -> 254 ;
255 [label=<gini = 0.0<br/>samples = 2<br/>value = [2, 0]>, fillcolor="#e58139ff"] ;
253 -> 255 ;
256 [label=<X<SUB>10</SUB> &le; 167470.5<br/>gini = 0.26<br/>samples = 13<br/>value = [11, 2]>, fillcolor="#e58139d1"] ;
252 -> 256 ;
257 [label=<X<SUB>51</SUB> &le; 0.5<br/>gini = 0.153<br/>samples = 12<br/>value = [11, 1]>, fillcolor="#e58139e8"] ;
256 -> 257 ;
258 [label=<gini = 0.0<br/>samples = 11<br/>value = [11, 0]>, fillcolor="#e58139ff"] ;
257 -> 258 ;
259 [label=<gini = 0.0<br/>samples = 1<br/>value = [0, 1]>, fillcolor="#399de5ff"] ;
257 -> 259 ;
260 [label=<gini = 0.0<br/>samples = 1<br/>value = [0, 1]>, fillcolor="#399de5ff"] ;
256 -> 260 ;
261 [label=<X<SUB>8</SUB> &le; 19.5<br/>gini = 0.058<br/>samples = 366<br/>value = [355, 11]>, fillcolor="#e58139f7"] ;
123 -> 261 ;
262 [label=<X<SUB>30</SUB> &le; 0.5<br/>gini = 0.375<br/>samples = 4<br/>value = [3, 1]>, fillcolor="#e58139aa"] ;
261 -> 262 ;
263 [label=<gini = 0.0<br/>samples = 3<br/>value = [3, 0]>, fillcolor="#e58139ff"] ;
262 -> 263 ;
264 [label=<gini = 0.0<br/>samples = 1<br/>value = [0, 1]>, fillcolor="#399de5ff"] ;
262 -> 264 ;
265 [label=<X<SUB>8</SUB> &le; 47.5<br/>gini = 0.054<br/>samples = 362<br/>value = [352, 10]>, fillcolor="#e58139f8"] ;
261 -> 265 ;
266 [label=<X<SUB>8</SUB> &le; 46.5<br/>gini = 0.073<br/>samples = 262<br/>value = [252, 10]>, fillcolor="#e58139f5"] ;
265 -> 266 ;
267 [label=<X<SUB>10</SUB> &le; 200184.0<br/>gini = 0.068<br/>samples = 257<br/>value = [248, 9]>, fillcolor="#e58139f6"] ;
266 -> 267 ;
268 [label=<X<SUB>51</SUB> &le; 0.5<br/>gini = 0.042<br/>samples = 185<br/>value = [181, 4]>, fillcolor="#e58139f9"] ;
267 -> 268 ;
269 [label=<X<SUB>6</SUB> &le; 11.0<br/>gini = 0.033<br/>samples = 179<br/>value = [176, 3]>, fillcolor="#e58139fb"] ;
268 -> 269 ;
270 [label=<X<SUB>10</SUB> &le; 174949.5<br/>gini = 0.014<br/>samples = 142<br/>value = [141, 1]>, fillcolor="#e58139fd"] ;
269 -> 270 ;
271 [label=<X<SUB>10</SUB> &le; 174696.0<br/>gini = 0.077<br/>samples = 25<br/>value = [24, 1]>, fillcolor="#e58139f4"] ;
270 -> 271 ;
272 [label=<gini = 0.0<br/>samples = 24<br/>value = [24, 0]>, fillcolor="#e58139ff"] ;
271 -> 272 ;
273 [label=<gini = 0.0<br/>samples = 1<br/>value = [0, 1]>, fillcolor="#399de5ff"] ;
271 -> 273 ;
274 [label=<gini = 0.0<br/>samples = 117<br/>value = [117, 0]>, fillcolor="#e58139ff"] ;
270 -> 274 ;
275 [label=<X<SUB>8</SUB> &le; 23.5<br/>gini = 0.102<br/>samples = 37<br/>value = [35, 2]>, fillcolor="#e58139f0"] ;
269 -> 275 ;
276 [label=<X<SUB>10</SUB> &le; 182929.0<br/>gini = 0.444<br/>samples = 3<br/>value = [2, 1]>, fillcolor="#e581397f"] ;
275 -> 276 ;
277 [label=<gini = 0.0<br/>samples = 1<br/>value = [0, 1]>, fillcolor="#399de5ff"] ;
276 -> 277 ;
278 [label=<gini = 0.0<br/>samples = 2<br/>value = [2, 0]>, fillcolor="#e58139ff"] ;
276 -> 278 ;
279 [label=<X<SUB>0</SUB> &le; 41.5<br/>gini = 0.057<br/>samples = 34<br/>value = [33, 1]>, fillcolor="#e58139f7"] ;
275 -> 279 ;
280 [label=<gini = 0.0<br/>samples = 29<br/>value = [29, 0]>, fillcolor="#e58139ff"] ;
279 -> 280 ;
281 [label=<X<SUB>0</SUB> &le; 42.5<br/>gini = 0.32<br/>samples = 5<br/>value = [4, 1]>, fillcolor="#e58139bf"] ;
279 -> 281 ;
282 [label=<gini = 0.0<br/>samples = 1<br/>value = [0, 1]>, fillcolor="#399de5ff"] ;
281 -> 282 ;
283 [label=<gini = 0.0<br/>samples = 4<br/>value = [4, 0]>, fillcolor="#e58139ff"] ;
281 -> 283 ;
284 [label=<X<SUB>24</SUB> &le; 0.5<br/>gini = 0.278<br/>samples = 6<br/>value = [5, 1]>, fillcolor="#e58139cc"] ;
268 -> 284 ;
285 [label=<gini = 0.0<br/>samples = 5<br/>value = [5, 0]>, fillcolor="#e58139ff"] ;
284 -> 285 ;
286 [label=<gini = 0.0<br/>samples = 1<br/>value = [0, 1]>, fillcolor="#399de5ff"] ;
284 -> 286 ;
287 [label=<X<SUB>10</SUB> &le; 200190.5<br/>gini = 0.129<br/>samples = 72<br/>value = [67, 5]>, fillcolor="#e58139ec"] ;
267 -> 287 ;
288 [label=<gini = 0.0<br/>samples = 1<br/>value = [0, 1]>, fillcolor="#399de5ff"] ;
287 -> 288 ;
289 [label=<X<SUB>10</SUB> &le; 202787.0<br/>gini = 0.106<br/>samples = 71<br/>value = [67, 4]>, fillcolor="#e58139f0"] ;
287 -> 289 ;
290 [label=<X<SUB>10</SUB> &le; 202559.0<br/>gini = 0.278<br/>samples = 12<br/>value = [10, 2]>, fillcolor="#e58139cc"] ;
289 -> 290 ;
291 [label=<X<SUB>25</SUB> &le; 0.5<br/>gini = 0.165<br/>samples = 11<br/>value = [10, 1]>, fillcolor="#e58139e6"] ;
290 -> 291 ;
292 [label=<gini = 0.0<br/>samples = 9<br/>value = [9, 0]>, fillcolor="#e58139ff"] ;
291 -> 292 ;
293 [label=<X<SUB>8</SUB> &le; 29.5<br/>gini = 0.5<br/>samples = 2<br/>value = [1, 1]>, fillcolor="#e5813900"] ;
291 -> 293 ;
294 [label=<gini = 0.0<br/>samples = 1<br/>value = [0, 1]>, fillcolor="#399de5ff"] ;
293 -> 294 ;
295 [label=<gini = 0.0<br/>samples = 1<br/>value = [1, 0]>, fillcolor="#e58139ff"] ;
293 -> 295 ;
296 [label=<gini = 0.0<br/>samples = 1<br/>value = [0, 1]>, fillcolor="#399de5ff"] ;
290 -> 296 ;
297 [label=<X<SUB>13</SUB> &le; 0.5<br/>gini = 0.065<br/>samples = 59<br/>value = [57, 2]>, fillcolor="#e58139f6"] ;
289 -> 297 ;
298 [label=<gini = 0.0<br/>samples = 36<br/>value = [36, 0]>, fillcolor="#e58139ff"] ;
297 -> 298 ;
299 [label=<X<SUB>5</SUB> &le; 0.5<br/>gini = 0.159<br/>samples = 23<br/>value = [21, 2]>, fillcolor="#e58139e7"] ;
297 -> 299 ;
300 [label=<X<SUB>10</SUB> &le; 206309.0<br/>gini = 0.298<br/>samples = 11<br/>value = [9, 2]>, fillcolor="#e58139c6"] ;
299 -> 300 ;
301 [label=<gini = 0.0<br/>samples = 1<br/>value = [0, 1]>, fillcolor="#399de5ff"] ;
300 -> 301 ;
302 [label=<X<SUB>8</SUB> &le; 33.5<br/>gini = 0.18<br/>samples = 10<br/>value = [9, 1]>, fillcolor="#e58139e3"] ;
300 -> 302 ;
303 [label=<X<SUB>8</SUB> &le; 32.0<br/>gini = 0.444<br/>samples = 3<br/>value = [2, 1]>, fillcolor="#e581397f"] ;
302 -> 303 ;
304 [label=<gini = 0.0<br/>samples = 2<br/>value = [2, 0]>, fillcolor="#e58139ff"] ;
303 -> 304 ;
305 [label=<gini = 0.0<br/>samples = 1<br/>value = [0, 1]>, fillcolor="#399de5ff"] ;
303 -> 305 ;
306 [label=<gini = 0.0<br/>samples = 7<br/>value = [7, 0]>, fillcolor="#e58139ff"] ;
302 -> 306 ;
307 [label=<gini = 0.0<br/>samples = 12<br/>value = [12, 0]>, fillcolor="#e58139ff"] ;
299 -> 307 ;
308 [label=<X<SUB>12</SUB> &le; 0.5<br/>gini = 0.32<br/>samples = 5<br/>value = [4, 1]>, fillcolor="#e58139bf"] ;
266 -> 308 ;
309 [label=<gini = 0.0<br/>samples = 4<br/>value = [4, 0]>, fillcolor="#e58139ff"] ;
308 -> 309 ;
310 [label=<gini = 0.0<br/>samples = 1<br/>value = [0, 1]>, fillcolor="#399de5ff"] ;
308 -> 310 ;
311 [label=<gini = 0.0<br/>samples = 100<br/>value = [100, 0]>, fillcolor="#e58139ff"] ;
265 -> 311 ;
312 [label=<X<SUB>61</SUB> &le; 0.5<br/>gini = 0.168<br/>samples = 130<br/>value = [118, 12]>, fillcolor="#e58139e5"] ;
122 -> 312 ;
313 [label=<X<SUB>12</SUB> &le; 0.5<br/>gini = 0.157<br/>samples = 128<br/>value = [117, 11]>, fillcolor="#e58139e7"] ;
312 -> 313 ;
314 [label=<X<SUB>10</SUB> &le; 144082.0<br/>gini = 0.129<br/>samples = 115<br/>value = [107, 8]>, fillcolor="#e58139ec"] ;
313 -> 314 ;
315 [label=<X<SUB>10</SUB> &le; 140108.0<br/>gini = 0.233<br/>samples = 52<br/>value = [45, 7]>, fillcolor="#e58139d7"] ;
314 -> 315 ;
316 [label=<X<SUB>8</SUB> &le; 26.0<br/>gini = 0.183<br/>samples = 49<br/>value = [44, 5]>, fillcolor="#e58139e2"] ;
315 -> 316 ;
317 [label=<gini = 0.0<br/>samples = 1<br/>value = [0, 1]>, fillcolor="#399de5ff"] ;
316 -> 317 ;
318 [label=<X<SUB>30</SUB> &le; 0.5<br/>gini = 0.153<br/>samples = 48<br/>value = [44, 4]>, fillcolor="#e58139e8"] ;
316 -> 318 ;
319 [label=<gini = 0.0<br/>samples = 27<br/>value = [27, 0]>, fillcolor="#e58139ff"] ;
318 -> 319 ;
320 [label=<X<SUB>10</SUB> &le; 120669.0<br/>gini = 0.308<br/>samples = 21<br/>value = [17, 4]>, fillcolor="#e58139c3"] ;
318 -> 320 ;
321 [label=<X<SUB>0</SUB> &le; 40.0<br/>gini = 0.463<br/>samples = 11<br/>value = [7, 4]>, fillcolor="#e581396d"] ;
320 -> 321 ;
322 [label=<gini = 0.0<br/>samples = 3<br/>value = [3, 0]>, fillcolor="#e58139ff"] ;
321 -> 322 ;
323 [label=<X<SUB>10</SUB> &le; 91631.0<br/>gini = 0.5<br/>samples = 8<br/>value = [4, 4]>, fillcolor="#e5813900"] ;
321 -> 323 ;
324 [label=<gini = 0.0<br/>samples = 3<br/>value = [3, 0]>, fillcolor="#e58139ff"] ;
323 -> 324 ;
325 [label=<X<SUB>8</SUB> &le; 36.5<br/>gini = 0.32<br/>samples = 5<br/>value = [1, 4]>, fillcolor="#399de5bf"] ;
323 -> 325 ;
326 [label=<X<SUB>10</SUB> &le; 113432.5<br/>gini = 0.5<br/>samples = 2<br/>value = [1, 1]>, fillcolor="#e5813900"] ;
325 -> 326 ;
327 [label=<gini = 0.0<br/>samples = 1<br/>value = [1, 0]>, fillcolor="#e58139ff"] ;
326 -> 327 ;
328 [label=<gini = 0.0<br/>samples = 1<br/>value = [0, 1]>, fillcolor="#399de5ff"] ;
326 -> 328 ;
329 [label=<gini = 0.0<br/>samples = 3<br/>value = [0, 3]>, fillcolor="#399de5ff"] ;
325 -> 329 ;
330 [label=<gini = 0.0<br/>samples = 10<br/>value = [10, 0]>, fillcolor="#e58139ff"] ;
320 -> 330 ;
331 [label=<X<SUB>14</SUB> &le; 0.5<br/>gini = 0.444<br/>samples = 3<br/>value = [1, 2]>, fillcolor="#399de57f"] ;
315 -> 331 ;
332 [label=<gini = 0.0<br/>samples = 2<br/>value = [0, 2]>, fillcolor="#399de5ff"] ;
331 -> 332 ;
333 [label=<gini = 0.0<br/>samples = 1<br/>value = [1, 0]>, fillcolor="#e58139ff"] ;
331 -> 333 ;
334 [label=<X<SUB>24</SUB> &le; 0.5<br/>gini = 0.031<br/>samples = 63<br/>value = [62, 1]>, fillcolor="#e58139fb"] ;
314 -> 334 ;
335 [label=<gini = 0.0<br/>samples = 59<br/>value = [59, 0]>, fillcolor="#e58139ff"] ;
334 -> 335 ;
336 [label=<X<SUB>23</SUB> &le; 0.5<br/>gini = 0.375<br/>samples = 4<br/>value = [3, 1]>, fillcolor="#e58139aa"] ;
334 -> 336 ;
337 [label=<gini = 0.0<br/>samples = 3<br/>value = [3, 0]>, fillcolor="#e58139ff"] ;
336 -> 337 ;
338 [label=<gini = 0.0<br/>samples = 1<br/>value = [0, 1]>, fillcolor="#399de5ff"] ;
336 -> 338 ;
339 [label=<X<SUB>15</SUB> &le; 0.5<br/>gini = 0.355<br/>samples = 13<br/>value = [10, 3]>, fillcolor="#e58139b3"] ;
313 -> 339 ;
340 [label=<X<SUB>8</SUB> &le; 40.5<br/>gini = 0.278<br/>samples = 12<br/>value = [10, 2]>, fillcolor="#e58139cc"] ;
339 -> 340 ;
341 [label=<X<SUB>8</SUB> &le; 32.0<br/>gini = 0.5<br/>samples = 4<br/>value = [2, 2]>, fillcolor="#e5813900"] ;
340 -> 341 ;
342 [label=<gini = 0.0<br/>samples = 2<br/>value = [2, 0]>, fillcolor="#e58139ff"] ;
341 -> 342 ;
343 [label=<gini = 0.0<br/>samples = 2<br/>value = [0, 2]>, fillcolor="#399de5ff"] ;
341 -> 343 ;
344 [label=<gini = 0.0<br/>samples = 8<br/>value = [8, 0]>, fillcolor="#e58139ff"] ;
340 -> 344 ;
345 [label=<gini = 0.0<br/>samples = 1<br/>value = [0, 1]>, fillcolor="#399de5ff"] ;
339 -> 345 ;
346 [label=<X<SUB>10</SUB> &le; 166742.0<br/>gini = 0.5<br/>samples = 2<br/>value = [1, 1]>, fillcolor="#e5813900"] ;
312 -> 346 ;
347 [label=<gini = 0.0<br/>samples = 1<br/>value = [0, 1]>, fillcolor="#399de5ff"] ;
346 -> 347 ;
348 [label=<gini = 0.0<br/>samples = 1<br/>value = [1, 0]>, fillcolor="#e58139ff"] ;
346 -> 348 ;
349 [label=<X<SUB>10</SUB> &le; 198223.5<br/>gini = 0.245<br/>samples = 28<br/>value = [24, 4]>, fillcolor="#e58139d4"] ;
121 -> 349 ;
350 [label=<X<SUB>10</SUB> &le; 166397.5<br/>gini = 0.198<br/>samples = 27<br/>value = [24, 3]>, fillcolor="#e58139df"] ;
349 -> 350 ;
351 [label=<X<SUB>54</SUB> &le; 0.5<br/>gini = 0.091<br/>samples = 21<br/>value = [20, 1]>, fillcolor="#e58139f2"] ;
350 -> 351 ;
352 [label=<gini = 0.0<br/>samples = 20<br/>value = [20, 0]>, fillcolor="#e58139ff"] ;
351 -> 352 ;
353 [label=<gini = 0.0<br/>samples = 1<br/>value = [0, 1]>, fillcolor="#399de5ff"] ;
351 -> 353 ;
354 [label=<X<SUB>8</SUB> &le; 67.5<br/>gini = 0.444<br/>samples = 6<br/>value = [4, 2]>, fillcolor="#e581397f"] ;
350 -> 354 ;
355 [label=<X<SUB>6</SUB> &le; 8.0<br/>gini = 0.444<br/>samples = 3<br/>value = [1, 2]>, fillcolor="#399de57f"] ;
354 -> 355 ;
356 [label=<gini = 0.0<br/>samples = 1<br/>value = [1, 0]>, fillcolor="#e58139ff"] ;
355 -> 356 ;
357 [label=<gini = 0.0<br/>samples = 2<br/>value = [0, 2]>, fillcolor="#399de5ff"] ;
355 -> 357 ;
358 [label=<gini = 0.0<br/>samples = 3<br/>value = [3, 0]>, fillcolor="#e58139ff"] ;
354 -> 358 ;
359 [label=<gini = 0.0<br/>samples = 1<br/>value = [0, 1]>, fillcolor="#399de5ff"] ;
349 -> 359 ;
360 [label=<X<SUB>10</SUB> &le; 166011.0<br/>gini = 0.408<br/>samples = 7<br/>value = [5, 2]>, fillcolor="#e5813999"] ;
120 -> 360 ;
361 [label=<gini = 0.0<br/>samples = 5<br/>value = [5, 0]>, fillcolor="#e58139ff"] ;
360 -> 361 ;
362 [label=<gini = 0.0<br/>samples = 2<br/>value = [0, 2]>, fillcolor="#399de5ff"] ;
360 -> 362 ;
363 [label=<X<SUB>0</SUB> &le; 43.5<br/>gini = 0.5<br/>samples = 2<br/>value = [1, 1]>, fillcolor="#e5813900"] ;
119 -> 363 ;
364 [label=<gini = 0.0<br/>samples = 1<br/>value = [0, 1]>, fillcolor="#399de5ff"] ;
363 -> 364 ;
365 [label=<gini = 0.0<br/>samples = 1<br/>value = [1, 0]>, fillcolor="#e58139ff"] ;
363 -> 365 ;
366 [label=<gini = 0.0<br/>samples = 1<br/>value = [0, 1]>, fillcolor="#399de5ff"] ;
118 -> 366 ;
367 [label=<X<SUB>8</SUB> &le; 34.5<br/>gini = 0.173<br/>samples = 502<br/>value = [454, 48]>, fillcolor="#e58139e4"] ;
117 -> 367 ;
368 [label=<X<SUB>10</SUB> &le; 26162.0<br/>gini = 0.114<br/>samples = 198<br/>value = [186, 12]>, fillcolor="#e58139ef"] ;
367 -> 368 ;
369 [label=<gini = 0.0<br/>samples = 1<br/>value = [0, 1]>, fillcolor="#399de5ff"] ;
368 -> 369 ;
370 [label=<X<SUB>10</SUB> &le; 201194.0<br/>gini = 0.105<br/>samples = 197<br/>value = [186, 11]>, fillcolor="#e58139f0"] ;
368 -> 370 ;
371 [label=<X<SUB>10</SUB> &le; 178417.0<br/>gini = 0.084<br/>samples = 183<br/>value = [175, 8]>, fillcolor="#e58139f3"] ;
370 -> 371 ;
372 [label=<X<SUB>10</SUB> &le; 178267.5<br/>gini = 0.104<br/>samples = 146<br/>value = [138, 8]>, fillcolor="#e58139f0"] ;
371 -> 372 ;
373 [label=<X<SUB>10</SUB> &le; 177509.0<br/>gini = 0.092<br/>samples = 145<br/>value = [138, 7]>, fillcolor="#e58139f2"] ;
372 -> 373 ;
374 [label=<X<SUB>0</SUB> &le; 45.5<br/>gini = 0.081<br/>samples = 142<br/>value = [136, 6]>, fillcolor="#e58139f4"] ;
373 -> 374 ;
375 [label=<X<SUB>23</SUB> &le; 0.5<br/>gini = 0.071<br/>samples = 135<br/>value = [130, 5]>, fillcolor="#e58139f5"] ;
374 -> 375 ;
376 [label=<X<SUB>8</SUB> &le; 24.5<br/>gini = 0.061<br/>samples = 127<br/>value = [123, 4]>, fillcolor="#e58139f7"] ;
375 -> 376 ;
377 [label=<X<SUB>10</SUB> &le; 129965.5<br/>gini = 0.122<br/>samples = 46<br/>value = [43, 3]>, fillcolor="#e58139ed"] ;
376 -> 377 ;
378 [label=<X<SUB>17</SUB> &le; 0.5<br/>gini = 0.051<br/>samples = 38<br/>value = [37, 1]>, fillcolor="#e58139f8"] ;
377 -> 378 ;
379 [label=<gini = 0.0<br/>samples = 31<br/>value = [31, 0]>, fillcolor="#e58139ff"] ;
378 -> 379 ;
380 [label=<X<SUB>12</SUB> &le; 0.5<br/>gini = 0.245<br/>samples = 7<br/>value = [6, 1]>, fillcolor="#e58139d4"] ;
378 -> 380 ;
381 [label=<gini = 0.0<br/>samples = 4<br/>value = [4, 0]>, fillcolor="#e58139ff"] ;
380 -> 381 ;
382 [label=<X<SUB>10</SUB> &le; 88275.0<br/>gini = 0.444<br/>samples = 3<br/>value = [2, 1]>, fillcolor="#e581397f"] ;
380 -> 382 ;
383 [label=<gini = 0.0<br/>samples = 2<br/>value = [2, 0]>, fillcolor="#e58139ff"] ;
382 -> 383 ;
384 [label=<gini = 0.0<br/>samples = 1<br/>value = [0, 1]>, fillcolor="#399de5ff"] ;
382 -> 384 ;
385 [label=<X<SUB>8</SUB> &le; 23.0<br/>gini = 0.375<br/>samples = 8<br/>value = [6, 2]>, fillcolor="#e58139aa"] ;
377 -> 385 ;
386 [label=<X<SUB>25</SUB> &le; 0.5<br/>gini = 0.245<br/>samples = 7<br/>value = [6, 1]>, fillcolor="#e58139d4"] ;
385 -> 386 ;
387 [label=<gini = 0.0<br/>samples = 4<br/>value = [4, 0]>, fillcolor="#e58139ff"] ;
386 -> 387 ;
388 [label=<X<SUB>10</SUB> &le; 150722.5<br/>gini = 0.444<br/>samples = 3<br/>value = [2, 1]>, fillcolor="#e581397f"] ;
386 -> 388 ;
389 [label=<gini = 0.0<br/>samples = 1<br/>value = [0, 1]>, fillcolor="#399de5ff"] ;
388 -> 389 ;
390 [label=<gini = 0.0<br/>samples = 2<br/>value = [2, 0]>, fillcolor="#e58139ff"] ;
388 -> 390 ;
391 [label=<gini = 0.0<br/>samples = 1<br/>value = [0, 1]>, fillcolor="#399de5ff"] ;
385 -> 391 ;
392 [label=<X<SUB>10</SUB> &le; 39714.0<br/>gini = 0.024<br/>samples = 81<br/>value = [80, 1]>, fillcolor="#e58139fc"] ;
376 -> 392 ;
393 [label=<X<SUB>10</SUB> &le; 37268.0<br/>gini = 0.219<br/>samples = 8<br/>value = [7, 1]>, fillcolor="#e58139db"] ;
392 -> 393 ;
394 [label=<gini = 0.0<br/>samples = 7<br/>value = [7, 0]>, fillcolor="#e58139ff"] ;
393 -> 394 ;
395 [label=<gini = 0.0<br/>samples = 1<br/>value = [0, 1]>, fillcolor="#399de5ff"] ;
393 -> 395 ;
396 [label=<gini = 0.0<br/>samples = 73<br/>value = [73, 0]>, fillcolor="#e58139ff"] ;
392 -> 396 ;
397 [label=<X<SUB>19</SUB> &le; 0.5<br/>gini = 0.219<br/>samples = 8<br/>value = [7, 1]>, fillcolor="#e58139db"] ;
375 -> 397 ;
398 [label=<X<SUB>10</SUB> &le; 134245.0<br/>gini = 0.444<br/>samples = 3<br/>value = [2, 1]>, fillcolor="#e581397f"] ;
397 -> 398 ;
399 [label=<gini = 0.0<br/>samples = 2<br/>value = [2, 0]>, fillcolor="#e58139ff"] ;
398 -> 399 ;
400 [label=<gini = 0.0<br/>samples = 1<br/>value = [0, 1]>, fillcolor="#399de5ff"] ;
398 -> 400 ;
401 [label=<gini = 0.0<br/>samples = 5<br/>value = [5, 0]>, fillcolor="#e58139ff"] ;
397 -> 401 ;
402 [label=<X<SUB>43</SUB> &le; 0.5<br/>gini = 0.245<br/>samples = 7<br/>value = [6, 1]>, fillcolor="#e58139d4"] ;
374 -> 402 ;
403 [label=<gini = 0.0<br/>samples = 6<br/>value = [6, 0]>, fillcolor="#e58139ff"] ;
402 -> 403 ;
404 [label=<gini = 0.0<br/>samples = 1<br/>value = [0, 1]>, fillcolor="#399de5ff"] ;
402 -> 404 ;
405 [label=<X<SUB>25</SUB> &le; 0.5<br/>gini = 0.444<br/>samples = 3<br/>value = [2, 1]>, fillcolor="#e581397f"] ;
373 -> 405 ;
406 [label=<gini = 0.0<br/>samples = 2<br/>value = [2, 0]>, fillcolor="#e58139ff"] ;
405 -> 406 ;
407 [label=<gini = 0.0<br/>samples = 1<br/>value = [0, 1]>, fillcolor="#399de5ff"] ;
405 -> 407 ;
408 [label=<gini = 0.0<br/>samples = 1<br/>value = [0, 1]>, fillcolor="#399de5ff"] ;
372 -> 408 ;
409 [label=<gini = 0.0<br/>samples = 37<br/>value = [37, 0]>, fillcolor="#e58139ff"] ;
371 -> 409 ;
410 [label=<X<SUB>10</SUB> &le; 202981.5<br/>gini = 0.337<br/>samples = 14<br/>value = [11, 3]>, fillcolor="#e58139b9"] ;
370 -> 410 ;
411 [label=<X<SUB>29</SUB> &le; 0.5<br/>gini = 0.444<br/>samples = 3<br/>value = [1, 2]>, fillcolor="#399de57f"] ;
410 -> 411 ;
412 [label=<gini = 0.0<br/>samples = 1<br/>value = [1, 0]>, fillcolor="#e58139ff"] ;
411 -> 412 ;
413 [label=<gini = 0.0<br/>samples = 2<br/>value = [0, 2]>, fillcolor="#399de5ff"] ;
411 -> 413 ;
414 [label=<X<SUB>8</SUB> &le; 30.0<br/>gini = 0.165<br/>samples = 11<br/>value = [10, 1]>, fillcolor="#e58139e6"] ;
410 -> 414 ;
415 [label=<gini = 0.0<br/>samples = 7<br/>value = [7, 0]>, fillcolor="#e58139ff"] ;
414 -> 415 ;
416 [label=<X<SUB>8</SUB> &le; 32.5<br/>gini = 0.375<br/>samples = 4<br/>value = [3, 1]>, fillcolor="#e58139aa"] ;
414 -> 416 ;
417 [label=<gini = 0.0<br/>samples = 1<br/>value = [0, 1]>, fillcolor="#399de5ff"] ;
416 -> 417 ;
418 [label=<gini = 0.0<br/>samples = 3<br/>value = [3, 0]>, fillcolor="#e58139ff"] ;
416 -> 418 ;
419 [label=<X<SUB>10</SUB> &le; 130016.5<br/>gini = 0.209<br/>samples = 304<br/>value = [268, 36]>, fillcolor="#e58139dd"] ;
367 -> 419 ;
420 [label=<X<SUB>8</SUB> &le; 35.5<br/>gini = 0.294<br/>samples = 134<br/>value = [110, 24]>, fillcolor="#e58139c7"] ;
419 -> 420 ;
421 [label=<X<SUB>10</SUB> &le; 75027.0<br/>gini = 0.48<br/>samples = 5<br/>value = [2, 3]>, fillcolor="#399de555"] ;
420 -> 421 ;
422 [label=<gini = 0.0<br/>samples = 2<br/>value = [0, 2]>, fillcolor="#399de5ff"] ;
421 -> 422 ;
423 [label=<X<SUB>0</SUB> &le; 38.0<br/>gini = 0.444<br/>samples = 3<br/>value = [2, 1]>, fillcolor="#e581397f"] ;
421 -> 423 ;
424 [label=<gini = 0.0<br/>samples = 1<br/>value = [0, 1]>, fillcolor="#399de5ff"] ;
423 -> 424 ;
425 [label=<gini = 0.0<br/>samples = 2<br/>value = [2, 0]>, fillcolor="#e58139ff"] ;
423 -> 425 ;
426 [label=<X<SUB>10</SUB> &le; 129498.0<br/>gini = 0.273<br/>samples = 129<br/>value = [108, 21]>, fillcolor="#e58139cd"] ;
420 -> 426 ;
427 [label=<X<SUB>5</SUB> &le; 0.5<br/>gini = 0.264<br/>samples = 128<br/>value = [108, 20]>, fillcolor="#e58139d0"] ;
426 -> 427 ;
428 [label=<X<SUB>10</SUB> &le; 48349.0<br/>gini = 0.346<br/>samples = 63<br/>value = [49, 14]>, fillcolor="#e58139b6"] ;
427 -> 428 ;
429 [label=<gini = 0.0<br/>samples = 12<br/>value = [12, 0]>, fillcolor="#e58139ff"] ;
428 -> 429 ;
430 [label=<X<SUB>0</SUB> &le; 38.5<br/>gini = 0.398<br/>samples = 51<br/>value = [37, 14]>, fillcolor="#e581399f"] ;
428 -> 430 ;
431 [label=<gini = 0.0<br/>samples = 9<br/>value = [9, 0]>, fillcolor="#e58139ff"] ;
430 -> 431 ;
432 [label=<X<SUB>10</SUB> &le; 93091.0<br/>gini = 0.444<br/>samples = 42<br/>value = [28, 14]>, fillcolor="#e581397f"] ;
430 -> 432 ;
433 [label=<X<SUB>4</SUB> &le; 0.5<br/>gini = 0.497<br/>samples = 13<br/>value = [6, 7]>, fillcolor="#399de524"] ;
432 -> 433 ;
434 [label=<gini = 0.0<br/>samples = 2<br/>value = [2, 0]>, fillcolor="#e58139ff"] ;
433 -> 434 ;
435 [label=<X<SUB>20</SUB> &le; 0.5<br/>gini = 0.463<br/>samples = 11<br/>value = [4, 7]>, fillcolor="#399de56d"] ;
433 -> 435 ;
436 [label=<X<SUB>25</SUB> &le; 0.5<br/>gini = 0.278<br/>samples = 6<br/>value = [1, 5]>, fillcolor="#399de5cc"] ;
435 -> 436 ;
437 [label=<gini = 0.0<br/>samples = 5<br/>value = [0, 5]>, fillcolor="#399de5ff"] ;
436 -> 437 ;
438 [label=<gini = 0.0<br/>samples = 1<br/>value = [1, 0]>, fillcolor="#e58139ff"] ;
436 -> 438 ;
439 [label=<X<SUB>8</SUB> &le; 47.5<br/>gini = 0.48<br/>samples = 5<br/>value = [3, 2]>, fillcolor="#e5813955"] ;
435 -> 439 ;
440 [label=<gini = 0.0<br/>samples = 2<br/>value = [2, 0]>, fillcolor="#e58139ff"] ;
439 -> 440 ;
441 [label=<X<SUB>79</SUB> &le; 0.5<br/>gini = 0.444<br/>samples = 3<br/>value = [1, 2]>, fillcolor="#399de57f"] ;
439 -> 441 ;
442 [label=<gini = 0.0<br/>samples = 2<br/>value = [0, 2]>, fillcolor="#399de5ff"] ;
441 -> 442 ;
443 [label=<gini = 0.0<br/>samples = 1<br/>value = [1, 0]>, fillcolor="#e58139ff"] ;
441 -> 443 ;
444 [label=<X<SUB>8</SUB> &le; 50.5<br/>gini = 0.366<br/>samples = 29<br/>value = [22, 7]>, fillcolor="#e58139ae"] ;
432 -> 444 ;
445 [label=<X<SUB>0</SUB> &le; 45.0<br/>gini = 0.469<br/>samples = 16<br/>value = [10, 6]>, fillcolor="#e5813966"] ;
444 -> 445 ;
446 [label=<X<SUB>0</SUB> &le; 40.0<br/>gini = 0.497<br/>samples = 13<br/>value = [7, 6]>, fillcolor="#e5813924"] ;
445 -> 446 ;
447 [label=<gini = 0.0<br/>samples = 2<br/>value = [2, 0]>, fillcolor="#e58139ff"] ;
446 -> 447 ;
448 [label=<X<SUB>3</SUB> &le; 0.5<br/>gini = 0.496<br/>samples = 11<br/>value = [5, 6]>, fillcolor="#399de52a"] ;
446 -> 448 ;
449 [label=<gini = 0.0<br/>samples = 2<br/>value = [2, 0]>, fillcolor="#e58139ff"] ;
448 -> 449 ;
450 [label=<X<SUB>8</SUB> &le; 40.0<br/>gini = 0.444<br/>samples = 9<br/>value = [3, 6]>, fillcolor="#399de57f"] ;
448 -> 450 ;
451 [label=<gini = 0.0<br/>samples = 1<br/>value = [1, 0]>, fillcolor="#e58139ff"] ;
450 -> 451 ;
452 [label=<X<SUB>10</SUB> &le; 106211.5<br/>gini = 0.375<br/>samples = 8<br/>value = [2, 6]>, fillcolor="#399de5aa"] ;
450 -> 452 ;
453 [label=<gini = 0.0<br/>samples = 3<br/>value = [0, 3]>, fillcolor="#399de5ff"] ;
452 -> 453 ;
454 [label=<X<SUB>10</SUB> &le; 109306.5<br/>gini = 0.48<br/>samples = 5<br/>value = [2, 3]>, fillcolor="#399de555"] ;
452 -> 454 ;
455 [label=<gini = 0.0<br/>samples = 2<br/>value = [2, 0]>, fillcolor="#e58139ff"] ;
454 -> 455 ;
456 [label=<gini = 0.0<br/>samples = 3<br/>value = [0, 3]>, fillcolor="#399de5ff"] ;
454 -> 456 ;
457 [label=<gini = 0.0<br/>samples = 3<br/>value = [3, 0]>, fillcolor="#e58139ff"] ;
445 -> 457 ;
458 [label=<X<SUB>25</SUB> &le; 0.5<br/>gini = 0.142<br/>samples = 13<br/>value = [12, 1]>, fillcolor="#e58139ea"] ;
444 -> 458 ;
459 [label=<gini = 0.0<br/>samples = 11<br/>value = [11, 0]>, fillcolor="#e58139ff"] ;
458 -> 459 ;
460 [label=<X<SUB>13</SUB> &le; 0.5<br/>gini = 0.5<br/>samples = 2<br/>value = [1, 1]>, fillcolor="#e5813900"] ;
458 -> 460 ;
461 [label=<gini = 0.0<br/>samples = 1<br/>value = [0, 1]>, fillcolor="#399de5ff"] ;
460 -> 461 ;
462 [label=<gini = 0.0<br/>samples = 1<br/>value = [1, 0]>, fillcolor="#e58139ff"] ;
460 -> 462 ;
463 [label=<X<SUB>10</SUB> &le; 52342.0<br/>gini = 0.168<br/>samples = 65<br/>value = [59, 6]>, fillcolor="#e58139e5"] ;
427 -> 463 ;
464 [label=<X<SUB>10</SUB> &le; 51141.0<br/>gini = 0.375<br/>samples = 12<br/>value = [9, 3]>, fillcolor="#e58139aa"] ;
463 -> 464 ;
465 [label=<X<SUB>23</SUB> &le; 0.5<br/>gini = 0.18<br/>samples = 10<br/>value = [9, 1]>, fillcolor="#e58139e3"] ;
464 -> 465 ;
466 [label=<gini = 0.0<br/>samples = 8<br/>value = [8, 0]>, fillcolor="#e58139ff"] ;
465 -> 466 ;
467 [label=<X<SUB>58</SUB> &le; 0.5<br/>gini = 0.5<br/>samples = 2<br/>value = [1, 1]>, fillcolor="#e5813900"] ;
465 -> 467 ;
468 [label=<gini = 0.0<br/>samples = 1<br/>value = [0, 1]>, fillcolor="#399de5ff"] ;
467 -> 468 ;
469 [label=<gini = 0.0<br/>samples = 1<br/>value = [1, 0]>, fillcolor="#e58139ff"] ;
467 -> 469 ;
470 [label=<gini = 0.0<br/>samples = 2<br/>value = [0, 2]>, fillcolor="#399de5ff"] ;
464 -> 470 ;
471 [label=<X<SUB>10</SUB> &le; 128706.5<br/>gini = 0.107<br/>samples = 53<br/>value = [50, 3]>, fillcolor="#e58139f0"] ;
463 -> 471 ;
472 [label=<X<SUB>10</SUB> &le; 93919.5<br/>gini = 0.075<br/>samples = 51<br/>value = [49, 2]>, fillcolor="#e58139f5"] ;
471 -> 472 ;
473 [label=<X<SUB>10</SUB> &le; 93191.0<br/>gini = 0.18<br/>samples = 20<br/>value = [18, 2]>, fillcolor="#e58139e3"] ;
472 -> 473 ;
474 [label=<X<SUB>8</SUB> &le; 38.0<br/>gini = 0.1<br/>samples = 19<br/>value = [18, 1]>, fillcolor="#e58139f1"] ;
473 -> 474 ;
475 [label=<X<SUB>4</SUB> &le; 0.5<br/>gini = 0.444<br/>samples = 3<br/>value = [2, 1]>, fillcolor="#e581397f"] ;
474 -> 475 ;
476 [label=<gini = 0.0<br/>samples = 2<br/>value = [2, 0]>, fillcolor="#e58139ff"] ;
475 -> 476 ;
477 [label=<gini = 0.0<br/>samples = 1<br/>value = [0, 1]>, fillcolor="#399de5ff"] ;
475 -> 477 ;
478 [label=<gini = 0.0<br/>samples = 16<br/>value = [16, 0]>, fillcolor="#e58139ff"] ;
474 -> 478 ;
479 [label=<gini = 0.0<br/>samples = 1<br/>value = [0, 1]>, fillcolor="#399de5ff"] ;
473 -> 479 ;
480 [label=<gini = 0.0<br/>samples = 31<br/>value = [31, 0]>, fillcolor="#e58139ff"] ;
472 -> 480 ;
481 [label=<X<SUB>29</SUB> &le; 0.5<br/>gini = 0.5<br/>samples = 2<br/>value = [1, 1]>, fillcolor="#e5813900"] ;
471 -> 481 ;
482 [label=<gini = 0.0<br/>samples = 1<br/>value = [0, 1]>, fillcolor="#399de5ff"] ;
481 -> 482 ;
483 [label=<gini = 0.0<br/>samples = 1<br/>value = [1, 0]>, fillcolor="#e58139ff"] ;
481 -> 483 ;
484 [label=<gini = 0.0<br/>samples = 1<br/>value = [0, 1]>, fillcolor="#399de5ff"] ;
426 -> 484 ;
485 [label=<X<SUB>34</SUB> &le; 0.5<br/>gini = 0.131<br/>samples = 170<br/>value = [158, 12]>, fillcolor="#e58139ec"] ;
419 -> 485 ;
486 [label=<X<SUB>58</SUB> &le; 0.5<br/>gini = 0.113<br/>samples = 166<br/>value = [156, 10]>, fillcolor="#e58139ef"] ;
485 -> 486 ;
487 [label=<X<SUB>10</SUB> &le; 196206.5<br/>gini = 0.104<br/>samples = 164<br/>value = [155, 9]>, fillcolor="#e58139f0"] ;
486 -> 487 ;
488 [label=<X<SUB>0</SUB> &le; 40.0<br/>gini = 0.061<br/>samples = 127<br/>value = [123, 4]>, fillcolor="#e58139f7"] ;
487 -> 488 ;
489 [label=<X<SUB>8</SUB> &le; 44.5<br/>gini = 0.142<br/>samples = 39<br/>value = [36, 3]>, fillcolor="#e58139ea"] ;
488 -> 489 ;
490 [label=<X<SUB>25</SUB> &le; 0.5<br/>gini = 0.255<br/>samples = 20<br/>value = [17, 3]>, fillcolor="#e58139d2"] ;
489 -> 490 ;
491 [label=<X<SUB>8</SUB> &le; 42.5<br/>gini = 0.188<br/>samples = 19<br/>value = [17, 2]>, fillcolor="#e58139e1"] ;
490 -> 491 ;
492 [label=<gini = 0.0<br/>samples = 10<br/>value = [10, 0]>, fillcolor="#e58139ff"] ;
491 -> 492 ;
493 [label=<X<SUB>10</SUB> &le; 166476.0<br/>gini = 0.346<br/>samples = 9<br/>value = [7, 2]>, fillcolor="#e58139b6"] ;
491 -> 493 ;
494 [label=<gini = 0.0<br/>samples = 4<br/>value = [4, 0]>, fillcolor="#e58139ff"] ;
493 -> 494 ;
495 [label=<X<SUB>10</SUB> &le; 177609.5<br/>gini = 0.48<br/>samples = 5<br/>value = [3, 2]>, fillcolor="#e5813955"] ;
493 -> 495 ;
496 [label=<X<SUB>30</SUB> &le; 0.5<br/>gini = 0.444<br/>samples = 3<br/>value = [1, 2]>, fillcolor="#399de57f"] ;
495 -> 496 ;
497 [label=<X<SUB>29</SUB> &le; 0.5<br/>gini = 0.5<br/>samples = 2<br/>value = [1, 1]>, fillcolor="#e5813900"] ;
496 -> 497 ;
498 [label=<gini = 0.0<br/>samples = 1<br/>value = [0, 1]>, fillcolor="#399de5ff"] ;
497 -> 498 ;
499 [label=<gini = 0.0<br/>samples = 1<br/>value = [1, 0]>, fillcolor="#e58139ff"] ;
497 -> 499 ;
500 [label=<gini = 0.0<br/>samples = 1<br/>value = [0, 1]>, fillcolor="#399de5ff"] ;
496 -> 500 ;
501 [label=<gini = 0.0<br/>samples = 2<br/>value = [2, 0]>, fillcolor="#e58139ff"] ;
495 -> 501 ;
502 [label=<gini = 0.0<br/>samples = 1<br/>value = [0, 1]>, fillcolor="#399de5ff"] ;
490 -> 502 ;
503 [label=<gini = 0.0<br/>samples = 19<br/>value = [19, 0]>, fillcolor="#e58139ff"] ;
489 -> 503 ;
504 [label=<X<SUB>10</SUB> &le; 145989.5<br/>gini = 0.022<br/>samples = 88<br/>value = [87, 1]>, fillcolor="#e58139fc"] ;
488 -> 504 ;
505 [label=<X<SUB>10</SUB> &le; 145690.5<br/>gini = 0.117<br/>samples = 16<br/>value = [15, 1]>, fillcolor="#e58139ee"] ;
504 -> 505 ;
506 [label=<gini = 0.0<br/>samples = 15<br/>value = [15, 0]>, fillcolor="#e58139ff"] ;
505 -> 506 ;
507 [label=<gini = 0.0<br/>samples = 1<br/>value = [0, 1]>, fillcolor="#399de5ff"] ;
505 -> 507 ;
508 [label=<gini = 0.0<br/>samples = 72<br/>value = [72, 0]>, fillcolor="#e58139ff"] ;
504 -> 508 ;
509 [label=<X<SUB>10</SUB> &le; 197155.5<br/>gini = 0.234<br/>samples = 37<br/>value = [32, 5]>, fillcolor="#e58139d7"] ;
487 -> 509 ;
510 [label=<X<SUB>13</SUB> &le; 0.5<br/>gini = 0.444<br/>samples = 3<br/>value = [1, 2]>, fillcolor="#399de57f"] ;
509 -> 510 ;
511 [label=<gini = 0.0<br/>samples = 1<br/>value = [1, 0]>, fillcolor="#e58139ff"] ;
510 -> 511 ;
512 [label=<gini = 0.0<br/>samples = 2<br/>value = [0, 2]>, fillcolor="#399de5ff"] ;
510 -> 512 ;
513 [label=<X<SUB>10</SUB> &le; 205677.5<br/>gini = 0.161<br/>samples = 34<br/>value = [31, 3]>, fillcolor="#e58139e6"] ;
509 -> 513 ;
514 [label=<X<SUB>10</SUB> &le; 203674.0<br/>gini = 0.266<br/>samples = 19<br/>value = [16, 3]>, fillcolor="#e58139cf"] ;
513 -> 514 ;
515 [label=<X<SUB>20</SUB> &le; 0.5<br/>gini = 0.111<br/>samples = 17<br/>value = [16, 1]>, fillcolor="#e58139ef"] ;
514 -> 515 ;
516 [label=<gini = 0.0<br/>samples = 14<br/>value = [14, 0]>, fillcolor="#e58139ff"] ;
515 -> 516 ;
517 [label=<X<SUB>0</SUB> &le; 40.5<br/>gini = 0.444<br/>samples = 3<br/>value = [2, 1]>, fillcolor="#e581397f"] ;
515 -> 517 ;
518 [label=<gini = 0.0<br/>samples = 1<br/>value = [1, 0]>, fillcolor="#e58139ff"] ;
517 -> 518 ;
519 [label=<X<SUB>19</SUB> &le; 0.5<br/>gini = 0.5<br/>samples = 2<br/>value = [1, 1]>, fillcolor="#e5813900"] ;
517 -> 519 ;
520 [label=<gini = 0.0<br/>samples = 1<br/>value = [1, 0]>, fillcolor="#e58139ff"] ;
519 -> 520 ;
521 [label=<gini = 0.0<br/>samples = 1<br/>value = [0, 1]>, fillcolor="#399de5ff"] ;
519 -> 521 ;
522 [label=<gini = 0.0<br/>samples = 2<br/>value = [0, 2]>, fillcolor="#399de5ff"] ;
514 -> 522 ;
523 [label=<gini = 0.0<br/>samples = 15<br/>value = [15, 0]>, fillcolor="#e58139ff"] ;
513 -> 523 ;
524 [label=<X<SUB>43</SUB> &le; 0.5<br/>gini = 0.5<br/>samples = 2<br/>value = [1, 1]>, fillcolor="#e5813900"] ;
486 -> 524 ;
525 [label=<gini = 0.0<br/>samples = 1<br/>value = [1, 0]>, fillcolor="#e58139ff"] ;
524 -> 525 ;
526 [label=<gini = 0.0<br/>samples = 1<br/>value = [0, 1]>, fillcolor="#399de5ff"] ;
524 -> 526 ;
527 [label=<X<SUB>3</SUB> &le; 0.5<br/>gini = 0.5<br/>samples = 4<br/>value = [2, 2]>, fillcolor="#e5813900"] ;
485 -> 527 ;
528 [label=<gini = 0.0<br/>samples = 2<br/>value = [0, 2]>, fillcolor="#399de5ff"] ;
527 -> 528 ;
529 [label=<gini = 0.0<br/>samples = 2<br/>value = [2, 0]>, fillcolor="#e58139ff"] ;
527 -> 529 ;
530 [label=<X<SUB>10</SUB> &le; 216123.5<br/>gini = 0.176<br/>samples = 770<br/>value = [695, 75]>, fillcolor="#e58139e3"] ;
116 -> 530 ;
531 [label=<X<SUB>13</SUB> &le; 0.5<br/>gini = 0.444<br/>samples = 3<br/>value = [1, 2]>, fillcolor="#399de57f"] ;
530 -> 531 ;
532 [label=<gini = 0.0<br/>samples = 1<br/>value = [1, 0]>, fillcolor="#e58139ff"] ;
531 -> 532 ;
533 [label=<gini = 0.0<br/>samples = 2<br/>value = [0, 2]>, fillcolor="#399de5ff"] ;
531 -> 533 ;
534 [label=<X<SUB>15</SUB> &le; 0.5<br/>gini = 0.172<br/>samples = 767<br/>value = [694, 73]>, fillcolor="#e58139e4"] ;
530 -> 534 ;
535 [label=<X<SUB>6</SUB> &le; 11.5<br/>gini = 0.166<br/>samples = 746<br/>value = [678, 68]>, fillcolor="#e58139e5"] ;
534 -> 535 ;
536 [label=<X<SUB>10</SUB> &le; 237514.5<br/>gini = 0.176<br/>samples = 685<br/>value = [618, 67]>, fillcolor="#e58139e3"] ;
535 -> 536 ;
537 [label=<X<SUB>58</SUB> &le; 0.5<br/>gini = 0.107<br/>samples = 141<br/>value = [133, 8]>, fillcolor="#e58139f0"] ;
536 -> 537 ;
538 [label=<X<SUB>63</SUB> &le; 0.5<br/>gini = 0.095<br/>samples = 140<br/>value = [133, 7]>, fillcolor="#e58139f2"] ;
537 -> 538 ;
539 [label=<X<SUB>32</SUB> &le; 0.5<br/>gini = 0.083<br/>samples = 139<br/>value = [133, 6]>, fillcolor="#e58139f3"] ;
538 -> 539 ;
540 [label=<X<SUB>10</SUB> &le; 218347.5<br/>gini = 0.07<br/>samples = 138<br/>value = [133, 5]>, fillcolor="#e58139f5"] ;
539 -> 540 ;
541 [label=<X<SUB>0</SUB> &le; 39.0<br/>gini = 0.337<br/>samples = 14<br/>value = [11, 3]>, fillcolor="#e58139b9"] ;
540 -> 541 ;
542 [label=<X<SUB>0</SUB> &le; 32.0<br/>gini = 0.48<br/>samples = 5<br/>value = [2, 3]>, fillcolor="#399de555"] ;
541 -> 542 ;
543 [label=<gini = 0.0<br/>samples = 2<br/>value = [2, 0]>, fillcolor="#e58139ff"] ;
542 -> 543 ;
544 [label=<gini = 0.0<br/>samples = 3<br/>value = [0, 3]>, fillcolor="#399de5ff"] ;
542 -> 544 ;
545 [label=<gini = 0.0<br/>samples = 9<br/>value = [9, 0]>, fillcolor="#e58139ff"] ;
541 -> 545 ;
546 [label=<X<SUB>8</SUB> &le; 20.5<br/>gini = 0.032<br/>samples = 124<br/>value = [122, 2]>, fillcolor="#e58139fb"] ;
540 -> 546 ;
547 [label=<X<SUB>25</SUB> &le; 0.5<br/>gini = 0.375<br/>samples = 4<br/>value = [3, 1]>, fillcolor="#e58139aa"] ;
546 -> 547 ;
548 [label=<gini = 0.0<br/>samples = 3<br/>value = [3, 0]>, fillcolor="#e58139ff"] ;
547 -> 548 ;
549 [label=<gini = 0.0<br/>samples = 1<br/>value = [0, 1]>, fillcolor="#399de5ff"] ;
547 -> 549 ;
550 [label=<X<SUB>10</SUB> &le; 220140.5<br/>gini = 0.017<br/>samples = 120<br/>value = [119, 1]>, fillcolor="#e58139fd"] ;
546 -> 550 ;
551 [label=<X<SUB>10</SUB> &le; 219921.5<br/>gini = 0.124<br/>samples = 15<br/>value = [14, 1]>, fillcolor="#e58139ed"] ;
550 -> 551 ;
552 [label=<gini = 0.0<br/>samples = 14<br/>value = [14, 0]>, fillcolor="#e58139ff"] ;
551 -> 552 ;
553 [label=<gini = 0.0<br/>samples = 1<br/>value = [0, 1]>, fillcolor="#399de5ff"] ;
551 -> 553 ;
554 [label=<gini = 0.0<br/>samples = 105<br/>value = [105, 0]>, fillcolor="#e58139ff"] ;
550 -> 554 ;
555 [label=<gini = 0.0<br/>samples = 1<br/>value = [0, 1]>, fillcolor="#399de5ff"] ;
539 -> 555 ;
556 [label=<gini = 0.0<br/>samples = 1<br/>value = [0, 1]>, fillcolor="#399de5ff"] ;
538 -> 556 ;
557 [label=<gini = 0.0<br/>samples = 1<br/>value = [0, 1]>, fillcolor="#399de5ff"] ;
537 -> 557 ;
558 [label=<X<SUB>10</SUB> &le; 242692.5<br/>gini = 0.193<br/>samples = 544<br/>value = [485, 59]>, fillcolor="#e58139e0"] ;
536 -> 558 ;
559 [label=<X<SUB>10</SUB> &le; 237771.0<br/>gini = 0.382<br/>samples = 35<br/>value = [26, 9]>, fillcolor="#e58139a7"] ;
558 -> 559 ;
560 [label=<gini = 0.0<br/>samples = 1<br/>value = [0, 1]>, fillcolor="#399de5ff"] ;
559 -> 560 ;
561 [label=<X<SUB>10</SUB> &le; 240413.0<br/>gini = 0.36<br/>samples = 34<br/>value = [26, 8]>, fillcolor="#e58139b1"] ;
559 -> 561 ;
562 [label=<X<SUB>10</SUB> &le; 238706.5<br/>gini = 0.188<br/>samples = 19<br/>value = [17, 2]>, fillcolor="#e58139e1"] ;
561 -> 562 ;
563 [label=<X<SUB>10</SUB> &le; 238251.5<br/>gini = 0.32<br/>samples = 10<br/>value = [8, 2]>, fillcolor="#e58139bf"] ;
562 -> 563 ;
564 [label=<gini = 0.0<br/>samples = 4<br/>value = [4, 0]>, fillcolor="#e58139ff"] ;
563 -> 564 ;
565 [label=<X<SUB>30</SUB> &le; 0.5<br/>gini = 0.444<br/>samples = 6<br/>value = [4, 2]>, fillcolor="#e581397f"] ;
563 -> 565 ;
566 [label=<X<SUB>10</SUB> &le; 238535.5<br/>gini = 0.32<br/>samples = 5<br/>value = [4, 1]>, fillcolor="#e58139bf"] ;
565 -> 566 ;
567 [label=<gini = 0.0<br/>samples = 3<br/>value = [3, 0]>, fillcolor="#e58139ff"] ;
566 -> 567 ;
568 [label=<X<SUB>0</SUB> &le; 32.0<br/>gini = 0.5<br/>samples = 2<br/>value = [1, 1]>, fillcolor="#e5813900"] ;
566 -> 568 ;
569 [label=<gini = 0.0<br/>samples = 1<br/>value = [0, 1]>, fillcolor="#399de5ff"] ;
568 -> 569 ;
570 [label=<gini = 0.0<br/>samples = 1<br/>value = [1, 0]>, fillcolor="#e58139ff"] ;
568 -> 570 ;
571 [label=<gini = 0.0<br/>samples = 1<br/>value = [0, 1]>, fillcolor="#399de5ff"] ;
565 -> 571 ;
572 [label=<gini = 0.0<br/>samples = 9<br/>value = [9, 0]>, fillcolor="#e58139ff"] ;
562 -> 572 ;
573 [label=<X<SUB>4</SUB> &le; 0.5<br/>gini = 0.48<br/>samples = 15<br/>value = [9, 6]>, fillcolor="#e5813955"] ;
561 -> 573 ;
574 [label=<gini = 0.0<br/>samples = 2<br/>value = [0, 2]>, fillcolor="#399de5ff"] ;
573 -> 574 ;
575 [label=<X<SUB>13</SUB> &le; 0.5<br/>gini = 0.426<br/>samples = 13<br/>value = [9, 4]>, fillcolor="#e581398e"] ;
573 -> 575 ;
576 [label=<X<SUB>30</SUB> &le; 0.5<br/>gini = 0.5<br/>samples = 8<br/>value = [4, 4]>, fillcolor="#e5813900"] ;
575 -> 576 ;
577 [label=<X<SUB>10</SUB> &le; 242164.0<br/>gini = 0.32<br/>samples = 5<br/>value = [1, 4]>, fillcolor="#399de5bf"] ;
576 -> 577 ;
578 [label=<gini = 0.0<br/>samples = 4<br/>value = [0, 4]>, fillcolor="#399de5ff"] ;
577 -> 578 ;
579 [label=<gini = 0.0<br/>samples = 1<br/>value = [1, 0]>, fillcolor="#e58139ff"] ;
577 -> 579 ;
580 [label=<gini = 0.0<br/>samples = 3<br/>value = [3, 0]>, fillcolor="#e58139ff"] ;
576 -> 580 ;
581 [label=<gini = 0.0<br/>samples = 5<br/>value = [5, 0]>, fillcolor="#e58139ff"] ;
575 -> 581 ;
582 [label=<X<SUB>10</SUB> &le; 559821.0<br/>gini = 0.177<br/>samples = 509<br/>value = [459, 50]>, fillcolor="#e58139e3"] ;
558 -> 582 ;
583 [label=<X<SUB>8</SUB> &le; 35.5<br/>gini = 0.17<br/>samples = 491<br/>value = [445, 46]>, fillcolor="#e58139e5"] ;
582 -> 583 ;
584 [label=<X<SUB>8</SUB> &le; 28.5<br/>gini = 0.206<br/>samples = 232<br/>value = [205, 27]>, fillcolor="#e58139dd"] ;
583 -> 584 ;
585 [label=<X<SUB>57</SUB> &le; 0.5<br/>gini = 0.135<br/>samples = 124<br/>value = [115, 9]>, fillcolor="#e58139eb"] ;
584 -> 585 ;
586 [label=<X<SUB>56</SUB> &le; 0.5<br/>gini = 0.122<br/>samples = 123<br/>value = [115, 8]>, fillcolor="#e58139ed"] ;
585 -> 586 ;
587 [label=<X<SUB>29</SUB> &le; 0.5<br/>gini = 0.108<br/>samples = 122<br/>value = [115, 7]>, fillcolor="#e58139ef"] ;
586 -> 587 ;
588 [label=<X<SUB>24</SUB> &le; 0.5<br/>gini = 0.062<br/>samples = 94<br/>value = [91, 3]>, fillcolor="#e58139f7"] ;
587 -> 588 ;
589 [label=<X<SUB>8</SUB> &le; 20.5<br/>gini = 0.044<br/>samples = 89<br/>value = [87, 2]>, fillcolor="#e58139f9"] ;
588 -> 589 ;
590 [label=<X<SUB>10</SUB> &le; 305067.5<br/>gini = 0.198<br/>samples = 18<br/>value = [16, 2]>, fillcolor="#e58139df"] ;
589 -> 590 ;
591 [label=<gini = 0.0<br/>samples = 7<br/>value = [7, 0]>, fillcolor="#e58139ff"] ;
590 -> 591 ;
592 [label=<X<SUB>10</SUB> &le; 312329.0<br/>gini = 0.298<br/>samples = 11<br/>value = [9, 2]>, fillcolor="#e58139c6"] ;
590 -> 592 ;
593 [label=<gini = 0.0<br/>samples = 1<br/>value = [0, 1]>, fillcolor="#399de5ff"] ;
592 -> 593 ;
594 [label=<X<SUB>0</SUB> &le; 36.0<br/>gini = 0.18<br/>samples = 10<br/>value = [9, 1]>, fillcolor="#e58139e3"] ;
592 -> 594 ;
595 [label=<X<SUB>10</SUB> &le; 377480.0<br/>gini = 0.444<br/>samples = 3<br/>value = [2, 1]>, fillcolor="#e581397f"] ;
594 -> 595 ;
596 [label=<gini = 0.0<br/>samples = 1<br/>value = [0, 1]>, fillcolor="#399de5ff"] ;
595 -> 596 ;
597 [label=<gini = 0.0<br/>samples = 2<br/>value = [2, 0]>, fillcolor="#e58139ff"] ;
595 -> 597 ;
598 [label=<gini = 0.0<br/>samples = 7<br/>value = [7, 0]>, fillcolor="#e58139ff"] ;
594 -> 598 ;
599 [label=<gini = 0.0<br/>samples = 71<br/>value = [71, 0]>, fillcolor="#e58139ff"] ;
589 -> 599 ;
600 [label=<X<SUB>10</SUB> &le; 280629.0<br/>gini = 0.32<br/>samples = 5<br/>value = [4, 1]>, fillcolor="#e58139bf"] ;
588 -> 600 ;
601 [label=<gini = 0.0<br/>samples = 1<br/>value = [0, 1]>, fillcolor="#399de5ff"] ;
600 -> 601 ;
602 [label=<gini = 0.0<br/>samples = 4<br/>value = [4, 0]>, fillcolor="#e58139ff"] ;
600 -> 602 ;
603 [label=<X<SUB>45</SUB> &le; 0.5<br/>gini = 0.245<br/>samples = 28<br/>value = [24, 4]>, fillcolor="#e58139d4"] ;
587 -> 603 ;
604 [label=<X<SUB>19</SUB> &le; 0.5<br/>gini = 0.198<br/>samples = 27<br/>value = [24, 3]>, fillcolor="#e58139df"] ;
603 -> 604 ;
605 [label=<X<SUB>10</SUB> &le; 257845.0<br/>gini = 0.095<br/>samples = 20<br/>value = [19, 1]>, fillcolor="#e58139f2"] ;
604 -> 605 ;
606 [label=<X<SUB>10</SUB> &le; 252529.0<br/>gini = 0.32<br/>samples = 5<br/>value = [4, 1]>, fillcolor="#e58139bf"] ;
605 -> 606 ;
607 [label=<gini = 0.0<br/>samples = 4<br/>value = [4, 0]>, fillcolor="#e58139ff"] ;
606 -> 607 ;
608 [label=<gini = 0.0<br/>samples = 1<br/>value = [0, 1]>, fillcolor="#399de5ff"] ;
606 -> 608 ;
609 [label=<gini = 0.0<br/>samples = 15<br/>value = [15, 0]>, fillcolor="#e58139ff"] ;
605 -> 609 ;
610 [label=<X<SUB>10</SUB> &le; 317609.5<br/>gini = 0.408<br/>samples = 7<br/>value = [5, 2]>, fillcolor="#e5813999"] ;
604 -> 610 ;
611 [label=<gini = 0.0<br/>samples = 3<br/>value = [3, 0]>, fillcolor="#e58139ff"] ;
610 -> 611 ;
612 [label=<X<SUB>10</SUB> &le; 379349.0<br/>gini = 0.5<br/>samples = 4<br/>value = [2, 2]>, fillcolor="#e5813900"] ;
610 -> 612 ;
613 [label=<gini = 0.0<br/>samples = 2<br/>value = [0, 2]>, fillcolor="#399de5ff"] ;
612 -> 613 ;
614 [label=<gini = 0.0<br/>samples = 2<br/>value = [2, 0]>, fillcolor="#e58139ff"] ;
612 -> 614 ;
615 [label=<gini = 0.0<br/>samples = 1<br/>value = [0, 1]>, fillcolor="#399de5ff"] ;
603 -> 615 ;
616 [label=<gini = 0.0<br/>samples = 1<br/>value = [0, 1]>, fillcolor="#399de5ff"] ;
586 -> 616 ;
617 [label=<gini = 0.0<br/>samples = 1<br/>value = [0, 1]>, fillcolor="#399de5ff"] ;
585 -> 617 ;
618 [label=<X<SUB>54</SUB> &le; 0.5<br/>gini = 0.278<br/>samples = 108<br/>value = [90, 18]>, fillcolor="#e58139cc"] ;
584 -> 618 ;
619 [label=<X<SUB>59</SUB> &le; 0.5<br/>gini = 0.26<br/>samples = 104<br/>value = [88, 16]>, fillcolor="#e58139d1"] ;
618 -> 619 ;
620 [label=<X<SUB>25</SUB> &le; 0.5<br/>gini = 0.249<br/>samples = 103<br/>value = [88, 15]>, fillcolor="#e58139d4"] ;
619 -> 620 ;
621 [label=<X<SUB>0</SUB> &le; 32.0<br/>gini = 0.304<br/>samples = 75<br/>value = [61, 14]>, fillcolor="#e58139c4"] ;
620 -> 621 ;
622 [label=<X<SUB>10</SUB> &le; 315382.0<br/>gini = 0.49<br/>samples = 7<br/>value = [4, 3]>, fillcolor="#e5813940"] ;
621 -> 622 ;
623 [label=<gini = 0.0<br/>samples = 3<br/>value = [3, 0]>, fillcolor="#e58139ff"] ;
622 -> 623 ;
624 [label=<X<SUB>49</SUB> &le; 0.5<br/>gini = 0.375<br/>samples = 4<br/>value = [1, 3]>, fillcolor="#399de5aa"] ;
622 -> 624 ;
625 [label=<gini = 0.0<br/>samples = 3<br/>value = [0, 3]>, fillcolor="#399de5ff"] ;
624 -> 625 ;
626 [label=<gini = 0.0<br/>samples = 1<br/>value = [1, 0]>, fillcolor="#e58139ff"] ;
624 -> 626 ;
627 [label=<X<SUB>43</SUB> &le; 0.5<br/>gini = 0.271<br/>samples = 68<br/>value = [57, 11]>, fillcolor="#e58139ce"] ;
621 -> 627 ;
628 [label=<X<SUB>45</SUB> &le; 0.5<br/>gini = 0.219<br/>samples = 56<br/>value = [49, 7]>, fillcolor="#e58139db"] ;
627 -> 628 ;
629 [label=<X<SUB>10</SUB> &le; 326272.0<br/>gini = 0.18<br/>samples = 50<br/>value = [45, 5]>, fillcolor="#e58139e3"] ;
628 -> 629 ;
630 [label=<X<SUB>10</SUB> &le; 309400.5<br/>gini = 0.293<br/>samples = 28<br/>value = [23, 5]>, fillcolor="#e58139c8"] ;
629 -> 630 ;
631 [label=<X<SUB>0</SUB> &le; 44.5<br/>gini = 0.211<br/>samples = 25<br/>value = [22, 3]>, fillcolor="#e58139dc"] ;
630 -> 631 ;
632 [label=<X<SUB>10</SUB> &le; 273882.0<br/>gini = 0.153<br/>samples = 24<br/>value = [22, 2]>, fillcolor="#e58139e8"] ;
631 -> 632 ;
633 [label=<gini = 0.0<br/>samples = 13<br/>value = [13, 0]>, fillcolor="#e58139ff"] ;
632 -> 633 ;
634 [label=<X<SUB>10</SUB> &le; 274894.5<br/>gini = 0.298<br/>samples = 11<br/>value = [9, 2]>, fillcolor="#e58139c6"] ;
632 -> 634 ;
635 [label=<gini = 0.0<br/>samples = 1<br/>value = [0, 1]>, fillcolor="#399de5ff"] ;
634 -> 635 ;
636 [label=<X<SUB>8</SUB> &le; 29.5<br/>gini = 0.18<br/>samples = 10<br/>value = [9, 1]>, fillcolor="#e58139e3"] ;
634 -> 636 ;
637 [label=<X<SUB>6</SUB> &le; 9.5<br/>gini = 0.5<br/>samples = 2<br/>value = [1, 1]>, fillcolor="#e5813900"] ;
636 -> 637 ;
638 [label=<gini = 0.0<br/>samples = 1<br/>value = [1, 0]>, fillcolor="#e58139ff"] ;
637 -> 638 ;
639 [label=<gini = 0.0<br/>samples = 1<br/>value = [0, 1]>, fillcolor="#399de5ff"] ;
637 -> 639 ;
640 [label=<gini = 0.0<br/>samples = 8<br/>value = [8, 0]>, fillcolor="#e58139ff"] ;
636 -> 640 ;
641 [label=<gini = 0.0<br/>samples = 1<br/>value = [0, 1]>, fillcolor="#399de5ff"] ;
631 -> 641 ;
642 [label=<X<SUB>4</SUB> &le; 0.5<br/>gini = 0.444<br/>samples = 3<br/>value = [1, 2]>, fillcolor="#399de57f"] ;
630 -> 642 ;
643 [label=<gini = 0.0<br/>samples = 1<br/>value = [1, 0]>, fillcolor="#e58139ff"] ;
642 -> 643 ;
644 [label=<gini = 0.0<br/>samples = 2<br/>value = [0, 2]>, fillcolor="#399de5ff"] ;
642 -> 644 ;
645 [label=<gini = 0.0<br/>samples = 22<br/>value = [22, 0]>, fillcolor="#e58139ff"] ;
629 -> 645 ;
646 [label=<X<SUB>8</SUB> &le; 32.0<br/>gini = 0.444<br/>samples = 6<br/>value = [4, 2]>, fillcolor="#e581397f"] ;
628 -> 646 ;
647 [label=<X<SUB>29</SUB> &le; 0.5<br/>gini = 0.444<br/>samples = 3<br/>value = [1, 2]>, fillcolor="#399de57f"] ;
646 -> 647 ;
648 [label=<gini = 0.0<br/>samples = 2<br/>value = [0, 2]>, fillcolor="#399de5ff"] ;
647 -> 648 ;
649 [label=<gini = 0.0<br/>samples = 1<br/>value = [1, 0]>, fillcolor="#e58139ff"] ;
647 -> 649 ;
650 [label=<gini = 0.0<br/>samples = 3<br/>value = [3, 0]>, fillcolor="#e58139ff"] ;
646 -> 650 ;
651 [label=<X<SUB>19</SUB> &le; 0.5<br/>gini = 0.444<br/>samples = 12<br/>value = [8, 4]>, fillcolor="#e581397f"] ;
627 -> 651 ;
652 [label=<X<SUB>24</SUB> &le; 0.5<br/>gini = 0.397<br/>samples = 11<br/>value = [8, 3]>, fillcolor="#e581399f"] ;
651 -> 652 ;
653 [label=<X<SUB>10</SUB> &le; 465086.5<br/>gini = 0.32<br/>samples = 10<br/>value = [8, 2]>, fillcolor="#e58139bf"] ;
652 -> 653 ;
654 [label=<X<SUB>30</SUB> &le; 0.5<br/>gini = 0.219<br/>samples = 8<br/>value = [7, 1]>, fillcolor="#e58139db"] ;
653 -> 654 ;
655 [label=<gini = 0.0<br/>samples = 5<br/>value = [5, 0]>, fillcolor="#e58139ff"] ;
654 -> 655 ;
656 [label=<X<SUB>8</SUB> &le; 30.5<br/>gini = 0.444<br/>samples = 3<br/>value = [2, 1]>, fillcolor="#e581397f"] ;
654 -> 656 ;
657 [label=<gini = 0.0<br/>samples = 1<br/>value = [0, 1]>, fillcolor="#399de5ff"] ;
656 -> 657 ;
658 [label=<gini = 0.0<br/>samples = 2<br/>value = [2, 0]>, fillcolor="#e58139ff"] ;
656 -> 658 ;
659 [label=<X<SUB>8</SUB> &le; 33.5<br/>gini = 0.5<br/>samples = 2<br/>value = [1, 1]>, fillcolor="#e5813900"] ;
653 -> 659 ;
660 [label=<gini = 0.0<br/>samples = 1<br/>value = [0, 1]>, fillcolor="#399de5ff"] ;
659 -> 660 ;
661 [label=<gini = 0.0<br/>samples = 1<br/>value = [1, 0]>, fillcolor="#e58139ff"] ;
659 -> 661 ;
662 [label=<gini = 0.0<br/>samples = 1<br/>value = [0, 1]>, fillcolor="#399de5ff"] ;
652 -> 662 ;
663 [label=<gini = 0.0<br/>samples = 1<br/>value = [0, 1]>, fillcolor="#399de5ff"] ;
651 -> 663 ;
664 [label=<X<SUB>21</SUB> &le; 0.5<br/>gini = 0.069<br/>samples = 28<br/>value = [27, 1]>, fillcolor="#e58139f6"] ;
620 -> 664 ;
665 [label=<gini = 0.0<br/>samples = 25<br/>value = [25, 0]>, fillcolor="#e58139ff"] ;
664 -> 665 ;
666 [label=<X<SUB>18</SUB> &le; 0.5<br/>gini = 0.444<br/>samples = 3<br/>value = [2, 1]>, fillcolor="#e581397f"] ;
664 -> 666 ;
667 [label=<gini = 0.0<br/>samples = 2<br/>value = [2, 0]>, fillcolor="#e58139ff"] ;
666 -> 667 ;
668 [label=<gini = 0.0<br/>samples = 1<br/>value = [0, 1]>, fillcolor="#399de5ff"] ;
666 -> 668 ;
669 [label=<gini = 0.0<br/>samples = 1<br/>value = [0, 1]>, fillcolor="#399de5ff"] ;
619 -> 669 ;
670 [label=<X<SUB>13</SUB> &le; 0.5<br/>gini = 0.5<br/>samples = 4<br/>value = [2, 2]>, fillcolor="#e5813900"] ;
618 -> 670 ;
671 [label=<gini = 0.0<br/>samples = 2<br/>value = [2, 0]>, fillcolor="#e58139ff"] ;
670 -> 671 ;
672 [label=<gini = 0.0<br/>samples = 2<br/>value = [0, 2]>, fillcolor="#399de5ff"] ;
670 -> 672 ;
673 [label=<X<SUB>61</SUB> &le; 0.5<br/>gini = 0.136<br/>samples = 259<br/>value = [240, 19]>, fillcolor="#e58139eb"] ;
583 -> 673 ;
674 [label=<X<SUB>18</SUB> &le; 0.5<br/>gini = 0.13<br/>samples = 257<br/>value = [239, 18]>, fillcolor="#e58139ec"] ;
673 -> 674 ;
675 [label=<X<SUB>0</SUB> &le; 42.5<br/>gini = 0.072<br/>samples = 134<br/>value = [129, 5]>, fillcolor="#e58139f5"] ;
674 -> 675 ;
676 [label=<X<SUB>21</SUB> &le; 0.5<br/>gini = 0.045<br/>samples = 130<br/>value = [127, 3]>, fillcolor="#e58139f9"] ;
675 -> 676 ;
677 [label=<X<SUB>45</SUB> &le; 0.5<br/>gini = 0.032<br/>samples = 122<br/>value = [120, 2]>, fillcolor="#e58139fb"] ;
676 -> 677 ;
678 [label=<X<SUB>24</SUB> &le; 0.5<br/>gini = 0.018<br/>samples = 112<br/>value = [111, 1]>, fillcolor="#e58139fd"] ;
677 -> 678 ;
679 [label=<gini = 0.0<br/>samples = 101<br/>value = [101, 0]>, fillcolor="#e58139ff"] ;
678 -> 679 ;
680 [label=<X<SUB>10</SUB> &le; 351001.0<br/>gini = 0.165<br/>samples = 11<br/>value = [10, 1]>, fillcolor="#e58139e6"] ;
678 -> 680 ;
681 [label=<gini = 0.0<br/>samples = 8<br/>value = [8, 0]>, fillcolor="#e58139ff"] ;
680 -> 681 ;
682 [label=<X<SUB>19</SUB> &le; 0.5<br/>gini = 0.444<br/>samples = 3<br/>value = [2, 1]>, fillcolor="#e581397f"] ;
680 -> 682 ;
683 [label=<gini = 0.0<br/>samples = 1<br/>value = [0, 1]>, fillcolor="#399de5ff"] ;
682 -> 683 ;
684 [label=<gini = 0.0<br/>samples = 2<br/>value = [2, 0]>, fillcolor="#e58139ff"] ;
682 -> 684 ;
685 [label=<X<SUB>10</SUB> &le; 311961.5<br/>gini = 0.18<br/>samples = 10<br/>value = [9, 1]>, fillcolor="#e58139e3"] ;
677 -> 685 ;
686 [label=<X<SUB>10</SUB> &le; 296081.0<br/>gini = 0.375<br/>samples = 4<br/>value = [3, 1]>, fillcolor="#e58139aa"] ;
685 -> 686 ;
687 [label=<gini = 0.0<br/>samples = 3<br/>value = [3, 0]>, fillcolor="#e58139ff"] ;
686 -> 687 ;
688 [label=<gini = 0.0<br/>samples = 1<br/>value = [0, 1]>, fillcolor="#399de5ff"] ;
686 -> 688 ;
689 [label=<gini = 0.0<br/>samples = 6<br/>value = [6, 0]>, fillcolor="#e58139ff"] ;
685 -> 689 ;
690 [label=<X<SUB>23</SUB> &le; 0.5<br/>gini = 0.219<br/>samples = 8<br/>value = [7, 1]>, fillcolor="#e58139db"] ;
676 -> 690 ;
691 [label=<gini = 0.0<br/>samples = 7<br/>value = [7, 0]>, fillcolor="#e58139ff"] ;
690 -> 691 ;
692 [label=<gini = 0.0<br/>samples = 1<br/>value = [0, 1]>, fillcolor="#399de5ff"] ;
690 -> 692 ;
693 [label=<X<SUB>10</SUB> &le; 248146.5<br/>gini = 0.5<br/>samples = 4<br/>value = [2, 2]>, fillcolor="#e5813900"] ;
675 -> 693 ;
694 [label=<gini = 0.0<br/>samples = 1<br/>value = [1, 0]>, fillcolor="#e58139ff"] ;
693 -> 694 ;
695 [label=<X<SUB>24</SUB> &le; 0.5<br/>gini = 0.444<br/>samples = 3<br/>value = [1, 2]>, fillcolor="#399de57f"] ;
693 -> 695 ;
696 [label=<gini = 0.0<br/>samples = 2<br/>value = [0, 2]>, fillcolor="#399de5ff"] ;
695 -> 696 ;
697 [label=<gini = 0.0<br/>samples = 1<br/>value = [1, 0]>, fillcolor="#e58139ff"] ;
695 -> 697 ;
698 [label=<X<SUB>10</SUB> &le; 370476.5<br/>gini = 0.189<br/>samples = 123<br/>value = [110, 13]>, fillcolor="#e58139e1"] ;
674 -> 698 ;
699 [label=<X<SUB>10</SUB> &le; 368203.0<br/>gini = 0.226<br/>samples = 100<br/>value = [87, 13]>, fillcolor="#e58139d9"] ;
698 -> 699 ;
700 [label=<X<SUB>0</SUB> &le; 38.5<br/>gini = 0.199<br/>samples = 98<br/>value = [87, 11]>, fillcolor="#e58139df"] ;
699 -> 700 ;
701 [label=<gini = 0.0<br/>samples = 14<br/>value = [14, 0]>, fillcolor="#e58139ff"] ;
700 -> 701 ;
702 [label=<X<SUB>0</SUB> &le; 40.0<br/>gini = 0.228<br/>samples = 84<br/>value = [73, 11]>, fillcolor="#e58139d9"] ;
700 -> 702 ;
703 [label=<X<SUB>30</SUB> &le; 0.5<br/>gini = 0.48<br/>samples = 5<br/>value = [3, 2]>, fillcolor="#e5813955"] ;
702 -> 703 ;
704 [label=<gini = 0.0<br/>samples = 2<br/>value = [0, 2]>, fillcolor="#399de5ff"] ;
703 -> 704 ;
705 [label=<gini = 0.0<br/>samples = 3<br/>value = [3, 0]>, fillcolor="#e58139ff"] ;
703 -> 705 ;
706 [label=<X<SUB>8</SUB> &le; 40.5<br/>gini = 0.202<br/>samples = 79<br/>value = [70, 9]>, fillcolor="#e58139de"] ;
702 -> 706 ;
707 [label=<X<SUB>19</SUB> &le; 0.5<br/>gini = 0.074<br/>samples = 26<br/>value = [25, 1]>, fillcolor="#e58139f5"] ;
706 -> 707 ;
708 [label=<gini = 0.0<br/>samples = 18<br/>value = [18, 0]>, fillcolor="#e58139ff"] ;
707 -> 708 ;
709 [label=<X<SUB>8</SUB> &le; 37.5<br/>gini = 0.219<br/>samples = 8<br/>value = [7, 1]>, fillcolor="#e58139db"] ;
707 -> 709 ;
710 [label=<gini = 0.0<br/>samples = 5<br/>value = [5, 0]>, fillcolor="#e58139ff"] ;
709 -> 710 ;
711 [label=<X<SUB>10</SUB> &le; 303121.5<br/>gini = 0.444<br/>samples = 3<br/>value = [2, 1]>, fillcolor="#e581397f"] ;
709 -> 711 ;
712 [label=<gini = 0.0<br/>samples = 2<br/>value = [2, 0]>, fillcolor="#e58139ff"] ;
711 -> 712 ;
713 [label=<gini = 0.0<br/>samples = 1<br/>value = [0, 1]>, fillcolor="#399de5ff"] ;
711 -> 713 ;
714 [label=<X<SUB>8</SUB> &le; 47.5<br/>gini = 0.256<br/>samples = 53<br/>value = [45, 8]>, fillcolor="#e58139d2"] ;
706 -> 714 ;
715 [label=<X<SUB>8</SUB> &le; 46.5<br/>gini = 0.365<br/>samples = 25<br/>value = [19, 6]>, fillcolor="#e58139ae"] ;
714 -> 715 ;
716 [label=<X<SUB>29</SUB> &le; 0.5<br/>gini = 0.298<br/>samples = 22<br/>value = [18, 4]>, fillcolor="#e58139c6"] ;
715 -> 716 ;
717 [label=<X<SUB>19</SUB> &le; 0.5<br/>gini = 0.198<br/>samples = 18<br/>value = [16, 2]>, fillcolor="#e58139df"] ;
716 -> 717 ;
718 [label=<gini = 0.0<br/>samples = 11<br/>value = [11, 0]>, fillcolor="#e58139ff"] ;
717 -> 718 ;
719 [label=<X<SUB>30</SUB> &le; 0.5<br/>gini = 0.408<br/>samples = 7<br/>value = [5, 2]>, fillcolor="#e5813999"] ;
717 -> 719 ;
720 [label=<gini = 0.0<br/>samples = 3<br/>value = [3, 0]>, fillcolor="#e58139ff"] ;
719 -> 720 ;
721 [label=<X<SUB>10</SUB> &le; 258128.5<br/>gini = 0.5<br/>samples = 4<br/>value = [2, 2]>, fillcolor="#e5813900"] ;
719 -> 721 ;
722 [label=<gini = 0.0<br/>samples = 2<br/>value = [2, 0]>, fillcolor="#e58139ff"] ;
721 -> 722 ;
723 [label=<gini = 0.0<br/>samples = 2<br/>value = [0, 2]>, fillcolor="#399de5ff"] ;
721 -> 723 ;
724 [label=<X<SUB>5</SUB> &le; 0.5<br/>gini = 0.5<br/>samples = 4<br/>value = [2, 2]>, fillcolor="#e5813900"] ;
716 -> 724 ;
725 [label=<gini = 0.0<br/>samples = 2<br/>value = [2, 0]>, fillcolor="#e58139ff"] ;
724 -> 725 ;
726 [label=<gini = 0.0<br/>samples = 2<br/>value = [0, 2]>, fillcolor="#399de5ff"] ;
724 -> 726 ;
727 [label=<X<SUB>51</SUB> &le; 0.5<br/>gini = 0.444<br/>samples = 3<br/>value = [1, 2]>, fillcolor="#399de57f"] ;
715 -> 727 ;
728 [label=<gini = 0.0<br/>samples = 2<br/>value = [0, 2]>, fillcolor="#399de5ff"] ;
727 -> 728 ;
729 [label=<gini = 0.0<br/>samples = 1<br/>value = [1, 0]>, fillcolor="#e58139ff"] ;
727 -> 729 ;
730 [label=<X<SUB>44</SUB> &le; 0.5<br/>gini = 0.133<br/>samples = 28<br/>value = [26, 2]>, fillcolor="#e58139eb"] ;
714 -> 730 ;
731 [label=<X<SUB>43</SUB> &le; 0.5<br/>gini = 0.074<br/>samples = 26<br/>value = [25, 1]>, fillcolor="#e58139f5"] ;
730 -> 731 ;
732 [label=<gini = 0.0<br/>samples = 22<br/>value = [22, 0]>, fillcolor="#e58139ff"] ;
731 -> 732 ;
733 [label=<X<SUB>19</SUB> &le; 0.5<br/>gini = 0.375<br/>samples = 4<br/>value = [3, 1]>, fillcolor="#e58139aa"] ;
731 -> 733 ;
734 [label=<gini = 0.0<br/>samples = 3<br/>value = [3, 0]>, fillcolor="#e58139ff"] ;
733 -> 734 ;
735 [label=<gini = 0.0<br/>samples = 1<br/>value = [0, 1]>, fillcolor="#399de5ff"] ;
733 -> 735 ;
736 [label=<X<SUB>36</SUB> &le; 0.5<br/>gini = 0.5<br/>samples = 2<br/>value = [1, 1]>, fillcolor="#e5813900"] ;
730 -> 736 ;
737 [label=<gini = 0.0<br/>samples = 1<br/>value = [0, 1]>, fillcolor="#399de5ff"] ;
736 -> 737 ;
738 [label=<gini = 0.0<br/>samples = 1<br/>value = [1, 0]>, fillcolor="#e58139ff"] ;
736 -> 738 ;
739 [label=<gini = 0.0<br/>samples = 2<br/>value = [0, 2]>, fillcolor="#399de5ff"] ;
699 -> 739 ;
740 [label=<gini = 0.0<br/>samples = 23<br/>value = [23, 0]>, fillcolor="#e58139ff"] ;
698 -> 740 ;
741 [label=<X<SUB>18</SUB> &le; 0.5<br/>gini = 0.5<br/>samples = 2<br/>value = [1, 1]>, fillcolor="#e5813900"] ;
673 -> 741 ;
742 [label=<gini = 0.0<br/>samples = 1<br/>value = [0, 1]>, fillcolor="#399de5ff"] ;
741 -> 742 ;
743 [label=<gini = 0.0<br/>samples = 1<br/>value = [1, 0]>, fillcolor="#e58139ff"] ;
741 -> 743 ;
744 [label=<X<SUB>10</SUB> &le; 628472.5<br/>gini = 0.346<br/>samples = 18<br/>value = [14, 4]>, fillcolor="#e58139b6"] ;
582 -> 744 ;
745 [label=<X<SUB>8</SUB> &le; 42.5<br/>gini = 0.49<br/>samples = 7<br/>value = [3, 4]>, fillcolor="#399de540"] ;
744 -> 745 ;
746 [label=<X<SUB>0</SUB> &le; 38.5<br/>gini = 0.48<br/>samples = 5<br/>value = [3, 2]>, fillcolor="#e5813955"] ;
745 -> 746 ;
747 [label=<gini = 0.0<br/>samples = 2<br/>value = [0, 2]>, fillcolor="#399de5ff"] ;
746 -> 747 ;
748 [label=<gini = 0.0<br/>samples = 3<br/>value = [3, 0]>, fillcolor="#e58139ff"] ;
746 -> 748 ;
749 [label=<gini = 0.0<br/>samples = 2<br/>value = [0, 2]>, fillcolor="#399de5ff"] ;
745 -> 749 ;
750 [label=<gini = 0.0<br/>samples = 11<br/>value = [11, 0]>, fillcolor="#e58139ff"] ;
744 -> 750 ;
751 [label=<X<SUB>3</SUB> &le; 0.5<br/>gini = 0.032<br/>samples = 61<br/>value = [60, 1]>, fillcolor="#e58139fb"] ;
535 -> 751 ;
752 [label=<X<SUB>8</SUB> &le; 31.0<br/>gini = 0.142<br/>samples = 13<br/>value = [12, 1]>, fillcolor="#e58139ea"] ;
751 -> 752 ;
753 [label=<X<SUB>5</SUB> &le; 0.5<br/>gini = 0.444<br/>samples = 3<br/>value = [2, 1]>, fillcolor="#e581397f"] ;
752 -> 753 ;
754 [label=<gini = 0.0<br/>samples = 2<br/>value = [2, 0]>, fillcolor="#e58139ff"] ;
753 -> 754 ;
755 [label=<gini = 0.0<br/>samples = 1<br/>value = [0, 1]>, fillcolor="#399de5ff"] ;
753 -> 755 ;
756 [label=<gini = 0.0<br/>samples = 10<br/>value = [10, 0]>, fillcolor="#e58139ff"] ;
752 -> 756 ;
757 [label=<gini = 0.0<br/>samples = 48<br/>value = [48, 0]>, fillcolor="#e58139ff"] ;
751 -> 757 ;
758 [label=<X<SUB>10</SUB> &le; 237663.0<br/>gini = 0.363<br/>samples = 21<br/>value = [16, 5]>, fillcolor="#e58139af"] ;
534 -> 758 ;
759 [label=<X<SUB>10</SUB> &le; 219637.5<br/>gini = 0.49<br/>samples = 7<br/>value = [3, 4]>, fillcolor="#399de540"] ;
758 -> 759 ;
760 [label=<gini = 0.0<br/>samples = 2<br/>value = [2, 0]>, fillcolor="#e58139ff"] ;
759 -> 760 ;
761 [label=<X<SUB>13</SUB> &le; 0.5<br/>gini = 0.32<br/>samples = 5<br/>value = [1, 4]>, fillcolor="#399de5bf"] ;
759 -> 761 ;
762 [label=<gini = 0.0<br/>samples = 4<br/>value = [0, 4]>, fillcolor="#399de5ff"] ;
761 -> 762 ;
763 [label=<gini = 0.0<br/>samples = 1<br/>value = [1, 0]>, fillcolor="#e58139ff"] ;
761 -> 763 ;
764 [label=<X<SUB>20</SUB> &le; 0.5<br/>gini = 0.133<br/>samples = 14<br/>value = [13, 1]>, fillcolor="#e58139eb"] ;
758 -> 764 ;
765 [label=<gini = 0.0<br/>samples = 13<br/>value = [13, 0]>, fillcolor="#e58139ff"] ;
764 -> 765 ;
766 [label=<gini = 0.0<br/>samples = 1<br/>value = [0, 1]>, fillcolor="#399de5ff"] ;
764 -> 766 ;
767 [label=<X<SUB>67</SUB> &le; 0.5<br/>gini = 0.068<br/>samples = 284<br/>value = [274, 10]>, fillcolor="#e58139f6"] ;
13 -> 767 ;
768 [label=<X<SUB>61</SUB> &le; 0.5<br/>gini = 0.062<br/>samples = 283<br/>value = [274, 9]>, fillcolor="#e58139f7"] ;
767 -> 768 ;
769 [label=<X<SUB>8</SUB> &le; 44.5<br/>gini = 0.056<br/>samples = 280<br/>value = [272, 8]>, fillcolor="#e58139f8"] ;
768 -> 769 ;
770 [label=<X<SUB>63</SUB> &le; 0.5<br/>gini = 0.023<br/>samples = 169<br/>value = [167, 2]>, fillcolor="#e58139fc"] ;
769 -> 770 ;
771 [label=<X<SUB>0</SUB> &le; 36.5<br/>gini = 0.012<br/>samples = 166<br/>value = [165, 1]>, fillcolor="#e58139fd"] ;
770 -> 771 ;
772 [label=<X<SUB>0</SUB> &le; 34.5<br/>gini = 0.064<br/>samples = 30<br/>value = [29, 1]>, fillcolor="#e58139f6"] ;
771 -> 772 ;
773 [label=<gini = 0.0<br/>samples = 23<br/>value = [23, 0]>, fillcolor="#e58139ff"] ;
772 -> 773 ;
774 [label=<X<SUB>13</SUB> &le; 0.5<br/>gini = 0.245<br/>samples = 7<br/>value = [6, 1]>, fillcolor="#e58139d4"] ;
772 -> 774 ;
775 [label=<gini = 0.0<br/>samples = 5<br/>value = [5, 0]>, fillcolor="#e58139ff"] ;
774 -> 775 ;
776 [label=<X<SUB>5</SUB> &le; 0.5<br/>gini = 0.5<br/>samples = 2<br/>value = [1, 1]>, fillcolor="#e5813900"] ;
774 -> 776 ;
777 [label=<gini = 0.0<br/>samples = 1<br/>value = [1, 0]>, fillcolor="#e58139ff"] ;
776 -> 777 ;
778 [label=<gini = 0.0<br/>samples = 1<br/>value = [0, 1]>, fillcolor="#399de5ff"] ;
776 -> 778 ;
779 [label=<gini = 0.0<br/>samples = 136<br/>value = [136, 0]>, fillcolor="#e58139ff"] ;
771 -> 779 ;
780 [label=<X<SUB>19</SUB> &le; 0.5<br/>gini = 0.444<br/>samples = 3<br/>value = [2, 1]>, fillcolor="#e581397f"] ;
770 -> 780 ;
781 [label=<gini = 0.0<br/>samples = 2<br/>value = [2, 0]>, fillcolor="#e58139ff"] ;
780 -> 781 ;
782 [label=<gini = 0.0<br/>samples = 1<br/>value = [0, 1]>, fillcolor="#399de5ff"] ;
780 -> 782 ;
783 [label=<X<SUB>0</SUB> &le; 18.5<br/>gini = 0.102<br/>samples = 111<br/>value = [105, 6]>, fillcolor="#e58139f0"] ;
769 -> 783 ;
784 [label=<X<SUB>8</SUB> &le; 46.5<br/>gini = 0.5<br/>samples = 2<br/>value = [1, 1]>, fillcolor="#e5813900"] ;
783 -> 784 ;
785 [label=<gini = 0.0<br/>samples = 1<br/>value = [1, 0]>, fillcolor="#e58139ff"] ;
784 -> 785 ;
786 [label=<gini = 0.0<br/>samples = 1<br/>value = [0, 1]>, fillcolor="#399de5ff"] ;
784 -> 786 ;
787 [label=<X<SUB>10</SUB> &le; 215815.5<br/>gini = 0.088<br/>samples = 109<br/>value = [104, 5]>, fillcolor="#e58139f3"] ;
783 -> 787 ;
788 [label=<X<SUB>10</SUB> &le; 213731.0<br/>gini = 0.124<br/>samples = 75<br/>value = [70, 5]>, fillcolor="#e58139ed"] ;
787 -> 788 ;
789 [label=<X<SUB>10</SUB> &le; 135118.0<br/>gini = 0.102<br/>samples = 74<br/>value = [70, 4]>, fillcolor="#e58139f0"] ;
788 -> 789 ;
790 [label=<gini = 0.0<br/>samples = 28<br/>value = [28, 0]>, fillcolor="#e58139ff"] ;
789 -> 790 ;
791 [label=<X<SUB>43</SUB> &le; 0.5<br/>gini = 0.159<br/>samples = 46<br/>value = [42, 4]>, fillcolor="#e58139e7"] ;
789 -> 791 ;
792 [label=<X<SUB>18</SUB> &le; 0.5<br/>gini = 0.124<br/>samples = 45<br/>value = [42, 3]>, fillcolor="#e58139ed"] ;
791 -> 792 ;
793 [label=<gini = 0.0<br/>samples = 25<br/>value = [25, 0]>, fillcolor="#e58139ff"] ;
792 -> 793 ;
794 [label=<X<SUB>8</SUB> &le; 46.0<br/>gini = 0.255<br/>samples = 20<br/>value = [17, 3]>, fillcolor="#e58139d2"] ;
792 -> 794 ;
795 [label=<X<SUB>19</SUB> &le; 0.5<br/>gini = 0.5<br/>samples = 2<br/>value = [1, 1]>, fillcolor="#e5813900"] ;
794 -> 795 ;
796 [label=<gini = 0.0<br/>samples = 1<br/>value = [1, 0]>, fillcolor="#e58139ff"] ;
795 -> 796 ;
797 [label=<gini = 0.0<br/>samples = 1<br/>value = [0, 1]>, fillcolor="#399de5ff"] ;
795 -> 797 ;
798 [label=<X<SUB>10</SUB> &le; 195830.5<br/>gini = 0.198<br/>samples = 18<br/>value = [16, 2]>, fillcolor="#e58139df"] ;
794 -> 798 ;
799 [label=<X<SUB>10</SUB> &le; 146681.0<br/>gini = 0.117<br/>samples = 16<br/>value = [15, 1]>, fillcolor="#e58139ee"] ;
798 -> 799 ;
800 [label=<X<SUB>36</SUB> &le; 0.5<br/>gini = 0.444<br/>samples = 3<br/>value = [2, 1]>, fillcolor="#e581397f"] ;
799 -> 800 ;
801 [label=<gini = 0.0<br/>samples = 2<br/>value = [2, 0]>, fillcolor="#e58139ff"] ;
800 -> 801 ;
802 [label=<gini = 0.0<br/>samples = 1<br/>value = [0, 1]>, fillcolor="#399de5ff"] ;
800 -> 802 ;
803 [label=<gini = 0.0<br/>samples = 13<br/>value = [13, 0]>, fillcolor="#e58139ff"] ;
799 -> 803 ;
804 [label=<X<SUB>13</SUB> &le; 0.5<br/>gini = 0.5<br/>samples = 2<br/>value = [1, 1]>, fillcolor="#e5813900"] ;
798 -> 804 ;
805 [label=<gini = 0.0<br/>samples = 1<br/>value = [1, 0]>, fillcolor="#e58139ff"] ;
804 -> 805 ;
806 [label=<gini = 0.0<br/>samples = 1<br/>value = [0, 1]>, fillcolor="#399de5ff"] ;
804 -> 806 ;
807 [label=<gini = 0.0<br/>samples = 1<br/>value = [0, 1]>, fillcolor="#399de5ff"] ;
791 -> 807 ;
808 [label=<gini = 0.0<br/>samples = 1<br/>value = [0, 1]>, fillcolor="#399de5ff"] ;
788 -> 808 ;
809 [label=<gini = 0.0<br/>samples = 34<br/>value = [34, 0]>, fillcolor="#e58139ff"] ;
787 -> 809 ;
810 [label=<X<SUB>3</SUB> &le; 0.5<br/>gini = 0.444<br/>samples = 3<br/>value = [2, 1]>, fillcolor="#e581397f"] ;
768 -> 810 ;
811 [label=<gini = 0.0<br/>samples = 1<br/>value = [0, 1]>, fillcolor="#399de5ff"] ;
810 -> 811 ;
812 [label=<gini = 0.0<br/>samples = 2<br/>value = [2, 0]>, fillcolor="#e58139ff"] ;
810 -> 812 ;
813 [label=<gini = 0.0<br/>samples = 1<br/>value = [0, 1]>, fillcolor="#399de5ff"] ;
767 -> 813 ;
814 [label=<X<SUB>17</SUB> &le; 0.5<br/>gini = 0.212<br/>samples = 316<br/>value = [278, 38]>, fillcolor="#e58139dc"] ;
12 -> 814 ;
815 [label=<X<SUB>6</SUB> &le; 11.5<br/>gini = 0.195<br/>samples = 301<br/>value = [268, 33]>, fillcolor="#e58139e0"] ;
814 -> 815 ;
816 [label=<X<SUB>9</SUB> &le; 1525.5<br/>gini = 0.168<br/>samples = 248<br/>value = [225, 23]>, fillcolor="#e58139e5"] ;
815 -> 816 ;
817 [label=<X<SUB>8</SUB> &le; 44.5<br/>gini = 0.163<br/>samples = 246<br/>value = [224, 22]>, fillcolor="#e58139e6"] ;
816 -> 817 ;
818 [label=<X<SUB>35</SUB> &le; 0.5<br/>gini = 0.212<br/>samples = 149<br/>value = [131, 18]>, fillcolor="#e58139dc"] ;
817 -> 818 ;
819 [label=<X<SUB>8</SUB> &le; 35.5<br/>gini = 0.203<br/>samples = 148<br/>value = [131, 17]>, fillcolor="#e58139de"] ;
818 -> 819 ;
820 [label=<X<SUB>62</SUB> &le; 0.5<br/>gini = 0.126<br/>samples = 74<br/>value = [69, 5]>, fillcolor="#e58139ed"] ;
819 -> 820 ;
821 [label=<X<SUB>10</SUB> &le; 40032.0<br/>gini = 0.104<br/>samples = 73<br/>value = [69, 4]>, fillcolor="#e58139f0"] ;
820 -> 821 ;
822 [label=<X<SUB>10</SUB> &le; 34885.0<br/>gini = 0.444<br/>samples = 3<br/>value = [2, 1]>, fillcolor="#e581397f"] ;
821 -> 822 ;
823 [label=<gini = 0.0<br/>samples = 2<br/>value = [2, 0]>, fillcolor="#e58139ff"] ;
822 -> 823 ;
824 [label=<gini = 0.0<br/>samples = 1<br/>value = [0, 1]>, fillcolor="#399de5ff"] ;
822 -> 824 ;
825 [label=<X<SUB>24</SUB> &le; 0.5<br/>gini = 0.082<br/>samples = 70<br/>value = [67, 3]>, fillcolor="#e58139f4"] ;
821 -> 825 ;
826 [label=<X<SUB>0</SUB> &le; 44.5<br/>gini = 0.058<br/>samples = 67<br/>value = [65, 2]>, fillcolor="#e58139f7"] ;
825 -> 826 ;
827 [label=<X<SUB>10</SUB> &le; 119702.0<br/>gini = 0.033<br/>samples = 60<br/>value = [59, 1]>, fillcolor="#e58139fb"] ;
826 -> 827 ;
828 [label=<X<SUB>10</SUB> &le; 116958.0<br/>gini = 0.1<br/>samples = 19<br/>value = [18, 1]>, fillcolor="#e58139f1"] ;
827 -> 828 ;
829 [label=<gini = 0.0<br/>samples = 18<br/>value = [18, 0]>, fillcolor="#e58139ff"] ;
828 -> 829 ;
830 [label=<gini = 0.0<br/>samples = 1<br/>value = [0, 1]>, fillcolor="#399de5ff"] ;
828 -> 830 ;
831 [label=<gini = 0.0<br/>samples = 41<br/>value = [41, 0]>, fillcolor="#e58139ff"] ;
827 -> 831 ;
832 [label=<X<SUB>8</SUB> &le; 27.0<br/>gini = 0.245<br/>samples = 7<br/>value = [6, 1]>, fillcolor="#e58139d4"] ;
826 -> 832 ;
833 [label=<gini = 0.0<br/>samples = 1<br/>value = [0, 1]>, fillcolor="#399de5ff"] ;
832 -> 833 ;
834 [label=<gini = 0.0<br/>samples = 6<br/>value = [6, 0]>, fillcolor="#e58139ff"] ;
832 -> 834 ;
835 [label=<X<SUB>10</SUB> &le; 101309.0<br/>gini = 0.444<br/>samples = 3<br/>value = [2, 1]>, fillcolor="#e581397f"] ;
825 -> 835 ;
836 [label=<gini = 0.0<br/>samples = 1<br/>value = [0, 1]>, fillcolor="#399de5ff"] ;
835 -> 836 ;
837 [label=<gini = 0.0<br/>samples = 2<br/>value = [2, 0]>, fillcolor="#e58139ff"] ;
835 -> 837 ;
838 [label=<gini = 0.0<br/>samples = 1<br/>value = [0, 1]>, fillcolor="#399de5ff"] ;
820 -> 838 ;
839 [label=<X<SUB>8</SUB> &le; 36.5<br/>gini = 0.272<br/>samples = 74<br/>value = [62, 12]>, fillcolor="#e58139ce"] ;
819 -> 839 ;
840 [label=<X<SUB>18</SUB> &le; 0.5<br/>gini = 0.48<br/>samples = 5<br/>value = [2, 3]>, fillcolor="#399de555"] ;
839 -> 840 ;
841 [label=<gini = 0.0<br/>samples = 2<br/>value = [0, 2]>, fillcolor="#399de5ff"] ;
840 -> 841 ;
842 [label=<X<SUB>10</SUB> &le; 253704.5<br/>gini = 0.444<br/>samples = 3<br/>value = [2, 1]>, fillcolor="#e581397f"] ;
840 -> 842 ;
843 [label=<gini = 0.0<br/>samples = 2<br/>value = [2, 0]>, fillcolor="#e58139ff"] ;
842 -> 843 ;
844 [label=<gini = 0.0<br/>samples = 1<br/>value = [0, 1]>, fillcolor="#399de5ff"] ;
842 -> 844 ;
845 [label=<X<SUB>10</SUB> &le; 338101.5<br/>gini = 0.227<br/>samples = 69<br/>value = [60, 9]>, fillcolor="#e58139d9"] ;
839 -> 845 ;
846 [label=<X<SUB>57</SUB> &le; 0.5<br/>gini = 0.175<br/>samples = 62<br/>value = [56, 6]>, fillcolor="#e58139e4"] ;
845 -> 846 ;
847 [label=<X<SUB>10</SUB> &le; 59480.0<br/>gini = 0.153<br/>samples = 60<br/>value = [55, 5]>, fillcolor="#e58139e8"] ;
846 -> 847 ;
848 [label=<X<SUB>10</SUB> &le; 44829.0<br/>gini = 0.408<br/>samples = 7<br/>value = [5, 2]>, fillcolor="#e5813999"] ;
847 -> 848 ;
849 [label=<gini = 0.0<br/>samples = 5<br/>value = [5, 0]>, fillcolor="#e58139ff"] ;
848 -> 849 ;
850 [label=<gini = 0.0<br/>samples = 2<br/>value = [0, 2]>, fillcolor="#399de5ff"] ;
848 -> 850 ;
851 [label=<X<SUB>36</SUB> &le; 0.5<br/>gini = 0.107<br/>samples = 53<br/>value = [50, 3]>, fillcolor="#e58139f0"] ;
847 -> 851 ;
852 [label=<X<SUB>18</SUB> &le; 0.5<br/>gini = 0.074<br/>samples = 52<br/>value = [50, 2]>, fillcolor="#e58139f5"] ;
851 -> 852 ;
853 [label=<gini = 0.0<br/>samples = 34<br/>value = [34, 0]>, fillcolor="#e58139ff"] ;
852 -> 853 ;
854 [label=<X<SUB>0</SUB> &le; 33.5<br/>gini = 0.198<br/>samples = 18<br/>value = [16, 2]>, fillcolor="#e58139df"] ;
852 -> 854 ;
855 [label=<gini = 0.0<br/>samples = 1<br/>value = [0, 1]>, fillcolor="#399de5ff"] ;
854 -> 855 ;
856 [label=<X<SUB>10</SUB> &le; 156646.5<br/>gini = 0.111<br/>samples = 17<br/>value = [16, 1]>, fillcolor="#e58139ef"] ;
854 -> 856 ;
857 [label=<X<SUB>10</SUB> &le; 133563.5<br/>gini = 0.375<br/>samples = 4<br/>value = [3, 1]>, fillcolor="#e58139aa"] ;
856 -> 857 ;
858 [label=<gini = 0.0<br/>samples = 3<br/>value = [3, 0]>, fillcolor="#e58139ff"] ;
857 -> 858 ;
859 [label=<gini = 0.0<br/>samples = 1<br/>value = [0, 1]>, fillcolor="#399de5ff"] ;
857 -> 859 ;
860 [label=<gini = 0.0<br/>samples = 13<br/>value = [13, 0]>, fillcolor="#e58139ff"] ;
856 -> 860 ;
861 [label=<gini = 0.0<br/>samples = 1<br/>value = [0, 1]>, fillcolor="#399de5ff"] ;
851 -> 861 ;
862 [label=<X<SUB>23</SUB> &le; 0.5<br/>gini = 0.5<br/>samples = 2<br/>value = [1, 1]>, fillcolor="#e5813900"] ;
846 -> 862 ;
863 [label=<gini = 0.0<br/>samples = 1<br/>value = [1, 0]>, fillcolor="#e58139ff"] ;
862 -> 863 ;
864 [label=<gini = 0.0<br/>samples = 1<br/>value = [0, 1]>, fillcolor="#399de5ff"] ;
862 -> 864 ;
865 [label=<X<SUB>11</SUB> &le; 0.5<br/>gini = 0.49<br/>samples = 7<br/>value = [4, 3]>, fillcolor="#e5813940"] ;
845 -> 865 ;
866 [label=<gini = 0.0<br/>samples = 2<br/>value = [2, 0]>, fillcolor="#e58139ff"] ;
865 -> 866 ;
867 [label=<X<SUB>19</SUB> &le; 0.5<br/>gini = 0.48<br/>samples = 5<br/>value = [2, 3]>, fillcolor="#399de555"] ;
865 -> 867 ;
868 [label=<gini = 0.0<br/>samples = 1<br/>value = [1, 0]>, fillcolor="#e58139ff"] ;
867 -> 868 ;
