digraph Tree {
node [shape=box, style="filled, rounded", color="black", fontname=helvetica] ;
edge [fontname=helvetica] ;
0 [label=<X<SUB>22</SUB> &le; 0.5<br/>gini = 0.374<br/>samples = 26948<br/>value = [20247, 6701]>, fillcolor="#e58139ab"] ;
1 [label=<X<SUB>2</SUB> &le; 8297.0<br/>gini = 0.206<br/>samples = 14328<br/>value = [12653, 1675]>, fillcolor="#e58139dd"] ;
0 -> 1 [labeldistance=2.5, labelangle=45, headlabel="True"] ;
2 [label=<X<SUB>6</SUB> &le; 13.5<br/>gini = 0.187<br/>samples = 14074<br/>value = [12605, 1469]>, fillcolor="#e58139e1"] ;
1 -> 2 ;
3 [label=<X<SUB>9</SUB> &le; 2392.5<br/>gini = 0.154<br/>samples = 11185<br/>value = [10245, 940]>, fillcolor="#e58139e8"] ;
2 -> 3 ;
4 [label=<X<SUB>28</SUB> &le; 0.5<br/>gini = 0.153<br/>samples = 11165<br/>value = [10235, 930]>, fillcolor="#e58139e8"] ;
3 -> 4 ;
5 [label=<X<SUB>7</SUB> &le; 0.5<br/>gini = 0.168<br/>samples = 7775<br/>value = [7055, 720]>, fillcolor="#e58139e5"] ;
4 -> 5 ;
6 [label=<X<SUB>2</SUB> &le; 4719.5<br/>gini = 0.197<br/>samples = 3478<br/>value = [3093, 385]>, fillcolor="#e58139df"] ;
5 -> 6 ;
7 [label=<X<SUB>8</SUB> &le; 47.5<br/>gini = 0.193<br/>samples = 3452<br/>value = [3078, 374]>, fillcolor="#e58139e0"] ;
6 -> 7 ;
8 [label=<X<SUB>86</SUB> &le; 0.5<br/>gini = 0.177<br/>samples = 2816<br/>value = [2539, 277]>, fillcolor="#e58139e3"] ;
7 -> 8 ;
9 [label=<X<SUB>96</SUB> &le; 0.5<br/>gini = 0.177<br/>samples = 2815<br/>value = [2539, 276]>, fillcolor="#e58139e3"] ;
8 -> 9 ;
10 [label=<X<SUB>0</SUB> &le; 47.5<br/>gini = 0.176<br/>samples = 2814<br/>value = [2539, 275]>, fillcolor="#e58139e3"] ;
9 -> 10 ;
11 [label=<X<SUB>40</SUB> &le; 0.5<br/>gini = 0.163<br/>samples = 2195<br/>value = [1999, 196]>, fillcolor="#e58139e6"] ;
10 -> 11 ;
12 [label=<X<SUB>21</SUB> &le; 0.5<br/>gini = 0.158<br/>samples = 2076<br/>value = [1897, 179]>, fillcolor="#e58139e7"] ;
11 -> 12 ;
13 [label=<X<SUB>85</SUB> &le; 0.5<br/>gini = 0.152<br/>samples = 1964<br/>value = [1801, 163]>, fillcolor="#e58139e8"] ;
12 -> 13 ;
14 [label=<X<SUB>75</SUB> &le; 0.5<br/>gini = 0.151<br/>samples = 1958<br/>value = [1797, 161]>, fillcolor="#e58139e8"] ;
13 -> 14 ;
15 [label=<X<SUB>11</SUB> &le; 0.5<br/>gini = 0.15<br/>samples = 1956<br/>value = [1796, 160]>, fillcolor="#e58139e8"] ;
14 -> 15 ;
16 [label=<X<SUB>45</SUB> &le; 0.5<br/>gini = 0.079<br/>samples = 146<br/>value = [140, 6]>, fillcolor="#e58139f4"] ;
15 -> 16 ;
17 [label=<X<SUB>8</SUB> &le; 29.5<br/>gini = 0.067<br/>samples = 143<br/>value = [138, 5]>, fillcolor="#e58139f6"] ;
16 -> 17 ;
18 [label=<X<SUB>44</SUB> &le; 0.5<br/>gini = 0.14<br/>samples = 66<br/>value = [61, 5]>, fillcolor="#e58139ea"] ;
17 -> 18 ;
19 [label=<X<SUB>14</SUB> &le; 0.5<br/>gini = 0.116<br/>samples = 65<br/>value = [61, 4]>, fillcolor="#e58139ee"] ;
18 -> 19 ;
20 [label=<X<SUB>43</SUB> &le; 0.5<br/>gini = 0.038<br/>samples = 51<br/>value = [50, 1]>, fillcolor="#e58139fa"] ;
19 -> 20 ;
21 [label=<gini = 0.0<br/>samples = 48<br/>value = [48, 0]>, fillcolor="#e58139ff"] ;
20 -> 21 ;
22 [label=<X<SUB>8</SUB> &le; 28.5<br/>gini = 0.444<br/>samples = 3<br/>value = [2, 1]>, fillcolor="#e581397f"] ;
20 -> 22 ;
23 [label=<gini = 0.0<br/>samples = 2<br/>value = [2, 0]>, fillcolor="#e58139ff"] ;
22 -> 23 ;
24 [label=<gini = 0.0<br/>samples = 1<br/>value = [0, 1]>, fillcolor="#399de5ff"] ;
22 -> 24 ;
25 [label=<X<SUB>10</SUB> &le; 168901.0<br/>gini = 0.337<br/>samples = 14<br/>value = [11, 3]>, fillcolor="#e58139b9"] ;
19 -> 25 ;
26 [label=<X<SUB>10</SUB> &le; 134592.0<br/>gini = 0.48<br/>samples = 5<br/>value = [3, 2]>, fillcolor="#e5813955"] ;
25 -> 26 ;
27 [label=<gini = 0.0<br/>samples = 2<br/>value = [2, 0]>, fillcolor="#e58139ff"] ;
26 -> 27 ;
28 [label=<X<SUB>3</SUB> &le; 0.5<br/>gini = 0.444<br/>samples = 3<br/>value = [1, 2]>, fillcolor="#399de57f"] ;
26 -> 28 ;
29 [label=<gini = 0.0<br/>samples = 1<br/>value = [1, 0]>, fillcolor="#e58139ff"] ;
28 -> 29 ;
30 [label=<gini = 0.0<br/>samples = 2<br/>value = [0, 2]>, fillcolor="#399de5ff"] ;
28 -> 30 ;
31 [label=<X<SUB>76</SUB> &le; 0.5<br/>gini = 0.198<br/>samples = 9<br/>value = [8, 1]>, fillcolor="#e58139df"] ;
25 -> 31 ;
32 [label=<gini = 0.0<br/>samples = 7<br/>value = [7, 0]>, fillcolor="#e58139ff"] ;
31 -> 32 ;
33 [label=<X<SUB>94</SUB> &le; 0.5<br/>gini = 0.5<br/>samples = 2<br/>value = [1, 1]>, fillcolor="#e5813900"] ;
31 -> 33 ;
34 [label=<gini = 0.0<br/>samples = 1<br/>value = [0, 1]>, fillcolor="#399de5ff"] ;
33 -> 34 ;
35 [label=<gini = 0.0<br/>samples = 1<br/>value = [1, 0]>, fillcolor="#e58139ff"] ;
33 -> 35 ;
36 [label=<gini = 0.0<br/>samples = 1<br/>value = [0, 1]>, fillcolor="#399de5ff"] ;
18 -> 36 ;
37 [label=<gini = 0.0<br/>samples = 77<br/>value = [77, 0]>, fillcolor="#e58139ff"] ;
17 -> 37 ;
38 [label=<X<SUB>20</SUB> &le; 0.5<br/>gini = 0.444<br/>samples = 3<br/>value = [2, 1]>, fillcolor="#e581397f"] ;
16 -> 38 ;
39 [label=<gini = 0.0<br/>samples = 1<br/>value = [0, 1]>, fillcolor="#399de5ff"] ;
38 -> 39 ;
40 [label=<gini = 0.0<br/>samples = 2<br/>value = [2, 0]>, fillcolor="#e58139ff"] ;
38 -> 40 ;
41 [label=<X<SUB>0</SUB> &le; 38.5<br/>gini = 0.156<br/>samples = 1810<br/>value = [1656, 154]>, fillcolor="#e58139e7"] ;
15 -> 41 ;
42 [label=<X<SUB>10</SUB> &le; 52843.0<br/>gini = 0.119<br/>samples = 377<br/>value = [353, 24]>, fillcolor="#e58139ee"] ;
41 -> 42 ;
43 [label=<X<SUB>29</SUB> &le; 0.5<br/>gini = 0.293<br/>samples = 28<br/>value = [23, 5]>, fillcolor="#e58139c8"] ;
42 -> 43 ;
44 [label=<X<SUB>0</SUB> &le; 28.5<br/>gini = 0.211<br/>samples = 25<br/>value = [22, 3]>, fillcolor="#e58139dc"] ;
43 -> 44 ;
45 [label=<X<SUB>10</SUB> &le; 36022.0<br/>gini = 0.355<br/>samples = 13<br/>value = [10, 3]>, fillcolor="#e58139b3"] ;
44 -> 45 ;
46 [label=<gini = 0.0<br/>samples = 5<br/>value = [5, 0]>, fillcolor="#e58139ff"] ;
45 -> 46 ;
47 [label=<X<SUB>10</SUB> &le; 37766.5<br/>gini = 0.469<br/>samples = 8<br/>value = [5, 3]>, fillcolor="#e5813966"] ;
45 -> 47 ;
48 [label=<gini = 0.0<br/>samples = 1<br/>value = [0, 1]>, fillcolor="#399de5ff"] ;
47 -> 48 ;
49 [label=<X<SUB>10</SUB> &le; 41822.0<br/>gini = 0.408<br/>samples = 7<br/>value = [5, 2]>, fillcolor="#e5813999"] ;
47 -> 49 ;
50 [label=<X<SUB>25</SUB> &le; 0.5<br/>gini = 0.48<br/>samples = 5<br/>value = [3, 2]>, fillcolor="#e5813955"] ;
49 -> 50 ;
51 [label=<X<SUB>18</SUB> &le; 0.5<br/>gini = 0.375<br/>samples = 4<br/>value = [3, 1]>, fillcolor="#e58139aa"] ;
50 -> 51 ;
52 [label=<gini = 0.0<br/>samples = 3<br/>value = [3, 0]>, fillcolor="#e58139ff"] ;
51 -> 52 ;
53 [label=<gini = 0.0<br/>samples = 1<br/>value = [0, 1]>, fillcolor="#399de5ff"] ;
51 -> 53 ;
54 [label=<gini = 0.0<br/>samples = 1<br/>value = [0, 1]>, fillcolor="#399de5ff"] ;
50 -> 54 ;
55 [label=<gini = 0.0<br/>samples = 2<br/>value = [2, 0]>, fillcolor="#e58139ff"] ;
49 -> 55 ;
56 [label=<gini = 0.0<br/>samples = 12<br/>value = [12, 0]>, fillcolor="#e58139ff"] ;
44 -> 56 ;
57 [label=<X<SUB>10</SUB> &le; 42862.0<br/>gini = 0.444<br/>samples = 3<br/>value = [1, 2]>, fillcolor="#399de57f"] ;
43 -> 57 ;
58 [label=<gini = 0.0<br/>samples = 1<br/>value = [1, 0]>, fillcolor="#e58139ff"] ;
57 -> 58 ;
59 [label=<gini = 0.0<br/>samples = 2<br/>value = [0, 2]>, fillcolor="#399de5ff"] ;
57 -> 59 ;
60 [label=<X<SUB>12</SUB> &le; 0.5<br/>gini = 0.103<br/>samples = 349<br/>value = [330, 19]>, fillcolor="#e58139f0"] ;
42 -> 60 ;
61 [label=<X<SUB>66</SUB> &le; 0.5<br/>gini = 0.08<br/>samples = 310<br/>value = [297, 13]>, fillcolor="#e58139f4"] ;
60 -> 61 ;
62 [label=<X<SUB>8</SUB> &le; 23.5<br/>gini = 0.059<br/>samples = 263<br/>value = [255, 8]>, fillcolor="#e58139f7"] ;
61 -> 62 ;
63 [label=<X<SUB>14</SUB> &le; 0.5<br/>gini = 0.115<br/>samples = 82<br/>value = [77, 5]>, fillcolor="#e58139ee"] ;
62 -> 63 ;
64 [label=<X<SUB>29</SUB> &le; 0.5<br/>gini = 0.083<br/>samples = 69<br/>value = [66, 3]>, fillcolor="#e58139f3"] ;
63 -> 64 ;
65 [label=<X<SUB>30</SUB> &le; 0.5<br/>gini = 0.034<br/>samples = 57<br/>value = [56, 1]>, fillcolor="#e58139fa"] ;
64 -> 65 ;
66 [label=<gini = 0.0<br/>samples = 48<br/>value = [48, 0]>, fillcolor="#e58139ff"] ;
65 -> 66 ;
67 [label=<X<SUB>8</SUB> &le; 20.5<br/>gini = 0.198<br/>samples = 9<br/>value = [8, 1]>, fillcolor="#e58139df"] ;
65 -> 67 ;
68 [label=<X<SUB>18</SUB> &le; 0.5<br/>gini = 0.444<br/>samples = 3<br/>value = [2, 1]>, fillcolor="#e581397f"] ;
67 -> 68 ;
69 [label=<gini = 0.0<br/>samples = 1<br/>value = [1, 0]>, fillcolor="#e58139ff"] ;
68 -> 69 ;
70 [label=<X<SUB>10</SUB> &le; 445890.0<br/>gini = 0.5<br/>samples = 2<br/>value = [1, 1]>, fillcolor="#e5813900"] ;
68 -> 70 ;
71 [label=<gini = 0.0<br/>samples = 1<br/>value = [0, 1]>, fillcolor="#399de5ff"] ;
70 -> 71 ;
72 [label=<gini = 0.0<br/>samples = 1<br/>value = [1, 0]>, fillcolor="#e58139ff"] ;
70 -> 72 ;
73 [label=<gini = 0.0<br/>samples = 6<br/>value = [6, 0]>, fillcolor="#e58139ff"] ;
67 -> 73 ;
74 [label=<X<SUB>33</SUB> &le; 0.5<br/>gini = 0.278<br/>samples = 12<br/>value = [10, 2]>, fillcolor="#e58139cc"] ;
64 -> 74 ;
75 [label=<X<SUB>8</SUB> &le; 22.5<br/>gini = 0.165<br/>samples = 11<br/>value = [10, 1]>, fillcolor="#e58139e6"] ;
74 -> 75 ;
76 [label=<gini = 0.0<br/>samples = 8<br/>value = [8, 0]>, fillcolor="#e58139ff"] ;
75 -> 76 ;
77 [label=<X<SUB>0</SUB> &le; 22.0<br/>gini = 0.444<br/>samples = 3<br/>value = [2, 1]>, fillcolor="#e581397f"] ;
75 -> 77 ;
78 [label=<X<SUB>10</SUB> &le; 300169.5<br/>gini = 0.5<br/>samples = 2<br/>value = [1, 1]>, fillcolor="#e5813900"] ;
77 -> 78 ;
79 [label=<gini = 0.0<br/>samples = 1<br/>value = [0, 1]>, fillcolor="#399de5ff"] ;
78 -> 79 ;
80 [label=<gini = 0.0<br/>samples = 1<br/>value = [1, 0]>, fillcolor="#e58139ff"] ;
78 -> 80 ;
81 [label=<gini = 0.0<br/>samples = 1<br/>value = [1, 0]>, fillcolor="#e58139ff"] ;
77 -> 81 ;
82 [label=<gini = 0.0<br/>samples = 1<br/>value = [0, 1]>, fillcolor="#399de5ff"] ;
74 -> 82 ;
83 [label=<X<SUB>6</SUB> &le; 9.0<br/>gini = 0.26<br/>samples = 13<br/>value = [11, 2]>, fillcolor="#e58139d1"] ;
63 -> 83 ;
84 [label=<X<SUB>8</SUB> &le; 21.5<br/>gini = 0.444<br/>samples = 6<br/>value = [4, 2]>, fillcolor="#e581397f"] ;
83 -> 84 ;
85 [label=<gini = 0.0<br/>samples = 3<br/>value = [3, 0]>, fillcolor="#e58139ff"] ;
84 -> 85 ;
86 [label=<X<SUB>17</SUB> &le; 0.5<br/>gini = 0.444<br/>samples = 3<br/>value = [1, 2]>, fillcolor="#399de57f"] ;
84 -> 86 ;
87 [label=<gini = 0.0<br/>samples = 2<br/>value = [0, 2]>, fillcolor="#399de5ff"] ;
86 -> 87 ;
88 [label=<gini = 0.0<br/>samples = 1<br/>value = [1, 0]>, fillcolor="#e58139ff"] ;
86 -> 88 ;
89 [label=<gini = 0.0<br/>samples = 7<br/>value = [7, 0]>, fillcolor="#e58139ff"] ;
83 -> 89 ;
90 [label=<X<SUB>46</SUB> &le; 0.5<br/>gini = 0.033<br/>samples = 181<br/>value = [178, 3]>, fillcolor="#e58139fb"] ;
62 -> 90 ;
91 [label=<X<SUB>49</SUB> &le; 0.5<br/>gini = 0.023<br/>samples = 171<br/>value = [169, 2]>, fillcolor="#e58139fc"] ;
90 -> 91 ;
92 [label=<X<SUB>29</SUB> &le; 0.5<br/>gini = 0.012<br/>samples = 159<br/>value = [158, 1]>, fillcolor="#e58139fd"] ;
91 -> 92 ;
93 [label=<gini = 0.0<br/>samples = 130<br/>value = [130, 0]>, fillcolor="#e58139ff"] ;
92 -> 93 ;
94 [label=<X<SUB>0</SUB> &le; 34.5<br/>gini = 0.067<br/>samples = 29<br/>value = [28, 1]>, fillcolor="#e58139f6"] ;
92 -> 94 ;
95 [label=<gini = 0.0<br/>samples = 18<br/>value = [18, 0]>, fillcolor="#e58139ff"] ;
94 -> 95 ;
96 [label=<X<SUB>25</SUB> &le; 0.5<br/>gini = 0.165<br/>samples = 11<br/>value = [10, 1]>, fillcolor="#e58139e6"] ;
94 -> 96 ;
97 [label=<gini = 0.0<br/>samples = 9<br/>value = [9, 0]>, fillcolor="#e58139ff"] ;
96 -> 97 ;
98 [label=<X<SUB>5</SUB> &le; 0.5<br/>gini = 0.5<br/>samples = 2<br/>value = [1, 1]>, fillcolor="#e5813900"] ;
96 -> 98 ;
99 [label=<gini = 0.0<br/>samples = 1<br/>value = [0, 1]>, fillcolor="#399de5ff"] ;
98 -> 99 ;
100 [label=<gini = 0.0<br/>samples = 1<br/>value = [1, 0]>, fillcolor="#e58139ff"] ;
98 -> 100 ;
101 [label=<X<SUB>6</SUB> &le; 10.5<br/>gini = 0.153<br/>samples = 12<br/>value = [11, 1]>, fillcolor="#e58139e8"] ;
91 -> 101 ;
102 [label=<gini = 0.0<br/>samples = 9<br/>value = [9, 0]>, fillcolor="#e58139ff"] ;
101 -> 102 ;
103 [label=<X<SUB>0</SUB> &le; 26.0<br/>gini = 0.444<br/>samples = 3<br/>value = [2, 1]>, fillcolor="#e581397f"] ;
101 -> 103 ;
104 [label=<gini = 0.0<br/>samples = 1<br/>value = [0, 1]>, fillcolor="#399de5ff"] ;
103 -> 104 ;
105 [label=<gini = 0.0<br/>samples = 2<br/>value = [2, 0]>, fillcolor="#e58139ff"] ;
103 -> 105 ;
106 [label=<X<SUB>10</SUB> &le; 121631.5<br/>gini = 0.18<br/>samples = 10<br/>value = [9, 1]>, fillcolor="#e58139e3"] ;
90 -> 106 ;
107 [label=<X<SUB>1</SUB> &le; 0.5<br/>gini = 0.5<br/>samples = 2<br/>value = [1, 1]>, fillcolor="#e5813900"] ;
106 -> 107 ;
108 [label=<gini = 0.0<br/>samples = 1<br/>value = [0, 1]>, fillcolor="#399de5ff"] ;
107 -> 108 ;
109 [label=<gini = 0.0<br/>samples = 1<br/>value = [1, 0]>, fillcolor="#e58139ff"] ;
107 -> 109 ;
110 [label=<gini = 0.0<br/>samples = 8<br/>value = [8, 0]>, fillcolor="#e58139ff"] ;
106 -> 110 ;
111 [label=<X<SUB>59</SUB> &le; 0.5<br/>gini = 0.19<br/>samples = 47<br/>value = [42, 5]>, fillcolor="#e58139e1"] ;
61 -> 111 ;
112 [label=<X<SUB>8</SUB> &le; 19.5<br/>gini = 0.159<br/>samples = 46<br/>value = [42, 4]>, fillcolor="#e58139e7"] ;
111 -> 112 ;
113 [label=<X<SUB>19</SUB> &le; 0.5<br/>gini = 0.5<br/>samples = 2<br/>value = [1, 1]>, fillcolor="#e5813900"] ;
112 -> 113 ;
114 [label=<gini = 0.0<br/>samples = 1<br/>value = [1, 0]>, fillcolor="#e58139ff"] ;
113 -> 114 ;
115 [label=<gini = 0.0<br/>samples = 1<br/>value = [0, 1]>, fillcolor="#399de5ff"] ;
113 -> 115 ;
116 [label=<X<SUB>10</SUB> &le; 197172.0<br/>gini = 0.127<br/>samples = 44<br/>value = [41, 3]>, fillcolor="#e58139ec"] ;
112 -> 116 ;
117 [label=<gini = 0.0<br/>samples = 16<br/>value = [16, 0]>, fillcolor="#e58139ff"] ;
116 -> 117 ;
118 [label=<X<SUB>10</SUB> &le; 200414.5<br/>gini = 0.191<br/>samples = 28<br/>value = [25, 3]>, fillcolor="#e58139e0"] ;
116 -> 118 ;
119 [label=<gini = 0.0<br/>samples = 1<br/>value = [0, 1]>, fillcolor="#399de5ff"] ;
118 -> 119 ;
120 [label=<X<SUB>18</SUB> &le; 0.5<br/>gini = 0.137<br/>samples = 27<br/>value = [25, 2]>, fillcolor="#e58139eb"] ;
118 -> 120 ;
121 [label=<gini = 0.0<br/>samples = 14<br/>value = [14, 0]>, fillcolor="#e58139ff"] ;
120 -> 121 ;
122 [label=<X<SUB>8</SUB> &le; 30.5<br/>gini = 0.26<br/>samples = 13<br/>value = [11, 2]>, fillcolor="#e58139d1"] ;
120 -> 122 ;
123 [label=<X<SUB>8</SUB> &le; 27.5<br/>gini = 0.346<br/>samples = 9<br/>value = [7, 2]>, fillcolor="#e58139b6"] ;
122 -> 123 ;
124 [label=<X<SUB>10</SUB> &le; 302548.5<br/>gini = 0.219<br/>samples = 8<br/>value = [7, 1]>, fillcolor="#e58139db"] ;
123 -> 124 ;
125 [label=<gini = 0.0<br/>samples = 6<br/>value = [6, 0]>, fillcolor="#e58139ff"] ;
124 -> 125 ;
126 [label=<X<SUB>10</SUB> &le; 319512.5<br/>gini = 0.5<br/>samples = 2<br/>value = [1, 1]>, fillcolor="#e5813900"] ;
124 -> 126 ;
127 [label=<gini = 0.0<br/>samples = 1<br/>value = [0, 1]>, fillcolor="#399de5ff"] ;
126 -> 127 ;
128 [label=<gini = 0.0<br/>samples = 1<br/>value = [1, 0]>, fillcolor="#e58139ff"] ;
126 -> 128 ;
129 [label=<gini = 0.0<br/>samples = 1<br/>value = [0, 1]>, fillcolor="#399de5ff"] ;
123 -> 129 ;
130 [label=<gini = 0.0<br/>samples = 4<br/>value = [4, 0]>, fillcolor="#e58139ff"] ;
122 -> 130 ;
131 [label=<gini = 0.0<br/>samples = 1<br/>value = [0, 1]>, fillcolor="#399de5ff"] ;
111 -> 131 ;
132 [label=<X<SUB>4</SUB> &le; 0.5<br/>gini = 0.26<br/>samples = 39<br/>value = [33, 6]>, fillcolor="#e58139d1"] ;
60 -> 132 ;
133 [label=<gini = 0.0<br/>samples = 1<br/>value = [0, 1]>, fillcolor="#399de5ff"] ;
132 -> 133 ;
134 [label=<X<SUB>10</SUB> &le; 193068.0<br/>gini = 0.229<br/>samples = 38<br/>value = [33, 5]>, fillcolor="#e58139d8"] ;
132 -> 134 ;
135 [label=<X<SUB>10</SUB> &le; 181300.5<br/>gini = 0.391<br/>samples = 15<br/>value = [11, 4]>, fillcolor="#e58139a2"] ;
134 -> 135 ;
136 [label=<X<SUB>2</SUB> &le; 576.5<br/>gini = 0.26<br/>samples = 13<br/>value = [11, 2]>, fillcolor="#e58139d1"] ;
135 -> 136 ;
137 [label=<X<SUB>10</SUB> &le; 62161.0<br/>gini = 0.153<br/>samples = 12<br/>value = [11, 1]>, fillcolor="#e58139e8"] ;
136 -> 137 ;
138 [label=<X<SUB>24</SUB> &le; 0.5<br/>gini = 0.5<br/>samples = 2<br/>value = [1, 1]>, fillcolor="#e5813900"] ;
137 -> 138 ;
139 [label=<gini = 0.0<br/>samples = 1<br/>value = [0, 1]>, fillcolor="#399de5ff"] ;
138 -> 139 ;
140 [label=<gini = 0.0<br/>samples = 1<br/>value = [1, 0]>, fillcolor="#e58139ff"] ;
138 -> 140 ;
141 [label=<gini = 0.0<br/>samples = 10<br/>value = [10, 0]>, fillcolor="#e58139ff"] ;
137 -> 141 ;
142 [label=<gini = 0.0<br/>samples = 1<br/>value = [0, 1]>, fillcolor="#399de5ff"] ;
136 -> 142 ;
143 [label=<gini = 0.0<br/>samples = 2<br/>value = [0, 2]>, fillcolor="#399de5ff"] ;
135 -> 143 ;
144 [label=<X<SUB>10</SUB> &le; 295104.0<br/>gini = 0.083<br/>samples = 23<br/>value = [22, 1]>, fillcolor="#e58139f3"] ;
134 -> 144 ;
145 [label=<gini = 0.0<br/>samples = 15<br/>value = [15, 0]>, fillcolor="#e58139ff"] ;
144 -> 145 ;
146 [label=<X<SUB>10</SUB> &le; 306269.5<br/>gini = 0.219<br/>samples = 8<br/>value = [7, 1]>, fillcolor="#e58139db"] ;
144 -> 146 ;
147 [label=<gini = 0.0<br/>samples = 1<br/>value = [0, 1]>, fillcolor="#399de5ff"] ;
146 -> 147 ;
148 [label=<gini = 0.0<br/>samples = 7<br/>value = [7, 0]>, fillcolor="#e58139ff"] ;
146 -> 148 ;
149 [label=<X<SUB>6</SUB> &le; 5.5<br/>gini = 0.165<br/>samples = 1433<br/>value = [1303, 130]>, fillcolor="#e58139e6"] ;
41 -> 149 ;
150 [label=<X<SUB>10</SUB> &le; 225345.0<br/>gini = 0.363<br/>samples = 21<br/>value = [16, 5]>, fillcolor="#e58139af"] ;
149 -> 150 ;
151 [label=<X<SUB>5</SUB> &le; 0.5<br/>gini = 0.459<br/>samples = 14<br/>value = [9, 5]>, fillcolor="#e5813971"] ;
150 -> 151 ;
152 [label=<X<SUB>8</SUB> &le; 40.5<br/>gini = 0.375<br/>samples = 12<br/>value = [9, 3]>, fillcolor="#e58139aa"] ;
151 -> 152 ;
153 [label=<gini = 0.0<br/>samples = 7<br/>value = [7, 0]>, fillcolor="#e58139ff"] ;
152 -> 153 ;
154 [label=<X<SUB>8</SUB> &le; 45.5<br/>gini = 0.48<br/>samples = 5<br/>value = [2, 3]>, fillcolor="#399de555"] ;
152 -> 154 ;
155 [label=<gini = 0.0<br/>samples = 3<br/>value = [0, 3]>, fillcolor="#399de5ff"] ;
154 -> 155 ;
156 [label=<gini = 0.0<br/>samples = 2<br/>value = [2, 0]>, fillcolor="#e58139ff"] ;
154 -> 156 ;
157 [label=<gini = 0.0<br/>samples = 2<br/>value = [0, 2]>, fillcolor="#399de5ff"] ;
151 -> 157 ;
158 [label=<gini = 0.0<br/>samples = 7<br/>value = [7, 0]>, fillcolor="#e58139ff"] ;
150 -> 158 ;
159 [label=<X<SUB>0</SUB> &le; 39.5<br/>gini = 0.161<br/>samples = 1412<br/>value = [1287, 125]>, fillcolor="#e58139e6"] ;
149 -> 159 ;
160 [label=<X<SUB>10</SUB> &le; 310774.0<br/>gini = 0.32<br/>samples = 25<br/>value = [20, 5]>, fillcolor="#e58139bf"] ;
159 -> 160 ;
161 [label=<X<SUB>8</SUB> &le; 43.5<br/>gini = 0.236<br/>samples = 22<br/>value = [19, 3]>, fillcolor="#e58139d7"] ;
160 -> 161 ;
162 [label=<X<SUB>12</SUB> &le; 0.5<br/>gini = 0.111<br/>samples = 17<br/>value = [16, 1]>, fillcolor="#e58139ef"] ;
161 -> 162 ;
163 [label=<gini = 0.0<br/>samples = 14<br/>value = [14, 0]>, fillcolor="#e58139ff"] ;
162 -> 163 ;
164 [label=<X<SUB>8</SUB> &le; 24.0<br/>gini = 0.444<br/>samples = 3<br/>value = [2, 1]>, fillcolor="#e581397f"] ;
162 -> 164 ;
165 [label=<gini = 0.0<br/>samples = 2<br/>value = [2, 0]>, fillcolor="#e58139ff"] ;
164 -> 165 ;
166 [label=<gini = 0.0<br/>samples = 1<br/>value = [0, 1]>, fillcolor="#399de5ff"] ;
164 -> 166 ;
167 [label=<X<SUB>8</SUB> &le; 45.5<br/>gini = 0.48<br/>samples = 5<br/>value = [3, 2]>, fillcolor="#e5813955"] ;
161 -> 167 ;
168 [label=<X<SUB>30</SUB> &le; 0.5<br/>gini = 0.444<br/>samples = 3<br/>value = [1, 2]>, fillcolor="#399de57f"] ;
167 -> 168 ;
169 [label=<gini = 0.0<br/>samples = 1<br/>value = [1, 0]>, fillcolor="#e58139ff"] ;
168 -> 169 ;
170 [label=<gini = 0.0<br/>samples = 2<br/>value = [0, 2]>, fillcolor="#399de5ff"] ;
168 -> 170 ;
171 [label=<gini = 0.0<br/>samples = 2<br/>value = [2, 0]>, fillcolor="#e58139ff"] ;
167 -> 171 ;
172 [label=<X<SUB>8</SUB> &le; 26.5<br/>gini = 0.444<br/>samples = 3<br/>value = [1, 2]>, fillcolor="#399de57f"] ;
160 -> 172 ;
173 [label=<gini = 0.0<br/>samples = 1<br/>value = [1, 0]>, fillcolor="#e58139ff"] ;
172 -> 173 ;
174 [label=<gini = 0.0<br/>samples = 2<br/>value = [0, 2]>, fillcolor="#399de5ff"] ;
172 -> 174 ;
175 [label=<X<SUB>62</SUB> &le; 0.5<br/>gini = 0.158<br/>samples = 1387<br/>value = [1267, 120]>, fillcolor="#e58139e7"] ;
159 -> 175 ;
176 [label=<X<SUB>10</SUB> &le; 328353.0<br/>gini = 0.162<br/>samples = 1335<br/>value = [1216, 119]>, fillcolor="#e58139e6"] ;
175 -> 176 ;
177 [label=<X<SUB>43</SUB> &le; 0.5<br/>gini = 0.154<br/>samples = 1167<br/>value = [1069, 98]>, fillcolor="#e58139e8"] ;
176 -> 177 ;
178 [label=<X<SUB>2</SUB> &le; 3152.0<br/>gini = 0.147<br/>samples = 1090<br/>value = [1003, 87]>, fillcolor="#e58139e9"] ;
177 -> 178 ;
179 [label=<X<SUB>2</SUB> &le; 458.0<br/>gini = 0.143<br/>samples = 1070<br/>value = [987, 83]>, fillcolor="#e58139ea"] ;
178 -> 179 ;
180 [label=<X<SUB>10</SUB> &le; 318400.0<br/>gini = 0.147<br/>samples = 1039<br/>value = [956, 83]>, fillcolor="#e58139e9"] ;
179 -> 180 ;
181 [label=<X<SUB>10</SUB> &le; 318159.0<br/>gini = 0.15<br/>samples = 1014<br/>value = [931, 83]>, fillcolor="#e58139e8"] ;
180 -> 181 ;
182 [label=<X<SUB>6</SUB> &le; 10.5<br/>gini = 0.149<br/>samples = 1013<br/>value = [931, 82]>, fillcolor="#e58139e9"] ;
181 -> 182 ;
183 [label=<X<SUB>8</SUB> &le; 30.5<br/>gini = 0.131<br/>samples = 651<br/>value = [605, 46]>, fillcolor="#e58139ec"] ;
182 -> 183 ;
184 [label=<X<SUB>8</SUB> &le; 22.5<br/>gini = 0.094<br/>samples = 282<br/>value = [268, 14]>, fillcolor="#e58139f2"] ;
183 -> 184 ;
185 [label=<X<SUB>8</SUB> &le; 20.5<br/>gini = 0.155<br/>samples = 71<br/>value = [65, 6]>, fillcolor="#e58139e7"] ;
184 -> 185 ;
186 [label=<X<SUB>33</SUB> &le; 0.5<br/>gini = 0.067<br/>samples = 29<br/>value = [28, 1]>, fillcolor="#e58139f6"] ;
185 -> 186 ;
187 [label=<gini = 0.0<br/>samples = 22<br/>value = [22, 0]>, fillcolor="#e58139ff"] ;
186 -> 187 ;
188 [label=<X<SUB>10</SUB> &le; 206154.5<br/>gini = 0.245<br/>samples = 7<br/>value = [6, 1]>, fillcolor="#e58139d4"] ;
186 -> 188 ;
189 [label=<gini = 0.0<br/>samples = 4<br/>value = [4, 0]>, fillcolor="#e58139ff"] ;
188 -> 189 ;
190 [label=<X<SUB>10</SUB> &le; 216301.0<br/>gini = 0.444<br/>samples = 3<br/>value = [2, 1]>, fillcolor="#e581397f"] ;
188 -> 190 ;
191 [label=<gini = 0.0<br/>samples = 1<br/>value = [0, 1]>, fillcolor="#399de5ff"] ;
190 -> 191 ;
192 [label=<gini = 0.0<br/>samples = 2<br/>value = [2, 0]>, fillcolor="#e58139ff"] ;
190 -> 192 ;
193 [label=<X<SUB>66</SUB> &le; 0.5<br/>gini = 0.21<br/>samples = 42<br/>value = [37, 5]>, fillcolor="#e58139dd"] ;
185 -> 193 ;
194 [label=<X<SUB>24</SUB> &le; 0.5<br/>gini = 0.153<br/>samples = 36<br/>value = [33, 3]>, fillcolor="#e58139e8"] ;
193 -> 194 ;
195 [label=<X<SUB>49</SUB> &le; 0.5<br/>gini = 0.111<br/>samples = 34<br/>value = [32, 2]>, fillcolor="#e58139ef"] ;
194 -> 195 ;
196 [label=<X<SUB>33</SUB> &le; 0.5<br/>gini = 0.064<br/>samples = 30<br/>value = [29, 1]>, fillcolor="#e58139f6"] ;
195 -> 196 ;
197 [label=<gini = 0.0<br/>samples = 23<br/>value = [23, 0]>, fillcolor="#e58139ff"] ;
196 -> 197 ;
198 [label=<X<SUB>10</SUB> &le; 99275.5<br/>gini = 0.245<br/>samples = 7<br/>value = [6, 1]>, fillcolor="#e58139d4"] ;
196 -> 198 ;
199 [label=<X<SUB>20</SUB> &le; 0.5<br/>gini = 0.444<br/>samples = 3<br/>value = [2, 1]>, fillcolor="#e581397f"] ;
198 -> 199 ;
200 [label=<gini = 0.0<br/>samples = 2<br/>value = [2, 0]>, fillcolor="#e58139ff"] ;
199 -> 200 ;
201 [label=<gini = 0.0<br/>samples = 1<br/>value = [0, 1]>, fillcolor="#399de5ff"] ;
199 -> 201 ;
202 [label=<gini = 0.0<br/>samples = 4<br/>value = [4, 0]>, fillcolor="#e58139ff"] ;
198 -> 202 ;
203 [label=<X<SUB>10</SUB> &le; 213611.0<br/>gini = 0.375<br/>samples = 4<br/>value = [3, 1]>, fillcolor="#e58139aa"] ;
195 -> 203 ;
204 [label=<gini = 0.0<br/>samples = 3<br/>value = [3, 0]>, fillcolor="#e58139ff"] ;
203 -> 204 ;
205 [label=<gini = 0.0<br/>samples = 1<br/>value = [0, 1]>, fillcolor="#399de5ff"] ;
203 -> 205 ;
206 [label=<X<SUB>5</SUB> &le; 0.5<br/>gini = 0.5<br/>samples = 2<br/>value = [1, 1]>, fillcolor="#e5813900"] ;
194 -> 206 ;
207 [label=<gini = 0.0<br/>samples = 1<br/>value = [1, 0]>, fillcolor="#e58139ff"] ;
206 -> 207 ;
208 [label=<gini = 0.0<br/>samples = 1<br/>value = [0, 1]>, fillcolor="#399de5ff"] ;
206 -> 208 ;
209 [label=<X<SUB>17</SUB> &le; 0.5<br/>gini = 0.444<br/>samples = 6<br/>value = [4, 2]>, fillcolor="#e581397f"] ;
193 -> 209 ;
210 [label=<gini = 0.0<br/>samples = 4<br/>value = [4, 0]>, fillcolor="#e58139ff"] ;
209 -> 210 ;
211 [label=<gini = 0.0<br/>samples = 2<br/>value = [0, 2]>, fillcolor="#399de5ff"] ;
209 -> 211 ;
212 [label=<X<SUB>10</SUB> &le; 307206.0<br/>gini = 0.073<br/>samples = 211<br/>value = [203, 8]>, fillcolor="#e58139f5"] ;
184 -> 212 ;
213 [label=<X<SUB>10</SUB> &le; 219658.0<br/>gini = 0.065<br/>samples = 208<br/>value = [201, 7]>, fillcolor="#e58139f6"] ;
212 -> 213 ;
214 [label=<X<SUB>10</SUB> &le; 217665.0<br/>gini = 0.087<br/>samples = 153<br/>value = [146, 7]>, fillcolor="#e58139f3"] ;
213 -> 214 ;
215 [label=<X<SUB>17</SUB> &le; 0.5<br/>gini = 0.076<br/>samples = 151<br/>value = [145, 6]>, fillcolor="#e58139f4"] ;
214 -> 215 ;
216 [label=<X<SUB>14</SUB> &le; 0.5<br/>gini = 0.059<br/>samples = 132<br/>value = [128, 4]>, fillcolor="#e58139f7"] ;
215 -> 216 ;
217 [label=<X<SUB>49</SUB> &le; 0.5<br/>gini = 0.022<br/>samples = 91<br/>value = [90, 1]>, fillcolor="#e58139fc"] ;
216 -> 217 ;
218 [label=<gini = 0.0<br/>samples = 82<br/>value = [82, 0]>, fillcolor="#e58139ff"] ;
217 -> 218 ;
219 [label=<X<SUB>10</SUB> &le; 78528.5<br/>gini = 0.198<br/>samples = 9<br/>value = [8, 1]>, fillcolor="#e58139df"] ;
217 -> 219 ;
220 [label=<gini = 0.0<br/>samples = 1<br/>value = [0, 1]>, fillcolor="#399de5ff"] ;
219 -> 220 ;
221 [label=<gini = 0.0<br/>samples = 8<br/>value = [8, 0]>, fillcolor="#e58139ff"] ;
219 -> 221 ;
222 [label=<X<SUB>0</SUB> &le; 43.5<br/>gini = 0.136<br/>samples = 41<br/>value = [38, 3]>, fillcolor="#e58139eb"] ;
216 -> 222 ;
223 [label=<X<SUB>10</SUB> &le; 135231.0<br/>gini = 0.1<br/>samples = 38<br/>value = [36, 2]>, fillcolor="#e58139f1"] ;
222 -> 223 ;
224 [label=<X<SUB>10</SUB> &le; 131105.5<br/>gini = 0.219<br/>samples = 16<br/>value = [14, 2]>, fillcolor="#e58139db"] ;
223 -> 224 ;
225 [label=<X<SUB>10</SUB> &le; 115862.5<br/>gini = 0.124<br/>samples = 15<br/>value = [14, 1]>, fillcolor="#e58139ed"] ;
224 -> 225 ;
226 [label=<gini = 0.0<br/>samples = 12<br/>value = [12, 0]>, fillcolor="#e58139ff"] ;
225 -> 226 ;
227 [label=<X<SUB>10</SUB> &le; 120218.0<br/>gini = 0.444<br/>samples = 3<br/>value = [2, 1]>, fillcolor="#e581397f"] ;
225 -> 227 ;
228 [label=<gini = 0.0<br/>samples = 1<br/>value = [0, 1]>, fillcolor="#399de5ff"] ;
227 -> 228 ;
229 [label=<gini = 0.0<br/>samples = 2<br/>value = [2, 0]>, fillcolor="#e58139ff"] ;
227 -> 229 ;
230 [label=<gini = 0.0<br/>samples = 1<br/>value = [0, 1]>, fillcolor="#399de5ff"] ;
224 -> 230 ;
231 [label=<gini = 0.0<br/>samples = 22<br/>value = [22, 0]>, fillcolor="#e58139ff"] ;
223 -> 231 ;
232 [label=<X<SUB>6</SUB> &le; 9.0<br/>gini = 0.444<br/>samples = 3<br/>value = [2, 1]>, fillcolor="#e581397f"] ;
222 -> 232 ;
233 [label=<gini = 0.0<br/>samples = 1<br/>value = [0, 1]>, fillcolor="#399de5ff"] ;
232 -> 233 ;
234 [label=<gini = 0.0<br/>samples = 2<br/>value = [2, 0]>, fillcolor="#e58139ff"] ;
232 -> 234 ;
235 [label=<X<SUB>13</SUB> &le; 0.5<br/>gini = 0.188<br/>samples = 19<br/>value = [17, 2]>, fillcolor="#e58139e1"] ;
215 -> 235 ;
236 [label=<X<SUB>33</SUB> &le; 0.5<br/>gini = 0.111<br/>samples = 17<br/>value = [16, 1]>, fillcolor="#e58139ef"] ;
235 -> 236 ;
237 [label=<gini = 0.0<br/>samples = 15<br/>value = [15, 0]>, fillcolor="#e58139ff"] ;
236 -> 237 ;
238 [label=<X<SUB>29</SUB> &le; 0.5<br/>gini = 0.5<br/>samples = 2<br/>value = [1, 1]>, fillcolor="#e5813900"] ;
236 -> 238 ;
239 [label=<gini = 0.0<br/>samples = 1<br/>value = [1, 0]>, fillcolor="#e58139ff"] ;
238 -> 239 ;
240 [label=<gini = 0.0<br/>samples = 1<br/>value = [0, 1]>, fillcolor="#399de5ff"] ;
238 -> 240 ;
241 [label=<X<SUB>25</SUB> &le; 0.5<br/>gini = 0.5<br/>samples = 2<br/>value = [1, 1]>, fillcolor="#e5813900"] ;
235 -> 241 ;
242 [label=<gini = 0.0<br/>samples = 1<br/>value = [1, 0]>, fillcolor="#e58139ff"] ;
241 -> 242 ;
243 [label=<gini = 0.0<br/>samples = 1<br/>value = [0, 1]>, fillcolor="#399de5ff"] ;
241 -> 243 ;
244 [label=<X<SUB>24</SUB> &le; 0.5<br/>gini = 0.5<br/>samples = 2<br/>value = [1, 1]>, fillcolor="#e5813900"] ;
214 -> 244 ;
245 [label=<gini = 0.0<br/>samples = 1<br/>value = [0, 1]>, fillcolor="#399de5ff"] ;
244 -> 245 ;
246 [label=<gini = 0.0<br/>samples = 1<br/>value = [1, 0]>, fillcolor="#e58139ff"] ;
244 -> 246 ;
247 [label=<gini = 0.0<br/>samples = 55<br/>value = [55, 0]>, fillcolor="#e58139ff"] ;
213 -> 247 ;
248 [label=<X<SUB>8</SUB> &le; 28.5<br/>gini = 0.444<br/>samples = 3<br/>value = [2, 1]>, fillcolor="#e581397f"] ;
212 -> 248 ;
249 [label=<gini = 0.0<br/>samples = 2<br/>value = [2, 0]>, fillcolor="#e58139ff"] ;
248 -> 249 ;
250 [label=<gini = 0.0<br/>samples = 1<br/>value = [0, 1]>, fillcolor="#399de5ff"] ;
248 -> 250 ;
251 [label=<X<SUB>8</SUB> &le; 40.5<br/>gini = 0.158<br/>samples = 369<br/>value = [337, 32]>, fillcolor="#e58139e7"] ;
183 -> 251 ;
252 [label=<X<SUB>10</SUB> &le; 309023.0<br/>gini = 0.188<br/>samples = 248<br/>value = [222, 26]>, fillcolor="#e58139e1"] ;
251 -> 252 ;
253 [label=<X<SUB>44</SUB> &le; 0.5<br/>gini = 0.182<br/>samples = 247<br/>value = [222, 25]>, fillcolor="#e58139e2"] ;
252 -> 253 ;
254 [label=<X<SUB>24</SUB> &le; 0.5<br/>gini = 0.172<br/>samples = 242<br/>value = [219, 23]>, fillcolor="#e58139e4"] ;
253 -> 254 ;
255 [label=<X<SUB>8</SUB> &le; 38.5<br/>gini = 0.155<br/>samples = 224<br/>value = [205, 19]>, fillcolor="#e58139e7"] ;
254 -> 255 ;
256 [label=<X<SUB>38</SUB> &le; 0.5<br/>gini = 0.124<br/>samples = 180<br/>value = [168, 12]>, fillcolor="#e58139ed"] ;
255 -> 256 ;
257 [label=<X<SUB>10</SUB> &le; 87340.0<br/>gini = 0.117<br/>samples = 177<br/>value = [166, 11]>, fillcolor="#e58139ee"] ;
256 -> 257 ;
258 [label=<X<SUB>14</SUB> &le; 0.5<br/>gini = 0.238<br/>samples = 29<br/>value = [25, 4]>, fillcolor="#e58139d6"] ;
257 -> 258 ;
259 [label=<X<SUB>0</SUB> &le; 45.0<br/>gini = 0.083<br/>samples = 23<br/>value = [22, 1]>, fillcolor="#e58139f3"] ;
258 -> 259 ;
260 [label=<gini = 0.0<br/>samples = 21<br/>value = [21, 0]>, fillcolor="#e58139ff"] ;
259 -> 260 ;
261 [label=<X<SUB>19</SUB> &le; 0.5<br/>gini = 0.5<br/>samples = 2<br/>value = [1, 1]>, fillcolor="#e5813900"] ;
259 -> 261 ;
262 [label=<gini = 0.0<br/>samples = 1<br/>value = [1, 0]>, fillcolor="#e58139ff"] ;
261 -> 262 ;
263 [label=<gini = 0.0<br/>samples = 1<br/>value = [0, 1]>, fillcolor="#399de5ff"] ;
261 -> 263 ;
264 [label=<X<SUB>8</SUB> &le; 33.5<br/>gini = 0.5<br/>samples = 6<br/>value = [3, 3]>, fillcolor="#e5813900"] ;
258 -> 264 ;
265 [label=<gini = 0.0<br/>samples = 2<br/>value = [2, 0]>, fillcolor="#e58139ff"] ;
264 -> 265 ;
266 [label=<X<SUB>8</SUB> &le; 36.5<br/>gini = 0.375<br/>samples = 4<br/>value = [1, 3]>, fillcolor="#399de5aa"] ;
264 -> 266 ;
267 [label=<gini = 0.0<br/>samples = 3<br/>value = [0, 3]>, fillcolor="#399de5ff"] ;
266 -> 267 ;
268 [label=<gini = 0.0<br/>samples = 1<br/>value = [1, 0]>, fillcolor="#e58139ff"] ;
266 -> 268 ;
269 [label=<X<SUB>10</SUB> &le; 158870.0<br/>gini = 0.09<br/>samples = 148<br/>value = [141, 7]>, fillcolor="#e58139f2"] ;
257 -> 269 ;
270 [label=<gini = 0.0<br/>samples = 49<br/>value = [49, 0]>, fillcolor="#e58139ff"] ;
269 -> 270 ;
271 [label=<X<SUB>10</SUB> &le; 159758.0<br/>gini = 0.131<br/>samples = 99<br/>value = [92, 7]>, fillcolor="#e58139ec"] ;
269 -> 271 ;
272 [label=<gini = 0.0<br/>samples = 2<br/>value = [0, 2]>, fillcolor="#399de5ff"] ;
271 -> 272 ;
273 [label=<X<SUB>27</SUB> &le; 0.5<br/>gini = 0.098<br/>samples = 97<br/>value = [92, 5]>, fillcolor="#e58139f1"] ;
271 -> 273 ;
274 [label=<X<SUB>33</SUB> &le; 0.5<br/>gini = 0.083<br/>samples = 92<br/>value = [88, 4]>, fillcolor="#e58139f3"] ;
273 -> 274 ;
275 [label=<X<SUB>30</SUB> &le; 0.5<br/>gini = 0.053<br/>samples = 74<br/>value = [72, 2]>, fillcolor="#e58139f8"] ;
274 -> 275 ;
276 [label=<X<SUB>8</SUB> &le; 33.5<br/>gini = 0.03<br/>samples = 65<br/>value = [64, 1]>, fillcolor="#e58139fb"] ;
275 -> 276 ;
277 [label=<X<SUB>8</SUB> &le; 32.5<br/>gini = 0.095<br/>samples = 20<br/>value = [19, 1]>, fillcolor="#e58139f2"] ;
276 -> 277 ;
278 [label=<gini = 0.0<br/>samples = 15<br/>value = [15, 0]>, fillcolor="#e58139ff"] ;
277 -> 278 ;
279 [label=<X<SUB>13</SUB> &le; 0.5<br/>gini = 0.32<br/>samples = 5<br/>value = [4, 1]>, fillcolor="#e58139bf"] ;
277 -> 279 ;
280 [label=<X<SUB>5</SUB> &le; 0.5<br/>gini = 0.444<br/>samples = 3<br/>value = [2, 1]>, fillcolor="#e581397f"] ;
279 -> 280 ;
281 [label=<X<SUB>10</SUB> &le; 226774.5<br/>gini = 0.5<br/>samples = 2<br/>value = [1, 1]>, fillcolor="#e5813900"] ;
280 -> 281 ;
282 [label=<gini = 0.0<br/>samples = 1<br/>value = [0, 1]>, fillcolor="#399de5ff"] ;
281 -> 282 ;
283 [label=<gini = 0.0<br/>samples = 1<br/>value = [1, 0]>, fillcolor="#e58139ff"] ;
281 -> 283 ;
284 [label=<gini = 0.0<br/>samples = 1<br/>value = [1, 0]>, fillcolor="#e58139ff"] ;
280 -> 284 ;
285 [label=<gini = 0.0<br/>samples = 2<br/>value = [2, 0]>, fillcolor="#e58139ff"] ;
279 -> 285 ;
286 [label=<gini = 0.0<br/>samples = 45<br/>value = [45, 0]>, fillcolor="#e58139ff"] ;
276 -> 286 ;
287 [label=<X<SUB>10</SUB> &le; 207691.5<br/>gini = 0.198<br/>samples = 9<br/>value = [8, 1]>, fillcolor="#e58139df"] ;
275 -> 287 ;
288 [label=<gini = 0.0<br/>samples = 6<br/>value = [6, 0]>, fillcolor="#e58139ff"] ;
287 -> 288 ;
289 [label=<X<SUB>10</SUB> &le; 213078.5<br/>gini = 0.444<br/>samples = 3<br/>value = [2, 1]>, fillcolor="#e581397f"] ;
287 -> 289 ;
290 [label=<gini = 0.0<br/>samples = 1<br/>value = [0, 1]>, fillcolor="#399de5ff"] ;
289 -> 290 ;
291 [label=<gini = 0.0<br/>samples = 2<br/>value = [2, 0]>, fillcolor="#e58139ff"] ;
289 -> 291 ;
292 [label=<X<SUB>8</SUB> &le; 37.5<br/>gini = 0.198<br/>samples = 18<br/>value = [16, 2]>, fillcolor="#e58139df"] ;
274 -> 292 ;
293 [label=<X<SUB>13</SUB> &le; 0.5<br/>gini = 0.117<br/>samples = 16<br/>value = [15, 1]>, fillcolor="#e58139ee"] ;
292 -> 293 ;
294 [label=<gini = 0.0<br/>samples = 9<br/>value = [9, 0]>, fillcolor="#e58139ff"] ;
293 -> 294 ;
295 [label=<X<SUB>10</SUB> &le; 205438.5<br/>gini = 0.245<br/>samples = 7<br/>value = [6, 1]>, fillcolor="#e58139d4"] ;
293 -> 295 ;
296 [label=<X<SUB>10</SUB> &le; 198332.5<br/>gini = 0.444<br/>samples = 3<br/>value = [2, 1]>, fillcolor="#e581397f"] ;
295 -> 296 ;
297 [label=<gini = 0.0<br/>samples = 2<br/>value = [2, 0]>, fillcolor="#e58139ff"] ;
296 -> 297 ;
298 [label=<gini = 0.0<br/>samples = 1<br/>value = [0, 1]>, fillcolor="#399de5ff"] ;
296 -> 298 ;
299 [label=<gini = 0.0<br/>samples = 4<br/>value = [4, 0]>, fillcolor="#e58139ff"] ;
295 -> 299 ;
300 [label=<X<SUB>19</SUB> &le; 0.5<br/>gini = 0.5<br/>samples = 2<br/>value = [1, 1]>, fillcolor="#e5813900"] ;
292 -> 300 ;
301 [label=<gini = 0.0<br/>samples = 1<br/>value = [0, 1]>, fillcolor="#399de5ff"] ;
300 -> 301 ;
302 [label=<gini = 0.0<br/>samples = 1<br/>value = [1, 0]>, fillcolor="#e58139ff"] ;
300 -> 302 ;
303 [label=<X<SUB>0</SUB> &le; 43.5<br/>gini = 0.32<br/>samples = 5<br/>value = [4, 1]>, fillcolor="#e58139bf"] ;
273 -> 303 ;
304 [label=<gini = 0.0<br/>samples = 4<br/>value = [4, 0]>, fillcolor="#e58139ff"] ;
303 -> 304 ;
305 [label=<gini = 0.0<br/>samples = 1<br/>value = [0, 1]>, fillcolor="#399de5ff"] ;
303 -> 305 ;
306 [label=<X<SUB>13</SUB> &le; 0.5<br/>gini = 0.444<br/>samples = 3<br/>value = [2, 1]>, fillcolor="#e581397f"] ;
256 -> 306 ;
307 [label=<gini = 0.0<br/>samples = 2<br/>value = [2, 0]>, fillcolor="#e58139ff"] ;
306 -> 307 ;
308 [label=<gini = 0.0<br/>samples = 1<br/>value = [0, 1]>, fillcolor="#399de5ff"] ;
306 -> 308 ;
309 [label=<X<SUB>17</SUB> &le; 0.5<br/>gini = 0.268<br/>samples = 44<br/>value = [37, 7]>, fillcolor="#e58139cf"] ;
255 -> 309 ;
310 [label=<X<SUB>10</SUB> &le; 235399.5<br/>gini = 0.24<br/>samples = 43<br/>value = [37, 6]>, fillcolor="#e58139d6"] ;
309 -> 310 ;
311 [label=<X<SUB>30</SUB> &le; 0.5<br/>gini = 0.161<br/>samples = 34<br/>value = [31, 3]>, fillcolor="#e58139e6"] ;
310 -> 311 ;
312 [label=<X<SUB>23</SUB> &le; 0.5<br/>gini = 0.117<br/>samples = 32<br/>value = [30, 2]>, fillcolor="#e58139ee"] ;
311 -> 312 ;
313 [label=<X<SUB>5</SUB> &le; 0.5<br/>gini = 0.069<br/>samples = 28<br/>value = [27, 1]>, fillcolor="#e58139f6"] ;
312 -> 313 ;
314 [label=<gini = 0.0<br/>samples = 22<br/>value = [22, 0]>, fillcolor="#e58139ff"] ;
313 -> 314 ;
315 [label=<X<SUB>10</SUB> &le; 138778.5<br/>gini = 0.278<br/>samples = 6<br/>value = [5, 1]>, fillcolor="#e58139cc"] ;
313 -> 315 ;
316 [label=<X<SUB>20</SUB> &le; 0.5<br/>gini = 0.5<br/>samples = 2<br/>value = [1, 1]>, fillcolor="#e5813900"] ;
315 -> 316 ;
317 [label=<gini = 0.0<br/>samples = 1<br/>value = [0, 1]>, fillcolor="#399de5ff"] ;
316 -> 317 ;
318 [label=<gini = 0.0<br/>samples = 1<br/>value = [1, 0]>, fillcolor="#e58139ff"] ;
316 -> 318 ;
319 [label=<gini = 0.0<br/>samples = 4<br/>value = [4, 0]>, fillcolor="#e58139ff"] ;
315 -> 319 ;
320 [label=<X<SUB>66</SUB> &le; 0.5<br/>gini = 0.375<br/>samples = 4<br/>value = [3, 1]>, fillcolor="#e58139aa"] ;
312 -> 320 ;
321 [label=<gini = 0.0<br/>samples = 3<br/>value = [3, 0]>, fillcolor="#e58139ff"] ;
320 -> 321 ;
322 [label=<gini = 0.0<br/>samples = 1<br/>value = [0, 1]>, fillcolor="#399de5ff"] ;
320 -> 322 ;
323 [label=<X<SUB>0</SUB> &le; 43.5<br/>gini = 0.5<br/>samples = 2<br/>value = [1, 1]>, fillcolor="#e5813900"] ;
311 -> 323 ;
324 [label=<gini = 0.0<br/>samples = 1<br/>value = [0, 1]>, fillcolor="#399de5ff"] ;
323 -> 324 ;
325 [label=<gini = 0.0<br/>samples = 1<br/>value = [1, 0]>, fillcolor="#e58139ff"] ;
323 -> 325 ;
326 [label=<X<SUB>10</SUB> &le; 239206.5<br/>gini = 0.444<br/>samples = 9<br/>value = [6, 3]>, fillcolor="#e581397f"] ;
310 -> 326 ;
327 [label=<gini = 0.0<br/>samples = 1<br/>value = [0, 1]>, fillcolor="#399de5ff"] ;
326 -> 327 ;
328 [label=<X<SUB>29</SUB> &le; 0.5<br/>gini = 0.375<br/>samples = 8<br/>value = [6, 2]>, fillcolor="#e58139aa"] ;
326 -> 328 ;
329 [label=<X<SUB>13</SUB> &le; 0.5<br/>gini = 0.245<br/>samples = 7<br/>value = [6, 1]>, fillcolor="#e58139d4"] ;
328 -> 329 ;
330 [label=<gini = 0.0<br/>samples = 4<br/>value = [4, 0]>, fillcolor="#e58139ff"] ;
329 -> 330 ;
331 [label=<X<SUB>14</SUB> &le; 0.5<br/>gini = 0.444<br/>samples = 3<br/>value = [2, 1]>, fillcolor="#e581397f"] ;
329 -> 331 ;
332 [label=<gini = 0.0<br/>samples = 2<br/>value = [2, 0]>, fillcolor="#e58139ff"] ;
331 -> 332 ;
333 [label=<gini = 0.0<br/>samples = 1<br/>value = [0, 1]>, fillcolor="#399de5ff"] ;
331 -> 333 ;
334 [label=<gini = 0.0<br/>samples = 1<br/>value = [0, 1]>, fillcolor="#399de5ff"] ;
328 -> 334 ;
335 [label=<gini = 0.0<br/>samples = 1<br/>value = [0, 1]>, fillcolor="#399de5ff"] ;
309 -> 335 ;
336 [label=<X<SUB>10</SUB> &le; 91211.5<br/>gini = 0.346<br/>samples = 18<br/>value = [14, 4]>, fillcolor="#e58139b6"] ;
254 -> 336 ;
337 [label=<X<SUB>49</SUB> &le; 0.5<br/>gini = 0.444<br/>samples = 3<br/>value = [1, 2]>, fillcolor="#399de57f"] ;
336 -> 337 ;
338 [label=<gini = 0.0<br/>samples = 2<br/>value = [0, 2]>, fillcolor="#399de5ff"] ;
337 -> 338 ;
339 [label=<gini = 0.0<br/>samples = 1<br/>value = [1, 0]>, fillcolor="#e58139ff"] ;
337 -> 339 ;
340 [label=<X<SUB>29</SUB> &le; 0.5<br/>gini = 0.231<br/>samples = 15<br/>value = [13, 2]>, fillcolor="#e58139d8"] ;
336 -> 340 ;
341 [label=<X<SUB>49</SUB> &le; 0.5<br/>gini = 0.142<br/>samples = 13<br/>value = [12, 1]>, fillcolor="#e58139ea"] ;
340 -> 341 ;
342 [label=<gini = 0.0<br/>samples = 11<br/>value = [11, 0]>, fillcolor="#e58139ff"] ;
341 -> 342 ;
343 [label=<X<SUB>10</SUB> &le; 145056.5<br/>gini = 0.5<br/>samples = 2<br/>value = [1, 1]>, fillcolor="#e5813900"] ;
341 -> 343 ;
344 [label=<gini = 0.0<br/>samples = 1<br/>value = [0, 1]>, fillcolor="#399de5ff"] ;
343 -> 344 ;
345 [label=<gini = 0.0<br/>samples = 1<br/>value = [1, 0]>, fillcolor="#e58139ff"] ;
343 -> 345 ;
346 [label=<X<SUB>13</SUB> &le; 0.5<br/>gini = 0.5<br/>samples = 2<br/>value = [1, 1]>, fillcolor="#e5813900"] ;
340 -> 346 ;
347 [label=<gini = 0.0<br/>samples = 1<br/>value = [0, 1]>, fillcolor="#399de5ff"] ;
346 -> 347 ;
348 [label=<gini = 0.0<br/>samples = 1<br/>value = [1, 0]>, fillcolor="#e58139ff"] ;
346 -> 348 ;
349 [label=<X<SUB>20</SUB> &le; 0.5<br/>gini = 0.48<br/>samples = 5<br/>value = [3, 2]>, fillcolor="#e5813955"] ;
253 -> 349 ;
350 [label=<gini = 0.0<br/>samples = 2<br/>value = [2, 0]>, fillcolor="#e58139ff"] ;
349 -> 350 ;
351 [label=<X<SUB>8</SUB> &le; 37.0<br/>gini = 0.444<br/>samples = 3<br/>value = [1, 2]>, fillcolor="#399de57f"] ;
349 -> 351 ;
352 [label=<gini = 0.0<br/>samples = 1<br/>value = [1, 0]>, fillcolor="#e58139ff"] ;
351 -> 352 ;
353 [label=<gini = 0.0<br/>samples = 2<br/>value = [0, 2]>, fillcolor="#399de5ff"] ;
351 -> 353 ;
354 [label=<gini = 0.0<br/>samples = 1<br/>value = [0, 1]>, fillcolor="#399de5ff"] ;
252 -> 354 ;
355 [label=<X<SUB>34</SUB> &le; 0.5<br/>gini = 0.094<br/>samples = 121<br/>value = [115, 6]>, fillcolor="#e58139f2"] ;
251 -> 355 ;
356 [label=<X<SUB>10</SUB> &le; 179335.0<br/>gini = 0.081<br/>samples = 119<br/>value = [114, 5]>, fillcolor="#e58139f4"] ;
355 -> 356 ;
357 [label=<X<SUB>10</SUB> &le; 176986.5<br/>gini = 0.134<br/>samples = 69<br/>value = [64, 5]>, fillcolor="#e58139eb"] ;
356 -> 357 ;
358 [label=<X<SUB>46</SUB> &le; 0.5<br/>gini = 0.086<br/>samples = 67<br/>value = [64, 3]>, fillcolor="#e58139f3"] ;
357 -> 358 ;
359 [label=<X<SUB>49</SUB> &le; 0.5<br/>gini = 0.062<br/>samples = 62<br/>value = [60, 2]>, fillcolor="#e58139f6"] ;
358 -> 359 ;
360 [label=<X<SUB>33</SUB> &le; 0.5<br/>gini = 0.035<br/>samples = 56<br/>value = [55, 1]>, fillcolor="#e58139fa"] ;
359 -> 360 ;
361 [label=<gini = 0.0<br/>samples = 46<br/>value = [46, 0]>, fillcolor="#e58139ff"] ;
360 -> 361 ;
362 [label=<X<SUB>8</SUB> &le; 45.5<br/>gini = 0.18<br/>samples = 10<br/>value = [9, 1]>, fillcolor="#e58139e3"] ;
360 -> 362 ;
363 [label=<gini = 0.0<br/>samples = 9<br/>value = [9, 0]>, fillcolor="#e58139ff"] ;
362 -> 363 ;
364 [label=<gini = 0.0<br/>samples = 1<br/>value = [0, 1]>, fillcolor="#399de5ff"] ;
362 -> 364 ;
365 [label=<X<SUB>0</SUB> &le; 44.5<br/>gini = 0.278<br/>samples = 6<br/>value = [5, 1]>, fillcolor="#e58139cc"] ;
359 -> 365 ;
366 [label=<gini = 0.0<br/>samples = 4<br/>value = [4, 0]>, fillcolor="#e58139ff"] ;
365 -> 366 ;
367 [label=<X<SUB>10</SUB> &le; 116386.5<br/>gini = 0.5<br/>samples = 2<br/>value = [1, 1]>, fillcolor="#e5813900"] ;
365 -> 367 ;
368 [label=<gini = 0.0<br/>samples = 1<br/>value = [0, 1]>, fillcolor="#399de5ff"] ;
367 -> 368 ;
369 [label=<gini = 0.0<br/>samples = 1<br/>value = [1, 0]>, fillcolor="#e58139ff"] ;
367 -> 369 ;
370 [label=<X<SUB>15</SUB> &le; 0.5<br/>gini = 0.32<br/>samples = 5<br/>value = [4, 1]>, fillcolor="#e58139bf"] ;
358 -> 370 ;
371 [label=<gini = 0.0<br/>samples = 4<br/>value = [4, 0]>, fillcolor="#e58139ff"] ;
370 -> 371 ;
372 [label=<gini = 0.0<br/>samples = 1<br/>value = [0, 1]>, fillcolor="#399de5ff"] ;
370 -> 372 ;
373 [label=<gini = 0.0<br/>samples = 2<br/>value = [0, 2]>, fillcolor="#399de5ff"] ;
357 -> 373 ;
374 [label=<gini = 0.0<br/>samples = 50<br/>value = [50, 0]>, fillcolor="#e58139ff"] ;
356 -> 374 ;
375 [label=<X<SUB>0</SUB> &le; 42.0<br/>gini = 0.5<br/>samples = 2<br/>value = [1, 1]>, fillcolor="#e5813900"] ;
355 -> 375 ;
376 [label=<gini = 0.0<br/>samples = 1<br/>value = [0, 1]>, fillcolor="#399de5ff"] ;
375 -> 376 ;
377 [label=<gini = 0.0<br/>samples = 1<br/>value = [1, 0]>, fillcolor="#e58139ff"] ;
375 -> 377 ;
378 [label=<X<SUB>58</SUB> &le; 0.5<br/>gini = 0.179<br/>samples = 362<br/>value = [326, 36]>, fillcolor="#e58139e3"] ;
182 -> 378 ;
379 [label=<X<SUB>42</SUB> &le; 0.5<br/>gini = 0.168<br/>samples = 356<br/>value = [323, 33]>, fillcolor="#e58139e5"] ;
378 -> 379 ;
380 [label=<X<SUB>8</SUB> &le; 20.5<br/>gini = 0.164<br/>samples = 355<br/>value = [323, 32]>, fillcolor="#e58139e6"] ;
379 -> 380 ;
381 [label=<X<SUB>30</SUB> &le; 0.5<br/>gini = 0.444<br/>samples = 6<br/>value = [4, 2]>, fillcolor="#e581397f"] ;
380 -> 381 ;
382 [label=<X<SUB>10</SUB> &le; 271537.5<br/>gini = 0.32<br/>samples = 5<br/>value = [4, 1]>, fillcolor="#e58139bf"] ;
381 -> 382 ;
383 [label=<gini = 0.0<br/>samples = 4<br/>value = [4, 0]>, fillcolor="#e58139ff"] ;
382 -> 383 ;
384 [label=<gini = 0.0<br/>samples = 1<br/>value = [0, 1]>, fillcolor="#399de5ff"] ;
382 -> 384 ;
385 [label=<gini = 0.0<br/>samples = 1<br/>value = [0, 1]>, fillcolor="#399de5ff"] ;
381 -> 385 ;
386 [label=<X<SUB>29</SUB> &le; 0.5<br/>gini = 0.157<br/>samples = 349<br/>value = [319, 30]>, fillcolor="#e58139e7"] ;
380 -> 386 ;
387 [label=<X<SUB>10</SUB> &le; 102436.5<br/>gini = 0.142<br/>samples = 311<br/>value = [287, 24]>, fillcolor="#e58139ea"] ;
386 -> 387 ;
388 [label=<X<SUB>17</SUB> &le; 0.5<br/>gini = 0.056<br/>samples = 69<br/>value = [67, 2]>, fillcolor="#e58139f7"] ;
387 -> 388 ;
389 [label=<X<SUB>10</SUB> &le; 40460.0<br/>gini = 0.029<br/>samples = 67<br/>value = [66, 1]>, fillcolor="#e58139fb"] ;
388 -> 389 ;
390 [label=<X<SUB>10</SUB> &le; 39304.0<br/>gini = 0.111<br/>samples = 17<br/>value = [16, 1]>, fillcolor="#e58139ef"] ;
389 -> 390 ;
391 [label=<gini = 0.0<br/>samples = 16<br/>value = [16, 0]>, fillcolor="#e58139ff"] ;
390 -> 391 ;
392 [label=<gini = 0.0<br/>samples = 1<br/>value = [0, 1]>, fillcolor="#399de5ff"] ;
390 -> 392 ;
393 [label=<gini = 0.0<br/>samples = 50<br/>value = [50, 0]>, fillcolor="#e58139ff"] ;
389 -> 393 ;
394 [label=<X<SUB>25</SUB> &le; 0.5<br/>gini = 0.5<br/>samples = 2<br/>value = [1, 1]>, fillcolor="#e5813900"] ;
388 -> 394 ;
395 [label=<gini = 0.0<br/>samples = 1<br/>value = [1, 0]>, fillcolor="#e58139ff"] ;
394 -> 395 ;
396 [label=<gini = 0.0<br/>samples = 1<br/>value = [0, 1]>, fillcolor="#399de5ff"] ;
394 -> 396 ;
397 [label=<X<SUB>10</SUB> &le; 107574.5<br/>gini = 0.165<br/>samples = 242<br/>value = [220, 22]>, fillcolor="#e58139e6"] ;
387 -> 397 ;
398 [label=<X<SUB>6</SUB> &le; 12.0<br/>gini = 0.48<br/>samples = 5<br/>value = [2, 3]>, fillcolor="#399de555"] ;
397 -> 398 ;
399 [label=<X<SUB>38</SUB> &le; 0.5<br/>gini = 0.375<br/>samples = 4<br/>value = [1, 3]>, fillcolor="#399de5aa"] ;
398 -> 399 ;
400 [label=<gini = 0.0<br/>samples = 3<br/>value = [0, 3]>, fillcolor="#399de5ff"] ;
399 -> 400 ;
401 [label=<gini = 0.0<br/>samples = 1<br/>value = [1, 0]>, fillcolor="#e58139ff"] ;
399 -> 401 ;
402 [label=<gini = 0.0<br/>samples = 1<br/>value = [1, 0]>, fillcolor="#e58139ff"] ;
398 -> 402 ;
403 [label=<X<SUB>44</SUB> &le; 0.5<br/>gini = 0.147<br/>samples = 237<br/>value = [218, 19]>, fillcolor="#e58139e9"] ;
397 -> 403 ;
404 [label=<X<SUB>0</SUB> &le; 44.5<br/>gini = 0.138<br/>samples = 228<br/>value = [211, 17]>, fillcolor="#e58139ea"] ;
403 -> 404 ;
405 [label=<X<SUB>10</SUB> &le; 184037.0<br/>gini = 0.114<br/>samples = 181<br/>value = [170, 11]>, fillcolor="#e58139ef"] ;
404 -> 405 ;
406 [label=<X<SUB>10</SUB> &le; 181209.5<br/>gini = 0.18<br/>samples = 90<br/>value = [81, 9]>, fillcolor="#e58139e3"] ;
405 -> 406 ;
407 [label=<X<SUB>35</SUB> &le; 0.5<br/>gini = 0.148<br/>samples = 87<br/>value = [80, 7]>, fillcolor="#e58139e9"] ;
406 -> 407 ;
408 [label=<X<SUB>57</SUB> &le; 0.5<br/>gini = 0.13<br/>samples = 86<br/>value = [80, 6]>, fillcolor="#e58139ec"] ;
407 -> 408 ;
409 [label=<X<SUB>46</SUB> &le; 0.5<br/>gini = 0.112<br/>samples = 84<br/>value = [79, 5]>, fillcolor="#e58139ef"] ;
408 -> 409 ;
410 [label=<X<SUB>8</SUB> &le; 34.5<br/>gini = 0.094<br/>samples = 81<br/>value = [77, 4]>, fillcolor="#e58139f2"] ;
409 -> 410 ;
411 [label=<gini = 0.0<br/>samples = 41<br/>value = [41, 0]>, fillcolor="#e58139ff"] ;
410 -> 411 ;
412 [label=<X<SUB>27</SUB> &le; 0.5<br/>gini = 0.18<br/>samples = 40<br/>value = [36, 4]>, fillcolor="#e58139e3"] ;
410 -> 412 ;
413 [label=<X<SUB>49</SUB> &le; 0.5<br/>gini = 0.149<br/>samples = 37<br/>value = [34, 3]>, fillcolor="#e58139e9"] ;
412 -> 413 ;
414 [label=<X<SUB>8</SUB> &le; 45.5<br/>gini = 0.111<br/>samples = 34<br/>value = [32, 2]>, fillcolor="#e58139ef"] ;
413 -> 414 ;
415 [label=<X<SUB>8</SUB> &le; 41.5<br/>gini = 0.064<br/>samples = 30<br/>value = [29, 1]>, fillcolor="#e58139f6"] ;
414 -> 415 ;
416 [label=<gini = 0.0<br/>samples = 19<br/>value = [19, 0]>, fillcolor="#e58139ff"] ;
415 -> 416 ;
417 [label=<X<SUB>8</SUB> &le; 42.5<br/>gini = 0.165<br/>samples = 11<br/>value = [10, 1]>, fillcolor="#e58139e6"] ;
415 -> 417 ;
418 [label=<X<SUB>20</SUB> &le; 0.5<br/>gini = 0.444<br/>samples = 3<br/>value = [2, 1]>, fillcolor="#e581397f"] ;
417 -> 418 ;
419 [label=<X<SUB>10</SUB> &le; 156326.0<br/>gini = 0.5<br/>samples = 2<br/>value = [1, 1]>, fillcolor="#e5813900"] ;
418 -> 419 ;
420 [label=<gini = 0.0<br/>samples = 1<br/>value = [0, 1]>, fillcolor="#399de5ff"] ;
419 -> 420 ;
421 [label=<gini = 0.0<br/>samples = 1<br/>value = [1, 0]>, fillcolor="#e58139ff"] ;
419 -> 421 ;
422 [label=<gini = 0.0<br/>samples = 1<br/>value = [1, 0]>, fillcolor="#e58139ff"] ;
418 -> 422 ;
423 [label=<gini = 0.0<br/>samples = 8<br/>value = [8, 0]>, fillcolor="#e58139ff"] ;
417 -> 423 ;
424 [label=<X<SUB>14</SUB> &le; 0.5<br/>gini = 0.375<br/>samples = 4<br/>value = [3, 1]>, fillcolor="#e58139aa"] ;
414 -> 424 ;
425 [label=<gini = 0.0<br/>samples = 3<br/>value = [3, 0]>, fillcolor="#e58139ff"] ;
424 -> 425 ;
426 [label=<gini = 0.0<br/>samples = 1<br/>value = [0, 1]>, fillcolor="#399de5ff"] ;
424 -> 426 ;
427 [label=<X<SUB>8</SUB> &le; 36.5<br/>gini = 0.444<br/>samples = 3<br/>value = [2, 1]>, fillcolor="#e581397f"] ;
413 -> 427 ;
428 [label=<gini = 0.0<br/>samples = 1<br/>value = [0, 1]>, fillcolor="#399de5ff"] ;
427 -> 428 ;
429 [label=<gini = 0.0<br/>samples = 2<br/>value = [2, 0]>, fillcolor="#e58139ff"] ;
427 -> 429 ;
430 [label=<X<SUB>8</SUB> &le; 36.0<br/>gini = 0.444<br/>samples = 3<br/>value = [2, 1]>, fillcolor="#e581397f"] ;
412 -> 430 ;
431 [label=<gini = 0.0<br/>samples = 1<br/>value = [0, 1]>, fillcolor="#399de5ff"] ;
430 -> 431 ;
432 [label=<gini = 0.0<br/>samples = 2<br/>value = [2, 0]>, fillcolor="#e58139ff"] ;
430 -> 432 ;
433 [label=<X<SUB>4</SUB> &le; 0.5<br/>gini = 0.444<br/>samples = 3<br/>value = [2, 1]>, fillcolor="#e581397f"] ;
409 -> 433 ;
434 [label=<gini = 0.0<br/>samples = 2<br/>value = [2, 0]>, fillcolor="#e58139ff"] ;
433 -> 434 ;
435 [label=<gini = 0.0<br/>samples = 1<br/>value = [0, 1]>, fillcolor="#399de5ff"] ;
433 -> 435 ;
436 [label=<X<SUB>4</SUB> &le; 0.5<br/>gini = 0.5<br/>samples = 2<br/>value = [1, 1]>, fillcolor="#e5813900"] ;
408 -> 436 ;
437 [label=<gini = 0.0<br/>samples = 1<br/>value = [1, 0]>, fillcolor="#e58139ff"] ;
436 -> 437 ;
438 [label=<gini = 0.0<br/>samples = 1<br/>value = [0, 1]>, fillcolor="#399de5ff"] ;
436 -> 438 ;
439 [label=<gini = 0.0<br/>samples = 1<br/>value = [0, 1]>, fillcolor="#399de5ff"] ;
407 -> 439 ;
440 [label=<X<SUB>66</SUB> &le; 0.5<br/>gini = 0.444<br/>samples = 3<br/>value = [1, 2]>, fillcolor="#399de57f"] ;
406 -> 440 ;
441 [label=<gini = 0.0<br/>samples = 2<br/>value = [0, 2]>, fillcolor="#399de5ff"] ;
440 -> 441 ;
442 [label=<gini = 0.0<br/>samples = 1<br/>value = [1, 0]>, fillcolor="#e58139ff"] ;
440 -> 442 ;
443 [label=<X<SUB>34</SUB> &le; 0.5<br/>gini = 0.043<br/>samples = 91<br/>value = [89, 2]>, fillcolor="#e58139f9"] ;
405 -> 443 ;
444 [label=<X<SUB>12</SUB> &le; 0.5<br/>gini = 0.023<br/>samples = 86<br/>value = [85, 1]>, fillcolor="#e58139fc"] ;
443 -> 444 ;
445 [label=<gini = 0.0<br/>samples = 75<br/>value = [75, 0]>, fillcolor="#e58139ff"] ;
444 -> 445 ;
446 [label=<X<SUB>10</SUB> &le; 252162.0<br/>gini = 0.165<br/>samples = 11<br/>value = [10, 1]>, fillcolor="#e58139e6"] ;
444 -> 446 ;
447 [label=<gini = 0.0<br/>samples = 7<br/>value = [7, 0]>, fillcolor="#e58139ff"] ;
446 -> 447 ;
448 [label=<X<SUB>10</SUB> &le; 266521.0<br/>gini = 0.375<br/>samples = 4<br/>value = [3, 1]>, fillcolor="#e58139aa"] ;
446 -> 448 ;
449 [label=<gini = 0.0<br/>samples = 1<br/>value = [0, 1]>, fillcolor="#399de5ff"] ;
448 -> 449 ;
450 [label=<gini = 0.0<br/>samples = 3<br/>value = [3, 0]>, fillcolor="#e58139ff"] ;
448 -> 450 ;
451 [label=<X<SUB>8</SUB> &le; 26.5<br/>gini = 0.32<br/>samples = 5<br/>value = [4, 1]>, fillcolor="#e58139bf"] ;
443 -> 451 ;
452 [label=<gini = 0.0<br/>samples = 1<br/>value = [0, 1]>, fillcolor="#399de5ff"] ;
451 -> 452 ;
453 [label=<gini = 0.0<br/>samples = 4<br/>value = [4, 0]>, fillcolor="#e58139ff"] ;
451 -> 453 ;
454 [label=<X<SUB>8</SUB> &le; 21.5<br/>gini = 0.223<br/>samples = 47<br/>value = [41, 6]>, fillcolor="#e58139da"] ;
404 -> 454 ;
455 [label=<gini = 0.0<br/>samples = 1<br/>value = [0, 1]>, fillcolor="#399de5ff"] ;
454 -> 455 ;
456 [label=<X<SUB>10</SUB> &le; 283183.5<br/>gini = 0.194<br/>samples = 46<br/>value = [41, 5]>, fillcolor="#e58139e0"] ;
454 -> 456 ;
457 [label=<X<SUB>66</SUB> &le; 0.5<br/>gini = 0.133<br/>samples = 42<br/>value = [39, 3]>, fillcolor="#e58139eb"] ;
456 -> 457 ;
458 [label=<X<SUB>0</SUB> &le; 45.5<br/>gini = 0.095<br/>samples = 40<br/>value = [38, 2]>, fillcolor="#e58139f2"] ;
457 -> 458 ;
459 [label=<X<SUB>8</SUB> &le; 25.5<br/>gini = 0.444<br/>samples = 3<br/>value = [2, 1]>, fillcolor="#e581397f"] ;
458 -> 459 ;
460 [label=<gini = 0.0<br/>samples = 1<br/>value = [1, 0]>, fillcolor="#e58139ff"] ;
459 -> 460 ;
461 [label=<X<SUB>10</SUB> &le; 249433.5<br/>gini = 0.5<br/>samples = 2<br/>value = [1, 1]>, fillcolor="#e5813900"] ;
459 -> 461 ;
462 [label=<gini = 0.0<br/>samples = 1<br/>value = [0, 1]>, fillcolor="#399de5ff"] ;
461 -> 462 ;
463 [label=<gini = 0.0<br/>samples = 1<br/>value = [1, 0]>, fillcolor="#e58139ff"] ;
461 -> 463 ;
464 [label=<X<SUB>8</SUB> &le; 24.5<br/>gini = 0.053<br/>samples = 37<br/>value = [36, 1]>, fillcolor="#e58139f8"] ;
458 -> 464 ;
465 [label=<X<SUB>27</SUB> &le; 0.5<br/>gini = 0.375<br/>samples = 4<br/>value = [3, 1]>, fillcolor="#e58139aa"] ;
464 -> 465 ;
466 [label=<gini = 0.0<br/>samples = 3<br/>value = [3, 0]>, fillcolor="#e58139ff"] ;
465 -> 466 ;
467 [label=<gini = 0.0<br/>samples = 1<br/>value = [0, 1]>, fillcolor="#399de5ff"] ;
465 -> 467 ;
468 [label=<gini = 0.0<br/>samples = 33<br/>value = [33, 0]>, fillcolor="#e58139ff"] ;
464 -> 468 ;
469 [label=<X<SUB>10</SUB> &le; 172682.0<br/>gini = 0.5<br/>samples = 2<br/>value = [1, 1]>, fillcolor="#e5813900"] ;
457 -> 469 ;
470 [label=<gini = 0.0<br/>samples = 1<br/>value = [0, 1]>, fillcolor="#399de5ff"] ;
469 -> 470 ;
471 [label=<gini = 0.0<br/>samples = 1<br/>value = [1, 0]>, fillcolor="#e58139ff"] ;
469 -> 471 ;
472 [label=<X<SUB>10</SUB> &le; 293450.0<br/>gini = 0.5<br/>samples = 4<br/>value = [2, 2]>, fillcolor="#e5813900"] ;
456 -> 472 ;
473 [label=<gini = 0.0<br/>samples = 2<br/>value = [0, 2]>, fillcolor="#399de5ff"] ;
472 -> 473 ;
474 [label=<gini = 0.0<br/>samples = 2<br/>value = [2, 0]>, fillcolor="#e58139ff"] ;
472 -> 474 ;
475 [label=<X<SUB>38</SUB> &le; 0.5<br/>gini = 0.346<br/>samples = 9<br/>value = [7, 2]>, fillcolor="#e58139b6"] ;
403 -> 475 ;
476 [label=<X<SUB>20</SUB> &le; 0.5<br/>gini = 0.219<br/>samples = 8<br/>value = [7, 1]>, fillcolor="#e58139db"] ;
475 -> 476 ;
477 [label=<X<SUB>8</SUB> &le; 43.5<br/>gini = 0.5<br/>samples = 2<br/>value = [1, 1]>, fillcolor="#e5813900"] ;
476 -> 477 ;
478 [label=<gini = 0.0<br/>samples = 1<br/>value = [0, 1]>, fillcolor="#399de5ff"] ;
477 -> 478 ;
479 [label=<gini = 0.0<br/>samples = 1<br/>value = [1, 0]>, fillcolor="#e58139ff"] ;
477 -> 479 ;
480 [label=<gini = 0.0<br/>samples = 6<br/>value = [6, 0]>, fillcolor="#e58139ff"] ;
476 -> 480 ;
481 [label=<gini = 0.0<br/>samples = 1<br/>value = [0, 1]>, fillcolor="#399de5ff"] ;
475 -> 481 ;
482 [label=<X<SUB>8</SUB> &le; 45.5<br/>gini = 0.266<br/>samples = 38<br/>value = [32, 6]>, fillcolor="#e58139cf"] ;
386 -> 482 ;
483 [label=<X<SUB>10</SUB> &le; 60656.5<br/>gini = 0.202<br/>samples = 35<br/>value = [31, 4]>, fillcolor="#e58139de"] ;
482 -> 483 ;
484 [label=<X<SUB>66</SUB> &le; 0.5<br/>gini = 0.5<br/>samples = 2<br/>value = [1, 1]>, fillcolor="#e5813900"] ;
483 -> 484 ;
485 [label=<gini = 0.0<br/>samples = 1<br/>value = [1, 0]>, fillcolor="#e58139ff"] ;
484 -> 485 ;
486 [label=<gini = 0.0<br/>samples = 1<br/>value = [0, 1]>, fillcolor="#399de5ff"] ;
484 -> 486 ;
487 [label=<X<SUB>8</SUB> &le; 30.5<br/>gini = 0.165<br/>samples = 33<br/>value = [30, 3]>, fillcolor="#e58139e6"] ;
483 -> 487 ;
488 [label=<X<SUB>8</SUB> &le; 28.5<br/>gini = 0.337<br/>samples = 14<br/>value = [11, 3]>, fillcolor="#e58139b9"] ;
487 -> 488 ;
489 [label=<gini = 0.0<br/>samples = 8<br/>value = [8, 0]>, fillcolor="#e58139ff"] ;
488 -> 489 ;
490 [label=<X<SUB>30</SUB> &le; 0.5<br/>gini = 0.5<br/>samples = 6<br/>value = [3, 3]>, fillcolor="#e5813900"] ;
488 -> 490 ;
491 [label=<X<SUB>66</SUB> &le; 0.5<br/>gini = 0.48<br/>samples = 5<br/>value = [2, 3]>, fillcolor="#399de555"] ;
490 -> 491 ;
492 [label=<X<SUB>10</SUB> &le; 265409.0<br/>gini = 0.375<br/>samples = 4<br/>value = [1, 3]>, fillcolor="#399de5aa"] ;
491 -> 492 ;
493 [label=<gini = 0.0<br/>samples = 3<br/>value = [0, 3]>, fillcolor="#399de5ff"] ;
492 -> 493 ;
494 [label=<gini = 0.0<br/>samples = 1<br/>value = [1, 0]>, fillcolor="#e58139ff"] ;
492 -> 494 ;
495 [label=<gini = 0.0<br/>samples = 1<br/>value = [1, 0]>, fillcolor="#e58139ff"] ;
491 -> 495 ;
496 [label=<gini = 0.0<br/>samples = 1<br/>value = [1, 0]>, fillcolor="#e58139ff"] ;
490 -> 496 ;
497 [label=<gini = 0.0<br/>samples = 19<br/>value = [19, 0]>, fillcolor="#e58139ff"] ;
487 -> 497 ;
498 [label=<X<SUB>12</SUB> &le; 0.5<br/>gini = 0.444<br/>samples = 3<br/>value = [1, 2]>, fillcolor="#399de57f"] ;
482 -> 498 ;
499 [label=<gini = 0.0<br/>samples = 2<br/>value = [0, 2]>, fillcolor="#399de5ff"] ;
498 -> 499 ;
500 [label=<gini = 0.0<br/>samples = 1<br/>value = [1, 0]>, fillcolor="#e58139ff"] ;
498 -> 500 ;
501 [label=<gini = 0.0<br/>samples = 1<br/>value = [0, 1]>, fillcolor="#399de5ff"] ;
379 -> 501 ;
502 [label=<X<SUB>0</SUB> &le; 42.0<br/>gini = 0.5<br/>samples = 6<br/>value = [3, 3]>, fillcolor="#e5813900"] ;
378 -> 502 ;
503 [label=<X<SUB>12</SUB> &le; 0.5<br/>gini = 0.375<br/>samples = 4<br/>value = [3, 1]>, fillcolor="#e58139aa"] ;
502 -> 503 ;
504 [label=<gini = 0.0<br/>samples = 3<br/>value = [3, 0]>, fillcolor="#e58139ff"] ;
503 -> 504 ;
505 [label=<gini = 0.0<br/>samples = 1<br/>value = [0, 1]>, fillcolor="#399de5ff"] ;
503 -> 505 ;
506 [label=<gini = 0.0<br/>samples = 2<br/>value = [0, 2]>, fillcolor="#399de5ff"] ;
502 -> 506 ;
507 [label=<gini = 0.0<br/>samples = 1<br/>value = [0, 1]>, fillcolor="#399de5ff"] ;
181 -> 507 ;
508 [label=<gini = 0.0<br/>samples = 25<br/>value = [25, 0]>, fillcolor="#e58139ff"] ;
180 -> 508 ;
509 [label=<gini = 0.0<br/>samples = 31<br/>value = [31, 0]>, fillcolor="#e58139ff"] ;
179 -> 509 ;
510 [label=<X<SUB>8</SUB> &le; 28.5<br/>gini = 0.32<br/>samples = 20<br/>value = [16, 4]>, fillcolor="#e58139bf"] ;
178 -> 510 ;
511 [label=<X<SUB>1</SUB> &le; 0.5<br/>gini = 0.49<br/>samples = 7<br/>value = [3, 4]>, fillcolor="#399de540"] ;
510 -> 511 ;
512 [label=<gini = 0.0<br/>samples = 3<br/>value = [0, 3]>, fillcolor="#399de5ff"] ;
511 -> 512 ;
513 [label=<X<SUB>30</SUB> &le; 0.5<br/>gini = 0.375<br/>samples = 4<br/>value = [3, 1]>, fillcolor="#e58139aa"] ;
511 -> 513 ;
514 [label=<gini = 0.0<br/>samples = 3<br/>value = [3, 0]>, fillcolor="#e58139ff"] ;
513 -> 514 ;
515 [label=<gini = 0.0<br/>samples = 1<br/>value = [0, 1]>, fillcolor="#399de5ff"] ;
513 -> 515 ;
516 [label=<gini = 0.0<br/>samples = 13<br/>value = [13, 0]>, fillcolor="#e58139ff"] ;
510 -> 516 ;
517 [label=<X<SUB>10</SUB> &le; 41523.5<br/>gini = 0.245<br/>samples = 77<br/>value = [66, 11]>, fillcolor="#e58139d4"] ;
177 -> 517 ;
518 [label=<gini = 0.0<br/>samples = 2<br/>value = [0, 2]>, fillcolor="#399de5ff"] ;
517 -> 518 ;
519 [label=<X<SUB>19</SUB> &le; 0.5<br/>gini = 0.211<br/>samples = 75<br/>value = [66, 9]>, fillcolor="#e58139dc"] ;
517 -> 519 ;
520 [label=<gini = 0.0<br/>samples = 19<br/>value = [19, 0]>, fillcolor="#e58139ff"] ;
519 -> 520 ;
521 [label=<X<SUB>8</SUB> &le; 29.5<br/>gini = 0.27<br/>samples = 56<br/>value = [47, 9]>, fillcolor="#e58139ce"] ;
519 -> 521 ;
522 [label=<X<SUB>10</SUB> &le; 203942.0<br/>gini = 0.426<br/>samples = 13<br/>value = [9, 4]>, fillcolor="#e581398e"] ;
521 -> 522 ;
523 [label=<X<SUB>6</SUB> &le; 7.0<br/>gini = 0.219<br/>samples = 8<br/>value = [7, 1]>, fillcolor="#e58139db"] ;
522 -> 523 ;
524 [label=<gini = 0.0<br/>samples = 1<br/>value = [0, 1]>, fillcolor="#399de5ff"] ;
523 -> 524 ;
525 [label=<gini = 0.0<br/>samples = 7<br/>value = [7, 0]>, fillcolor="#e58139ff"] ;
523 -> 525 ;
526 [label=<X<SUB>8</SUB> &le; 27.5<br/>gini = 0.48<br/>samples = 5<br/>value = [2, 3]>, fillcolor="#399de555"] ;
522 -> 526 ;
527 [label=<X<SUB>25</SUB> &le; 0.5<br/>gini = 0.444<br/>samples = 3<br/>value = [2, 1]>, fillcolor="#e581397f"] ;
526 -> 527 ;
528 [label=<gini = 0.0<br/>samples = 2<br/>value = [2, 0]>, fillcolor="#e58139ff"] ;
527 -> 528 ;
529 [label=<gini = 0.0<br/>samples = 1<br/>value = [0, 1]>, fillcolor="#399de5ff"] ;
527 -> 529 ;
530 [label=<gini = 0.0<br/>samples = 2<br/>value = [0, 2]>, fillcolor="#399de5ff"] ;
526 -> 530 ;
531 [label=<X<SUB>23</SUB> &le; 0.5<br/>gini = 0.206<br/>samples = 43<br/>value = [38, 5]>, fillcolor="#e58139dd"] ;
521 -> 531 ;
532 [label=<X<SUB>10</SUB> &le; 231426.5<br/>gini = 0.176<br/>samples = 41<br/>value = [37, 4]>, fillcolor="#e58139e3"] ;
531 -> 532 ;
533 [label=<X<SUB>10</SUB> &le; 225064.5<br/>gini = 0.26<br/>samples = 26<br/>value = [22, 4]>, fillcolor="#e58139d1"] ;
532 -> 533 ;
534 [label=<X<SUB>49</SUB> &le; 0.5<br/>gini = 0.211<br/>samples = 25<br/>value = [22, 3]>, fillcolor="#e58139dc"] ;
533 -> 534 ;
535 [label=<X<SUB>10</SUB> &le; 175665.5<br/>gini = 0.159<br/>samples = 23<br/>value = [21, 2]>, fillcolor="#e58139e7"] ;
534 -> 535 ;
536 [label=<gini = 0.0<br/>samples = 13<br/>value = [13, 0]>, fillcolor="#e58139ff"] ;
535 -> 536 ;
537 [label=<X<SUB>10</SUB> &le; 182259.0<br/>gini = 0.32<br/>samples = 10<br/>value = [8, 2]>, fillcolor="#e58139bf"] ;
535 -> 537 ;
538 [label=<X<SUB>29</SUB> &le; 0.5<br/>gini = 0.444<br/>samples = 3<br/>value = [1, 2]>, fillcolor="#399de57f"] ;
537 -> 538 ;
539 [label=<gini = 0.0<br/>samples = 2<br/>value = [0, 2]>, fillcolor="#399de5ff"] ;
538 -> 539 ;
540 [label=<gini = 0.0<br/>samples = 1<br/>value = [1, 0]>, fillcolor="#e58139ff"] ;
538 -> 540 ;
541 [label=<gini = 0.0<br/>samples = 7<br/>value = [7, 0]>, fillcolor="#e58139ff"] ;
537 -> 541 ;
542 [label=<X<SUB>18</SUB> &le; 0.5<br/>gini = 0.5<br/>samples = 2<br/>value = [1, 1]>, fillcolor="#e5813900"] ;
534 -> 542 ;
543 [label=<gini = 0.0<br/>samples = 1<br/>value = [1, 0]>, fillcolor="#e58139ff"] ;
542 -> 543 ;
544 [label=<gini = 0.0<br/>samples = 1<br/>value = [0, 1]>, fillcolor="#399de5ff"] ;
542 -> 544 ;
545 [label=<gini = 0.0<br/>samples = 1<br/>value = [0, 1]>, fillcolor="#399de5ff"] ;
533 -> 545 ;
546 [label=<gini = 0.0<br/>samples = 15<br/>value = [15, 0]>, fillcolor="#e58139ff"] ;
532 -> 546 ;
547 [label=<X<SUB>33</SUB> &le; 0.5<br/>gini = 0.5<br/>samples = 2<br/>value = [1, 1]>, fillcolor="#e5813900"] ;
531 -> 547 ;
548 [label=<gini = 0.0<br/>samples = 1<br/>value = [1, 0]>, fillcolor="#e58139ff"] ;
547 -> 548 ;
549 [label=<gini = 0.0<br/>samples = 1<br/>value = [0, 1]>, fillcolor="#399de5ff"] ;
547 -> 549 ;
550 [label=<X<SUB>10</SUB> &le; 329640.0<br/>gini = 0.219<br/>samples = 168<br/>value = [147, 21]>, fillcolor="#e58139db"] ;
176 -> 550 ;
551 [label=<gini = 0.0<br/>samples = 2<br/>value = [0, 2]>, fillcolor="#399de5ff"] ;
550 -> 551 ;
552 [label=<X<SUB>9</SUB> &le; 1991.5<br/>gini = 0.203<br/>samples = 166<br/>value = [147, 19]>, fillcolor="#e58139de"] ;
550 -> 552 ;
553 [label=<X<SUB>8</SUB> &le; 26.5<br/>gini = 0.194<br/>samples = 165<br/>value = [147, 18]>, fillcolor="#e58139e0"] ;
552 -> 553 ;
554 [label=<X<SUB>49</SUB> &le; 0.5<br/>gini = 0.334<br/>samples = 33<br/>value = [26, 7]>, fillcolor="#e58139ba"] ;
553 -> 554 ;
555 [label=<X<SUB>10</SUB> &le; 352437.0<br/>gini = 0.305<br/>samples = 32<br/>value = [26, 6]>, fillcolor="#e58139c4"] ;
554 -> 555 ;
556 [label=<X<SUB>30</SUB> &le; 0.5<br/>gini = 0.463<br/>samples = 11<br/>value = [7, 4]>, fillcolor="#e581396d"] ;
555 -> 556 ;
557 [label=<X<SUB>9</SUB> &le; 860.5<br/>gini = 0.5<br/>samples = 8<br/>value = [4, 4]>, fillcolor="#e5813900"] ;
556 -> 557 ;
558 [label=<X<SUB>17</SUB> &le; 0.5<br/>gini = 0.49<br/>samples = 7<br/>value = [3, 4]>, fillcolor="#399de540"] ;
557 -> 558 ;
559 [label=<X<SUB>66</SUB> &le; 0.5<br/>gini = 0.444<br/>samples = 6<br/>value = [2, 4]>, fillcolor="#399de57f"] ;
558 -> 559 ;
560 [label=<X<SUB>10</SUB> &le; 331846.0<br/>gini = 0.32<br/>samples = 5<br/>value = [1, 4]>, fillcolor="#399de5bf"] ;
559 -> 560 ;
561 [label=<gini = 0.0<br/>samples = 1<br/>value = [1, 0]>, fillcolor="#e58139ff"] ;
560 -> 561 ;
562 [label=<gini = 0.0<br/>samples = 4<br/>value = [0, 4]>, fillcolor="#399de5ff"] ;
560 -> 562 ;
563 [label=<gini = 0.0<br/>samples = 1<br/>value = [1, 0]>, fillcolor="#e58139ff"] ;
559 -> 563 ;
564 [label=<gini = 0.0<br/>samples = 1<br/>value = [1, 0]>, fillcolor="#e58139ff"] ;
558 -> 564 ;
565 [label=<gini = 0.0<br/>samples = 1<br/>value = [1, 0]>, fillcolor="#e58139ff"] ;
557 -> 565 ;
566 [label=<gini = 0.0<br/>samples = 3<br/>value = [3, 0]>, fillcolor="#e58139ff"] ;
556 -> 566 ;
567 [label=<X<SUB>8</SUB> &le; 25.5<br/>gini = 0.172<br/>samples = 21<br/>value = [19, 2]>, fillcolor="#e58139e4"] ;
555 -> 567 ;
568 [label=<X<SUB>17</SUB> &le; 0.5<br/>gini = 0.1<br/>samples = 19<br/>value = [18, 1]>, fillcolor="#e58139f1"] ;
567 -> 568 ;
569 [label=<gini = 0.0<br/>samples = 16<br/>value = [16, 0]>, fillcolor="#e58139ff"] ;
568 -> 569 ;
570 [label=<X<SUB>10</SUB> &le; 411769.5<br/>gini = 0.444<br/>samples = 3<br/>value = [2, 1]>, fillcolor="#e581397f"] ;
568 -> 570 ;
571 [label=<gini = 0.0<br/>samples = 1<br/>value = [0, 1]>, fillcolor="#399de5ff"] ;
570 -> 571 ;
572 [label=<gini = 0.0<br/>samples = 2<br/>value = [2, 0]>, fillcolor="#e58139ff"] ;
570 -> 572 ;
573 [label=<X<SUB>18</SUB> &le; 0.5<br/>gini = 0.5<br/>samples = 2<br/>value = [1, 1]>, fillcolor="#e5813900"] ;
567 -> 573 ;
574 [label=<gini = 0.0<br/>samples = 1<br/>value = [1, 0]>, fillcolor="#e58139ff"] ;
573 -> 574 ;
575 [label=<gini = 0.0<br/>samples = 1<br/>value = [0, 1]>, fillcolor="#399de5ff"] ;
573 -> 575 ;
576 [label=<gini = 0.0<br/>samples = 1<br/>value = [0, 1]>, fillcolor="#399de5ff"] ;
554 -> 576 ;
577 [label=<X<SUB>8</SUB> &le; 43.5<br/>gini = 0.153<br/>samples = 132<br/>value = [121, 11]>, fillcolor="#e58139e8"] ;
553 -> 577 ;
578 [label=<X<SUB>9</SUB> &le; 1564.5<br/>gini = 0.123<br/>samples = 122<br/>value = [114, 8]>, fillcolor="#e58139ed"] ;
577 -> 578 ;
579 [label=<X<SUB>15</SUB> &le; 0.5<br/>gini = 0.11<br/>samples = 120<br/>value = [113, 7]>, fillcolor="#e58139ef"] ;
578 -> 579 ;
580 [label=<X<SUB>13</SUB> &le; 0.5<br/>gini = 0.085<br/>samples = 113<br/>value = [108, 5]>, fillcolor="#e58139f3"] ;
579 -> 580 ;
581 [label=<X<SUB>14</SUB> &le; 0.5<br/>gini = 0.024<br/>samples = 82<br/>value = [81, 1]>, fillcolor="#e58139fc"] ;
580 -> 581 ;
582 [label=<gini = 0.0<br/>samples = 59<br/>value = [59, 0]>, fillcolor="#e58139ff"] ;
581 -> 582 ;
583 [label=<X<SUB>10</SUB> &le; 357329.5<br/>gini = 0.083<br/>samples = 23<br/>value = [22, 1]>, fillcolor="#e58139f3"] ;
581 -> 583 ;
584 [label=<X<SUB>10</SUB> &le; 347246.0<br/>gini = 0.198<br/>samples = 9<br/>value = [8, 1]>, fillcolor="#e58139df"] ;
583 -> 584 ;
585 [label=<gini = 0.0<br/>samples = 8<br/>value = [8, 0]>, fillcolor="#e58139ff"] ;
584 -> 585 ;
586 [label=<gini = 0.0<br/>samples = 1<br/>value = [0, 1]>, fillcolor="#399de5ff"] ;
584 -> 586 ;
587 [label=<gini = 0.0<br/>samples = 14<br/>value = [14, 0]>, fillcolor="#e58139ff"] ;
583 -> 587 ;
588 [label=<X<SUB>27</SUB> &le; 0.5<br/>gini = 0.225<br/>samples = 31<br/>value = [27, 4]>, fillcolor="#e58139d9"] ;
580 -> 588 ;
589 [label=<X<SUB>12</SUB> &le; 0.5<br/>gini = 0.18<br/>samples = 30<br/>value = [27, 3]>, fillcolor="#e58139e3"] ;
588 -> 589 ;
590 [label=<X<SUB>10</SUB> &le; 339679.0<br/>gini = 0.133<br/>samples = 28<br/>value = [26, 2]>, fillcolor="#e58139eb"] ;
589 -> 590 ;
591 [label=<X<SUB>29</SUB> &le; 0.5<br/>gini = 0.444<br/>samples = 3<br/>value = [2, 1]>, fillcolor="#e581397f"] ;
590 -> 591 ;
592 [label=<gini = 0.0<br/>samples = 2<br/>value = [2, 0]>, fillcolor="#e58139ff"] ;
591 -> 592 ;
593 [label=<gini = 0.0<br/>samples = 1<br/>value = [0, 1]>, fillcolor="#399de5ff"] ;
591 -> 593 ;
594 [label=<X<SUB>30</SUB> &le; 0.5<br/>gini = 0.077<br/>samples = 25<br/>value = [24, 1]>, fillcolor="#e58139f4"] ;
590 -> 594 ;
595 [label=<gini = 0.0<br/>samples = 21<br/>value = [21, 0]>, fillcolor="#e58139ff"] ;
594 -> 595 ;
596 [label=<X<SUB>10</SUB> &le; 459413.5<br/>gini = 0.375<br/>samples = 4<br/>value = [3, 1]>, fillcolor="#e58139aa"] ;
594 -> 596 ;
597 [label=<gini = 0.0<br/>samples = 3<br/>value = [3, 0]>, fillcolor="#e58139ff"] ;
596 -> 597 ;
598 [label=<gini = 0.0<br/>samples = 1<br/>value = [0, 1]>, fillcolor="#399de5ff"] ;
596 -> 598 ;
599 [label=<X<SUB>10</SUB> &le; 382105.5<br/>gini = 0.5<br/>samples = 2<br/>value = [1, 1]>, fillcolor="#e5813900"] ;
589 -> 599 ;
600 [label=<gini = 0.0<br/>samples = 1<br/>value = [1, 0]>, fillcolor="#e58139ff"] ;
599 -> 600 ;
601 [label=<gini = 0.0<br/>samples = 1<br/>value = [0, 1]>, fillcolor="#399de5ff"] ;
599 -> 601 ;
602 [label=<gini = 0.0<br/>samples = 1<br/>value = [0, 1]>, fillcolor="#399de5ff"] ;
588 -> 602 ;
603 [label=<X<SUB>10</SUB> &le; 382713.5<br/>gini = 0.408<br/>samples = 7<br/>value = [5, 2]>, fillcolor="#e5813999"] ;
579 -> 603 ;
604 [label=<gini = 0.0<br/>samples = 5<br/>value = [5, 0]>, fillcolor="#e58139ff"] ;
603 -> 604 ;
605 [label=<gini = 0.0<br/>samples = 2<br/>value = [0, 2]>, fillcolor="#399de5ff"] ;
603 -> 605 ;
606 [label=<X<SUB>10</SUB> &le; 434415.0<br/>gini = 0.5<br/>samples = 2<br/>value = [1, 1]>, fillcolor="#e5813900"] ;
578 -> 606 ;
607 [label=<gini = 0.0<br/>samples = 1<br/>value = [0, 1]>, fillcolor="#399de5ff"] ;
606 -> 607 ;
608 [label=<gini = 0.0<br/>samples = 1<br/>value = [1, 0]>, fillcolor="#e58139ff"] ;
606 -> 608 ;
609 [label=<X<SUB>10</SUB> &le; 359197.5<br/>gini = 0.42<br/>samples = 10<br/>value = [7, 3]>, fillcolor="#e5813992"] ;
577 -> 609 ;
610 [label=<X<SUB>6</SUB> &le; 10.5<br/>gini = 0.5<br/>samples = 6<br/>value = [3, 3]>, fillcolor="#e5813900"] ;
609 -> 610 ;
611 [label=<gini = 0.0<br/>samples = 3<br/>value = [3, 0]>, fillcolor="#e58139ff"] ;
610 -> 611 ;
612 [label=<gini = 0.0<br/>samples = 3<br/>value = [0, 3]>, fillcolor="#399de5ff"] ;
610 -> 612 ;
613 [label=<gini = 0.0<br/>samples = 4<br/>value = [4, 0]>, fillcolor="#e58139ff"] ;
609 -> 613 ;
614 [label=<gini = 0.0<br/>samples = 1<br/>value = [0, 1]>, fillcolor="#399de5ff"] ;
552 -> 614 ;
615 [label=<X<SUB>5</SUB> &le; 0.5<br/>gini = 0.038<br/>samples = 52<br/>value = [51, 1]>, fillcolor="#e58139fa"] ;
175 -> 615 ;
616 [label=<gini = 0.0<br/>samples = 44<br/>value = [44, 0]>, fillcolor="#e58139ff"] ;
615 -> 616 ;
617 [label=<X<SUB>8</SUB> &le; 24.5<br/>gini = 0.219<br/>samples = 8<br/>value = [7, 1]>, fillcolor="#e58139db"] ;
615 -> 617 ;
618 [label=<gini = 0.0<br/>samples = 1<br/>value = [0, 1]>, fillcolor="#399de5ff"] ;
617 -> 618 ;
619 [label=<gini = 0.0<br/>samples = 7<br/>value = [7, 0]>, fillcolor="#e58139ff"] ;
617 -> 619 ;
620 [label=<X<SUB>4</SUB> &le; 0.5<br/>gini = 0.5<br/>samples = 2<br/>value = [1, 1]>, fillcolor="#e5813900"] ;
14 -> 620 ;
621 [label=<gini = 0.0<br/>samples = 1<br/>value = [0, 1]>, fillcolor="#399de5ff"] ;
620 -> 621 ;
622 [label=<gini = 0.0<br/>samples = 1<br/>value = [1, 0]>, fillcolor="#e58139ff"] ;
620 -> 622 ;
623 [label=<X<SUB>13</SUB> &le; 0.5<br/>gini = 0.444<br/>samples = 6<br/>value = [4, 2]>, fillcolor="#e581397f"] ;
13 -> 623 ;
624 [label=<gini = 0.0<br/>samples = 4<br/>value = [4, 0]>, fillcolor="#e58139ff"] ;
623 -> 624 ;
625 [label=<gini = 0.0<br/>samples = 2<br/>value = [0, 2]>, fillcolor="#399de5ff"] ;
623 -> 625 ;
626 [label=<X<SUB>10</SUB> &le; 102626.5<br/>gini = 0.245<br/>samples = 112<br/>value = [96, 16]>, fillcolor="#e58139d4"] ;
12 -> 626 ;
627 [label=<gini = 0.0<br/>samples = 2<br/>value = [0, 2]>, fillcolor="#399de5ff"] ;
626 -> 627 ;
628 [label=<X<SUB>10</SUB> &le; 212477.5<br/>gini = 0.222<br/>samples = 110<br/>value = [96, 14]>, fillcolor="#e58139da"] ;
626 -> 628 ;
629 [label=<gini = 0.0<br/>samples = 19<br/>value = [19, 0]>, fillcolor="#e58139ff"] ;
628 -> 629 ;
630 [label=<X<SUB>10</SUB> &le; 225263.5<br/>gini = 0.26<br/>samples = 91<br/>value = [77, 14]>, fillcolor="#e58139d1"] ;
628 -> 630 ;
631 [label=<X<SUB>3</SUB> &le; 0.5<br/>gini = 0.5<br/>samples = 6<br/>value = [3, 3]>, fillcolor="#e5813900"] ;
630 -> 631 ;
632 [label=<gini = 0.0<br/>samples = 1<br/>value = [1, 0]>, fillcolor="#e58139ff"] ;
631 -> 632 ;
633 [label=<X<SUB>17</SUB> &le; 0.5<br/>gini = 0.48<br/>samples = 5<br/>value = [2, 3]>, fillcolor="#399de555"] ;
631 -> 633 ;
634 [label=<gini = 0.0<br/>samples = 2<br/>value = [0, 2]>, fillcolor="#399de5ff"] ;
633 -> 634 ;
635 [label=<X<SUB>1</SUB> &le; 0.5<br/>gini = 0.444<br/>samples = 3<br/>value = [2, 1]>, fillcolor="#e581397f"] ;
633 -> 635 ;
636 [label=<gini = 0.0<br/>samples = 2<br/>value = [2, 0]>, fillcolor="#e58139ff"] ;
635 -> 636 ;
637 [label=<gini = 0.0<br/>samples = 1<br/>value = [0, 1]>, fillcolor="#399de5ff"] ;
635 -> 637 ;
638 [label=<X<SUB>54</SUB> &le; 0.5<br/>gini = 0.225<br/>samples = 85<br/>value = [74, 11]>, fillcolor="#e58139d9"] ;
630 -> 638 ;
639 [label=<X<SUB>59</SUB> &le; 0.5<br/>gini = 0.195<br/>samples = 82<br/>value = [73, 9]>, fillcolor="#e58139e0"] ;
638 -> 639 ;
640 [label=<X<SUB>25</SUB> &le; 0.5<br/>gini = 0.163<br/>samples = 78<br/>value = [71, 7]>, fillcolor="#e58139e6"] ;
639 -> 640 ;
641 [label=<X<SUB>66</SUB> &le; 0.5<br/>gini = 0.119<br/>samples = 63<br/>value = [59, 4]>, fillcolor="#e58139ee"] ;
640 -> 641 ;
642 [label=<X<SUB>30</SUB> &le; 0.5<br/>gini = 0.042<br/>samples = 47<br/>value = [46, 1]>, fillcolor="#e58139f9"] ;
641 -> 642 ;
643 [label=<gini = 0.0<br/>samples = 42<br/>value = [42, 0]>, fillcolor="#e58139ff"] ;
642 -> 643 ;
644 [label=<X<SUB>10</SUB> &le; 325021.0<br/>gini = 0.32<br/>samples = 5<br/>value = [4, 1]>, fillcolor="#e58139bf"] ;
642 -> 644 ;
645 [label=<gini = 0.0<br/>samples = 4<br/>value = [4, 0]>, fillcolor="#e58139ff"] ;
644 -> 645 ;
646 [label=<gini = 0.0<br/>samples = 1<br/>value = [0, 1]>, fillcolor="#399de5ff"] ;
644 -> 646 ;
647 [label=<X<SUB>8</SUB> &le; 30.5<br/>gini = 0.305<br/>samples = 16<br/>value = [13, 3]>, fillcolor="#e58139c4"] ;
641 -> 647 ;
648 [label=<X<SUB>6</SUB> &le; 4.5<br/>gini = 0.245<br/>samples = 14<br/>value = [12, 2]>, fillcolor="#e58139d4"] ;
647 -> 648 ;
649 [label=<X<SUB>5</SUB> &le; 0.5<br/>gini = 0.444<br/>samples = 6<br/>value = [4, 2]>, fillcolor="#e581397f"] ;
648 -> 649 ;
650 [label=<X<SUB>17</SUB> &le; 0.5<br/>gini = 0.32<br/>samples = 5<br/>value = [4, 1]>, fillcolor="#e58139bf"] ;
649 -> 650 ;
651 [label=<gini = 0.0<br/>samples = 2<br/>value = [2, 0]>, fillcolor="#e58139ff"] ;
650 -> 651 ;
652 [label=<X<SUB>20</SUB> &le; 0.5<br/>gini = 0.444<br/>samples = 3<br/>value = [2, 1]>, fillcolor="#e581397f"] ;
650 -> 652 ;
653 [label=<gini = 0.0<br/>samples = 1<br/>value = [1, 0]>, fillcolor="#e58139ff"] ;
652 -> 653 ;
654 [label=<X<SUB>8</SUB> &le; 22.0<br/>gini = 0.5<br/>samples = 2<br/>value = [1, 1]>, fillcolor="#e5813900"] ;
652 -> 654 ;
655 [label=<gini = 0.0<br/>samples = 1<br/>value = [1, 0]>, fillcolor="#e58139ff"] ;
654 -> 655 ;
656 [label=<gini = 0.0<br/>samples = 1<br/>value = [0, 1]>, fillcolor="#399de5ff"] ;
654 -> 656 ;
657 [label=<gini = 0.0<br/>samples = 1<br/>value = [0, 1]>, fillcolor="#399de5ff"] ;
649 -> 657 ;
658 [label=<gini = 0.0<br/>samples = 8<br/>value = [8, 0]>, fillcolor="#e58139ff"] ;
648 -> 658 ;
659 [label=<X<SUB>6</SUB> &le; 7.0<br/>gini = 0.5<br/>samples = 2<br/>value = [1, 1]>, fillcolor="#e5813900"] ;
647 -> 659 ;
660 [label=<gini = 0.0<br/>samples = 1<br/>value = [1, 0]>, fillcolor="#e58139ff"] ;
659 -> 660 ;
661 [label=<gini = 0.0<br/>samples = 1<br/>value = [0, 1]>, fillcolor="#399de5ff"] ;
659 -> 661 ;
662 [label=<X<SUB>13</SUB> &le; 0.5<br/>gini = 0.32<br/>samples = 15<br/>value = [12, 3]>, fillcolor="#e58139bf"] ;
640 -> 662 ;
663 [label=<X<SUB>6</SUB> &le; 6.0<br/>gini = 0.245<br/>samples = 14<br/>value = [12, 2]>, fillcolor="#e58139d4"] ;
662 -> 663 ;
664 [label=<X<SUB>8</SUB> &le; 29.0<br/>gini = 0.48<br/>samples = 5<br/>value = [3, 2]>, fillcolor="#e5813955"] ;
663 -> 664 ;
665 [label=<gini = 0.0<br/>samples = 2<br/>value = [0, 2]>, fillcolor="#399de5ff"] ;
664 -> 665 ;
666 [label=<gini = 0.0<br/>samples = 3<br/>value = [3, 0]>, fillcolor="#e58139ff"] ;
664 -> 666 ;
667 [label=<gini = 0.0<br/>samples = 9<br/>value = [9, 0]>, fillcolor="#e58139ff"] ;
663 -> 667 ;
668 [label=<gini = 0.0<br/>samples = 1<br/>value = [0, 1]>, fillcolor="#399de5ff"] ;
662 -> 668 ;
669 [label=<X<SUB>8</SUB> &le; 31.0<br/>gini = 0.5<br/>samples = 4<br/>value = [2, 2]>, fillcolor="#e5813900"] ;
639 -> 669 ;
670 [label=<gini = 0.0<br/>samples = 2<br/>value = [2, 0]>, fillcolor="#e58139ff"] ;
669 -> 670 ;
671 [label=<gini = 0.0<br/>samples = 2<br/>value = [0, 2]>, fillcolor="#399de5ff"] ;
669 -> 671 ;
672 [label=<X<SUB>10</SUB> &le; 258268.5<br/>gini = 0.444<br/>samples = 3<br/>value = [1, 2]>, fillcolor="#399de57f"] ;
638 -> 672 ;
673 [label=<gini = 0.0<br/>samples = 1<br/>value = [1, 0]>, fillcolor="#e58139ff"] ;
672 -> 673 ;
674 [label=<gini = 0.0<br/>samples = 2<br/>value = [0, 2]>, fillcolor="#399de5ff"] ;
672 -> 674 ;
675 [label=<X<SUB>10</SUB> &le; 24352.5<br/>gini = 0.245<br/>samples = 119<br/>value = [102, 17]>, fillcolor="#e58139d4"] ;
11 -> 675 ;
676 [label=<gini = 0.0<br/>samples = 1<br/>value = [0, 1]>, fillcolor="#399de5ff"] ;
675 -> 676 ;
677 [label=<X<SUB>26</SUB> &le; 0.5<br/>gini = 0.234<br/>samples = 118<br/>value = [102, 16]>, fillcolor="#e58139d7"] ;
675 -> 677 ;
678 [label=<X<SUB>80</SUB> &le; 0.5<br/>gini = 0.224<br/>samples = 117<br/>value = [102, 15]>, fillcolor="#e58139da"] ;
677 -> 678 ;
679 [label=<X<SUB>10</SUB> &le; 169164.0<br/>gini = 0.212<br/>samples = 116<br/>value = [102, 14]>, fillcolor="#e58139dc"] ;
678 -> 679 ;
680 [label=<X<SUB>8</SUB> &le; 45.5<br/>gini = 0.311<br/>samples = 52<br/>value = [42, 10]>, fillcolor="#e58139c2"] ;
679 -> 680 ;
681 [label=<X<SUB>10</SUB> &le; 164090.0<br/>gini = 0.273<br/>samples = 49<br/>value = [41, 8]>, fillcolor="#e58139cd"] ;
680 -> 681 ;
682 [label=<X<SUB>14</SUB> &le; 0.5<br/>gini = 0.227<br/>samples = 46<br/>value = [40, 6]>, fillcolor="#e58139d9"] ;
681 -> 682 ;
683 [label=<X<SUB>0</SUB> &le; 33.5<br/>gini = 0.157<br/>samples = 35<br/>value = [32, 3]>, fillcolor="#e58139e7"] ;
682 -> 683 ;
684 [label=<X<SUB>38</SUB> &le; 0.5<br/>gini = 0.444<br/>samples = 6<br/>value = [4, 2]>, fillcolor="#e581397f"] ;
683 -> 684 ;
685 [label=<X<SUB>12</SUB> &le; 0.5<br/>gini = 0.32<br/>samples = 5<br/>value = [4, 1]>, fillcolor="#e58139bf"] ;
684 -> 685 ;
686 [label=<gini = 0.0<br/>samples = 4<br/>value = [4, 0]>, fillcolor="#e58139ff"] ;
685 -> 686 ;
687 [label=<gini = 0.0<br/>samples = 1<br/>value = [0, 1]>, fillcolor="#399de5ff"] ;
685 -> 687 ;
688 [label=<gini = 0.0<br/>samples = 1<br/>value = [0, 1]>, fillcolor="#399de5ff"] ;
684 -> 688 ;
689 [label=<X<SUB>30</SUB> &le; 0.5<br/>gini = 0.067<br/>samples = 29<br/>value = [28, 1]>, fillcolor="#e58139f6"] ;
683 -> 689 ;
690 [label=<gini = 0.0<br/>samples = 25<br/>value = [25, 0]>, fillcolor="#e58139ff"] ;
689 -> 690 ;
691 [label=<X<SUB>0</SUB> &le; 44.5<br/>gini = 0.375<br/>samples = 4<br/>value = [3, 1]>, fillcolor="#e58139aa"] ;
689 -> 691 ;
692 [label=<gini = 0.0<br/>samples = 3<br/>value = [3, 0]>, fillcolor="#e58139ff"] ;
691 -> 692 ;
693 [label=<gini = 0.0<br/>samples = 1<br/>value = [0, 1]>, fillcolor="#399de5ff"] ;
691 -> 693 ;
694 [label=<X<SUB>10</SUB> &le; 95250.0<br/>gini = 0.397<br/>samples = 11<br/>value = [8, 3]>, fillcolor="#e581399f"] ;
682 -> 694 ;
695 [label=<X<SUB>10</SUB> &le; 28795.0<br/>gini = 0.219<br/>samples = 8<br/>value = [7, 1]>, fillcolor="#e58139db"] ;
694 -> 695 ;
696 [label=<gini = 0.0<br/>samples = 1<br/>value = [0, 1]>, fillcolor="#399de5ff"] ;
695 -> 696 ;
697 [label=<gini = 0.0<br/>samples = 7<br/>value = [7, 0]>, fillcolor="#e58139ff"] ;
695 -> 697 ;
698 [label=<X<SUB>20</SUB> &le; 0.5<br/>gini = 0.444<br/>samples = 3<br/>value = [1, 2]>, fillcolor="#399de57f"] ;
694 -> 698 ;
699 [label=<gini = 0.0<br/>samples = 1<br/>value = [1, 0]>, fillcolor="#e58139ff"] ;
698 -> 699 ;
700 [label=<gini = 0.0<br/>samples = 2<br/>value = [0, 2]>, fillcolor="#399de5ff"] ;
698 -> 700 ;
701 [label=<X<SUB>13</SUB> &le; 0.5<br/>gini = 0.444<br/>samples = 3<br/>value = [1, 2]>, fillcolor="#399de57f"] ;
681 -> 701 ;
702 [label=<gini = 0.0<br/>samples = 2<br/>value = [0, 2]>, fillcolor="#399de5ff"] ;
701 -> 702 ;
703 [label=<gini = 0.0<br/>samples = 1<br/>value = [1, 0]>, fillcolor="#e58139ff"] ;
701 -> 703 ;
704 [label=<X<SUB>19</SUB> &le; 0.5<br/>gini = 0.444<br/>samples = 3<br/>value = [1, 2]>, fillcolor="#399de57f"] ;
680 -> 704 ;
705 [label=<gini = 0.0<br/>samples = 1<br/>value = [1, 0]>, fillcolor="#e58139ff"] ;
704 -> 705 ;
706 [label=<gini = 0.0<br/>samples = 2<br/>value = [0, 2]>, fillcolor="#399de5ff"] ;
704 -> 706 ;
707 [label=<X<SUB>38</SUB> &le; 0.5<br/>gini = 0.117<br/>samples = 64<br/>value = [60, 4]>, fillcolor="#e58139ee"] ;
679 -> 707 ;
708 [label=<X<SUB>34</SUB> &le; 0.5<br/>gini = 0.065<br/>samples = 59<br/>value = [57, 2]>, fillcolor="#e58139f6"] ;
707 -> 708 ;
709 [label=<X<SUB>8</SUB> &le; 43.5<br/>gini = 0.035<br/>samples = 56<br/>value = [55, 1]>, fillcolor="#e58139fa"] ;
708 -> 709 ;
710 [label=<gini = 0.0<br/>samples = 48<br/>value = [48, 0]>, fillcolor="#e58139ff"] ;
709 -> 710 ;
711 [label=<X<SUB>10</SUB> &le; 191290.0<br/>gini = 0.219<br/>samples = 8<br/>value = [7, 1]>, fillcolor="#e58139db"] ;
709 -> 711 ;
712 [label=<X<SUB>5</SUB> &le; 0.5<br/>gini = 0.5<br/>samples = 2<br/>value = [1, 1]>, fillcolor="#e5813900"] ;
711 -> 712 ;
713 [label=<gini = 0.0<br/>samples = 1<br/>value = [0, 1]>, fillcolor="#399de5ff"] ;
712 -> 713 ;
714 [label=<gini = 0.0<br/>samples = 1<br/>value = [1, 0]>, fillcolor="#e58139ff"] ;
712 -> 714 ;
715 [label=<gini = 0.0<br/>samples = 6<br/>value = [6, 0]>, fillcolor="#e58139ff"] ;
711 -> 715 ;
716 [label=<X<SUB>10</SUB> &le; 227986.0<br/>gini = 0.444<br/>samples = 3<br/>value = [2, 1]>, fillcolor="#e581397f"] ;
708 -> 716 ;
717 [label=<gini = 0.0<br/>samples = 2<br/>value = [2, 0]>, fillcolor="#e58139ff"] ;
716 -> 717 ;
718 [label=<gini = 0.0<br/>samples = 1<br/>value = [0, 1]>, fillcolor="#399de5ff"] ;
716 -> 718 ;
719 [label=<X<SUB>10</SUB> &le; 241245.0<br/>gini = 0.48<br/>samples = 5<br/>value = [3, 2]>, fillcolor="#e5813955"] ;
707 -> 719 ;
720 [label=<gini = 0.0<br/>samples = 1<br/>value = [0, 1]>, fillcolor="#399de5ff"] ;
719 -> 720 ;
721 [label=<X<SUB>8</SUB> &le; 27.0<br/>gini = 0.375<br/>samples = 4<br/>value = [3, 1]>, fillcolor="#e58139aa"] ;
719 -> 721 ;
722 [label=<gini = 0.0<br/>samples = 1<br/>value = [0, 1]>, fillcolor="#399de5ff"] ;
721 -> 722 ;
723 [label=<gini = 0.0<br/>samples = 3<br/>value = [3, 0]>, fillcolor="#e58139ff"] ;
721 -> 723 ;
724 [label=<gini = 0.0<br/>samples = 1<br/>value = [0, 1]>, fillcolor="#399de5ff"] ;
678 -> 724 ;
725 [label=<gini = 0.0<br/>samples = 1<br/>value = [0, 1]>, fillcolor="#399de5ff"] ;
677 -> 725 ;
726 [label=<X<SUB>23</SUB> &le; 0.5<br/>gini = 0.223<br/>samples = 619<br/>value = [540, 79]>, fillcolor="#e58139da"] ;
10 -> 726 ;
727 [label=<X<SUB>27</SUB> &le; 0.5<br/>gini = 0.213<br/>samples = 603<br/>value = [530, 73]>, fillcolor="#e58139dc"] ;
726 -> 727 ;
728 [label=<X<SUB>36</SUB> &le; 0.5<br/>gini = 0.191<br/>samples = 532<br/>value = [475, 57]>, fillcolor="#e58139e0"] ;
727 -> 728 ;
729 [label=<X<SUB>8</SUB> &le; 18.5<br/>gini = 0.189<br/>samples = 531<br/>value = [475, 56]>, fillcolor="#e58139e1"] ;
728 -> 729 ;
730 [label=<gini = 0.0<br/>samples = 1<br/>value = [0, 1]>, fillcolor="#399de5ff"] ;
729 -> 730 ;
731 [label=<X<SUB>77</SUB> &le; 0.5<br/>gini = 0.186<br/>samples = 530<br/>value = [475, 55]>, fillcolor="#e58139e1"] ;
729 -> 731 ;
732 [label=<X<SUB>9</SUB> &le; 1929.0<br/>gini = 0.183<br/>samples = 529<br/>value = [475, 54]>, fillcolor="#e58139e2"] ;
731 -> 732 ;
733 [label=<X<SUB>63</SUB> &le; 0.5<br/>gini = 0.177<br/>samples = 520<br/>value = [469, 51]>, fillcolor="#e58139e3"] ;
732 -> 733 ;
734 [label=<X<SUB>55</SUB> &le; 0.5<br/>gini = 0.172<br/>samples = 515<br/>value = [466, 49]>, fillcolor="#e58139e4"] ;
733 -> 734 ;
735 [label=<X<SUB>6</SUB> &le; 7.5<br/>gini = 0.168<br/>samples = 509<br/>value = [462, 47]>, fillcolor="#e58139e5"] ;
734 -> 735 ;
736 [label=<gini = 0.0<br/>samples = 42<br/>value = [42, 0]>, fillcolor="#e58139ff"] ;
735 -> 736 ;
737 [label=<X<SUB>8</SUB> &le; 20.5<br/>gini = 0.181<br/>samples = 467<br/>value = [420, 47]>, fillcolor="#e58139e2"] ;
735 -> 737 ;
738 [label=<X<SUB>0</SUB> &le; 53.5<br/>gini = 0.444<br/>samples = 6<br/>value = [4, 2]>, fillcolor="#e581397f"] ;
737 -> 738 ;
739 [label=<gini = 0.0<br/>samples = 4<br/>value = [4, 0]>, fillcolor="#e58139ff"] ;
738 -> 739 ;
740 [label=<gini = 0.0<br/>samples = 2<br/>value = [0, 2]>, fillcolor="#399de5ff"] ;
738 -> 740 ;
741 [label=<X<SUB>59</SUB> &le; 0.5<br/>gini = 0.176<br/>samples = 461<br/>value = [416, 45]>, fillcolor="#e58139e3"] ;
737 -> 741 ;
742 [label=<X<SUB>21</SUB> &le; 0.5<br/>gini = 0.173<br/>samples = 459<br/>value = [415, 44]>, fillcolor="#e58139e4"] ;
741 -> 742 ;
743 [label=<X<SUB>0</SUB> &le; 54.5<br/>gini = 0.17<br/>samples = 457<br/>value = [414, 43]>, fillcolor="#e58139e5"] ;
742 -> 743 ;
744 [label=<X<SUB>8</SUB> &le; 37.5<br/>gini = 0.207<br/>samples = 247<br/>value = [218, 29]>, fillcolor="#e58139dd"] ;
743 -> 744 ;
745 [label=<X<SUB>10</SUB> &le; 187950.5<br/>gini = 0.168<br/>samples = 173<br/>value = [157, 16]>, fillcolor="#e58139e5"] ;
744 -> 745 ;
746 [label=<X<SUB>0</SUB> &le; 53.5<br/>gini = 0.085<br/>samples = 90<br/>value = [86, 4]>, fillcolor="#e58139f3"] ;
745 -> 746 ;
747 [label=<X<SUB>30</SUB> &le; 0.5<br/>gini = 0.067<br/>samples = 86<br/>value = [83, 3]>, fillcolor="#e58139f6"] ;
746 -> 747 ;
748 [label=<X<SUB>25</SUB> &le; 0.5<br/>gini = 0.048<br/>samples = 81<br/>value = [79, 2]>, fillcolor="#e58139f9"] ;
747 -> 748 ;
749 [label=<X<SUB>49</SUB> &le; 0.5<br/>gini = 0.027<br/>samples = 74<br/>value = [73, 1]>, fillcolor="#e58139fc"] ;
748 -> 749 ;
750 [label=<gini = 0.0<br/>samples = 66<br/>value = [66, 0]>, fillcolor="#e58139ff"] ;
749 -> 750 ;
751 [label=<X<SUB>10</SUB> &le; 98403.0<br/>gini = 0.219<br/>samples = 8<br/>value = [7, 1]>, fillcolor="#e58139db"] ;
749 -> 751 ;
752 [label=<X<SUB>4</SUB> &le; 0.5<br/>gini = 0.5<br/>samples = 2<br/>value = [1, 1]>, fillcolor="#e5813900"] ;
751 -> 752 ;
753 [label=<gini = 0.0<br/>samples = 1<br/>value = [1, 0]>, fillcolor="#e58139ff"] ;
752 -> 753 ;
754 [label=<gini = 0.0<br/>samples = 1<br/>value = [0, 1]>, fillcolor="#399de5ff"] ;
752 -> 754 ;
755 [label=<gini = 0.0<br/>samples = 6<br/>value = [6, 0]>, fillcolor="#e58139ff"] ;
751 -> 755 ;
756 [label=<X<SUB>8</SUB> &le; 26.0<br/>gini = 0.245<br/>samples = 7<br/>value = [6, 1]>, fillcolor="#e58139d4"] ;
748 -> 756 ;
757 [label=<X<SUB>10</SUB> &le; 82490.0<br/>gini = 0.5<br/>samples = 2<br/>value = [1, 1]>, fillcolor="#e5813900"] ;
756 -> 757 ;
758 [label=<gini = 0.0<br/>samples = 1<br/>value = [1, 0]>, fillcolor="#e58139ff"] ;
757 -> 758 ;
759 [label=<gini = 0.0<br/>samples = 1<br/>value = [0, 1]>, fillcolor="#399de5ff"] ;
757 -> 759 ;
760 [label=<gini = 0.0<br/>samples = 5<br/>value = [5, 0]>, fillcolor="#e58139ff"] ;
756 -> 760 ;
761 [label=<X<SUB>0</SUB> &le; 49.5<br/>gini = 0.32<br/>samples = 5<br/>value = [4, 1]>, fillcolor="#e58139bf"] ;
747 -> 761 ;
762 [label=<gini = 0.0<br/>samples = 1<br/>value = [0, 1]>, fillcolor="#399de5ff"] ;
761 -> 762 ;
763 [label=<gini = 0.0<br/>samples = 4<br/>value = [4, 0]>, fillcolor="#e58139ff"] ;
761 -> 763 ;
764 [label=<X<SUB>14</SUB> &le; 0.5<br/>gini = 0.375<br/>samples = 4<br/>value = [3, 1]>, fillcolor="#e58139aa"] ;
746 -> 764 ;
765 [label=<gini = 0.0<br/>samples = 3<br/>value = [3, 0]>, fillcolor="#e58139ff"] ;
764 -> 765 ;
766 [label=<gini = 0.0<br/>samples = 1<br/>value = [0, 1]>, fillcolor="#399de5ff"] ;
764 -> 766 ;
767 [label=<X<SUB>10</SUB> &le; 191824.5<br/>gini = 0.247<br/>samples = 83<br/>value = [71, 12]>, fillcolor="#e58139d4"] ;
745 -> 767 ;
768 [label=<gini = 0.0<br/>samples = 2<br/>value = [0, 2]>, fillcolor="#399de5ff"] ;
767 -> 768 ;
769 [label=<X<SUB>66</SUB> &le; 0.5<br/>gini = 0.216<br/>samples = 81<br/>value = [71, 10]>, fillcolor="#e58139db"] ;
767 -> 769 ;
770 [label=<X<SUB>15</SUB> &le; 0.5<br/>gini = 0.184<br/>samples = 78<br/>value = [70, 8]>, fillcolor="#e58139e2"] ;
769 -> 770 ;
771 [label=<X<SUB>8</SUB> &le; 21.5<br/>gini = 0.133<br/>samples = 70<br/>value = [65, 5]>, fillcolor="#e58139eb"] ;
770 -> 771 ;
772 [label=<X<SUB>0</SUB> &le; 50.0<br/>gini = 0.5<br/>samples = 2<br/>value = [1, 1]>, fillcolor="#e5813900"] ;
771 -> 772 ;
773 [label=<gini = 0.0<br/>samples = 1<br/>value = [1, 0]>, fillcolor="#e58139ff"] ;
772 -> 773 ;
774 [label=<gini = 0.0<br/>samples = 1<br/>value = [0, 1]>, fillcolor="#399de5ff"] ;
772 -> 774 ;
775 [label=<X<SUB>10</SUB> &le; 236686.5<br/>gini = 0.111<br/>samples = 68<br/>value = [64, 4]>, fillcolor="#e58139ef"] ;
771 -> 775 ;
776 [label=<X<SUB>10</SUB> &le; 235494.5<br/>gini = 0.252<br/>samples = 27<br/>value = [23, 4]>, fillcolor="#e58139d3"] ;
775 -> 776 ;
777 [label=<X<SUB>10</SUB> &le; 212005.0<br/>gini = 0.204<br/>samples = 26<br/>value = [23, 3]>, fillcolor="#e58139de"] ;
776 -> 777 ;
778 [label=<gini = 0.0<br/>samples = 14<br/>value = [14, 0]>, fillcolor="#e58139ff"] ;
777 -> 778 ;
779 [label=<X<SUB>10</SUB> &le; 213885.0<br/>gini = 0.375<br/>samples = 12<br/>value = [9, 3]>, fillcolor="#e58139aa"] ;
777 -> 779 ;
780 [label=<gini = 0.0<br/>samples = 2<br/>value = [0, 2]>, fillcolor="#399de5ff"] ;
779 -> 780 ;
781 [label=<X<SUB>10</SUB> &le; 223845.5<br/>gini = 0.18<br/>samples = 10<br/>value = [9, 1]>, fillcolor="#e58139e3"] ;
779 -> 781 ;
782 [label=<gini = 0.0<br/>samples = 5<br/>value = [5, 0]>, fillcolor="#e58139ff"] ;
781 -> 782 ;
783 [label=<X<SUB>10</SUB> &le; 226790.5<br/>gini = 0.32<br/>samples = 5<br/>value = [4, 1]>, fillcolor="#e58139bf"] ;
781 -> 783 ;
784 [label=<gini = 0.0<br/>samples = 1<br/>value = [0, 1]>, fillcolor="#399de5ff"] ;
783 -> 784 ;
785 [label=<gini = 0.0<br/>samples = 4<br/>value = [4, 0]>, fillcolor="#e58139ff"] ;
783 -> 785 ;
786 [label=<gini = 0.0<br/>samples = 1<br/>value = [0, 1]>, fillcolor="#399de5ff"] ;
776 -> 786 ;
787 [label=<gini = 0.0<br/>samples = 41<br/>value = [41, 0]>, fillcolor="#e58139ff"] ;
775 -> 787 ;
788 [label=<X<SUB>14</SUB> &le; 0.5<br/>gini = 0.469<br/>samples = 8<br/>value = [5, 3]>, fillcolor="#e5813966"] ;
770 -> 788 ;
789 [label=<gini = 0.0<br/>samples = 4<br/>value = [4, 0]>, fillcolor="#e58139ff"] ;
788 -> 789 ;
790 [label=<X<SUB>8</SUB> &le; 34.0<br/>gini = 0.375<br/>samples = 4<br/>value = [1, 3]>, fillcolor="#399de5aa"] ;
788 -> 790 ;
791 [label=<gini = 0.0<br/>samples = 3<br/>value = [0, 3]>, fillcolor="#399de5ff"] ;
790 -> 791 ;
792 [label=<gini = 0.0<br/>samples = 1<br/>value = [1, 0]>, fillcolor="#e58139ff"] ;
790 -> 792 ;
793 [label=<X<SUB>17</SUB> &le; 0.5<br/>gini = 0.444<br/>samples = 3<br/>value = [1, 2]>, fillcolor="#399de57f"] ;
769 -> 793 ;
794 [label=<gini = 0.0<br/>samples = 2<br/>value = [0, 2]>, fillcolor="#399de5ff"] ;
793 -> 794 ;
795 [label=<gini = 0.0<br/>samples = 1<br/>value = [1, 0]>, fillcolor="#e58139ff"] ;
793 -> 795 ;
796 [label=<X<SUB>0</SUB> &le; 52.0<br/>gini = 0.29<br/>samples = 74<br/>value = [61, 13]>, fillcolor="#e58139c9"] ;
744 -> 796 ;
797 [label=<X<SUB>10</SUB> &le; 381987.5<br/>gini = 0.259<br/>samples = 72<br/>value = [61, 11]>, fillcolor="#e58139d1"] ;
796 -> 797 ;
798 [label=<X<SUB>0</SUB> &le; 50.0<br/>gini = 0.242<br/>samples = 71<br/>value = [61, 10]>, fillcolor="#e58139d5"] ;
797 -> 798 ;
799 [label=<X<SUB>10</SUB> &le; 38815.5<br/>gini = 0.363<br/>samples = 21<br/>value = [16, 5]>, fillcolor="#e58139af"] ;
798 -> 799 ;
800 [label=<gini = 0.0<br/>samples = 1<br/>value = [0, 1]>, fillcolor="#399de5ff"] ;
799 -> 800 ;
801 [label=<X<SUB>43</SUB> &le; 0.5<br/>gini = 0.32<br/>samples = 20<br/>value = [16, 4]>, fillcolor="#e58139bf"] ;
799 -> 801 ;
802 [label=<X<SUB>46</SUB> &le; 0.5<br/>gini = 0.266<br/>samples = 19<br/>value = [16, 3]>, fillcolor="#e58139cf"] ;
801 -> 802 ;
803 [label=<X<SUB>19</SUB> &le; 0.5<br/>gini = 0.198<br/>samples = 18<br/>value = [16, 2]>, fillcolor="#e58139df"] ;
802 -> 803 ;
804 [label=<X<SUB>13</SUB> &le; 0.5<br/>gini = 0.408<br/>samples = 7<br/>value = [5, 2]>, fillcolor="#e5813999"] ;
803 -> 804 ;
805 [label=<X<SUB>44</SUB> &le; 0.5<br/>gini = 0.444<br/>samples = 3<br/>value = [1, 2]>, fillcolor="#399de57f"] ;
804 -> 805 ;
806 [label=<gini = 0.0<br/>samples = 2<br/>value = [0, 2]>, fillcolor="#399de5ff"] ;
805 -> 806 ;
807 [label=<gini = 0.0<br/>samples = 1<br/>value = [1, 0]>, fillcolor="#e58139ff"] ;
805 -> 807 ;
808 [label=<gini = 0.0<br/>samples = 4<br/>value = [4, 0]>, fillcolor="#e58139ff"] ;
804 -> 808 ;
809 [label=<gini = 0.0<br/>samples = 11<br/>value = [11, 0]>, fillcolor="#e58139ff"] ;
803 -> 809 ;
810 [label=<gini = 0.0<br/>samples = 1<br/>value = [0, 1]>, fillcolor="#399de5ff"] ;
802 -> 810 ;
811 [label=<gini = 0.0<br/>samples = 1<br/>value = [0, 1]>, fillcolor="#399de5ff"] ;
801 -> 811 ;
812 [label=<X<SUB>51</SUB> &le; 0.5<br/>gini = 0.18<br/>samples = 50<br/>value = [45, 5]>, fillcolor="#e58139e3"] ;
798 -> 812 ;
813 [label=<X<SUB>9</SUB> &le; 783.0<br/>gini = 0.153<br/>samples = 48<br/>value = [44, 4]>, fillcolor="#e58139e8"] ;
812 -> 813 ;
814 [label=<X<SUB>6</SUB> &le; 12.5<br/>gini = 0.122<br/>samples = 46<br/>value = [43, 3]>, fillcolor="#e58139ed"] ;
813 -> 814 ;
815 [label=<X<SUB>8</SUB> &le; 46.5<br/>gini = 0.089<br/>samples = 43<br/>value = [41, 2]>, fillcolor="#e58139f3"] ;
814 -> 815 ;
816 [label=<X<SUB>45</SUB> &le; 0.5<br/>gini = 0.049<br/>samples = 40<br/>value = [39, 1]>, fillcolor="#e58139f8"] ;
815 -> 816 ;
817 [label=<gini = 0.0<br/>samples = 36<br/>value = [36, 0]>, fillcolor="#e58139ff"] ;
816 -> 817 ;
818 [label=<X<SUB>18</SUB> &le; 0.5<br/>gini = 0.375<br/>samples = 4<br/>value = [3, 1]>, fillcolor="#e58139aa"] ;
816 -> 818 ;
819 [label=<gini = 0.0<br/>samples = 3<br/>value = [3, 0]>, fillcolor="#e58139ff"] ;
818 -> 819 ;
820 [label=<gini = 0.0<br/>samples = 1<br/>value = [0, 1]>, fillcolor="#399de5ff"] ;
818 -> 820 ;
821 [label=<X<SUB>19</SUB> &le; 0.5<br/>gini = 0.444<br/>samples = 3<br/>value = [2, 1]>, fillcolor="#e581397f"] ;
815 -> 821 ;
822 [label=<gini = 0.0<br/>samples = 1<br/>value = [0, 1]>, fillcolor="#399de5ff"] ;
821 -> 822 ;
823 [label=<gini = 0.0<br/>samples = 2<br/>value = [2, 0]>, fillcolor="#e58139ff"] ;
821 -> 823 ;
824 [label=<X<SUB>10</SUB> &le; 127358.0<br/>gini = 0.444<br/>samples = 3<br/>value = [2, 1]>, fillcolor="#e581397f"] ;
814 -> 824 ;
825 [label=<gini = 0.0<br/>samples = 1<br/>value = [0, 1]>, fillcolor="#399de5ff"] ;
824 -> 825 ;
826 [label=<gini = 0.0<br/>samples = 2<br/>value = [2, 0]>, fillcolor="#e58139ff"] ;
824 -> 826 ;
827 [label=<X<SUB>19</SUB> &le; 0.5<br/>gini = 0.5<br/>samples = 2<br/>value = [1, 1]>, fillcolor="#e5813900"] ;
813 -> 827 ;
828 [label=<gini = 0.0<br/>samples = 1<br/>value = [1, 0]>, fillcolor="#e58139ff"] ;
827 -> 828 ;
829 [label=<gini = 0.0<br/>samples = 1<br/>value = [0, 1]>, fillcolor="#399de5ff"] ;
827 -> 829 ;
830 [label=<X<SUB>10</SUB> &le; 125814.5<br/>gini = 0.5<br/>samples = 2<br/>value = [1, 1]>, fillcolor="#e5813900"] ;
812 -> 830 ;
831 [label=<gini = 0.0<br/>samples = 1<br/>value = [1, 0]>, fillcolor="#e58139ff"] ;
830 -> 831 ;
832 [label=<gini = 0.0<br/>samples = 1<br/>value = [0, 1]>, fillcolor="#399de5ff"] ;
830 -> 832 ;
833 [label=<gini = 0.0<br/>samples = 1<br/>value = [0, 1]>, fillcolor="#399de5ff"] ;
797 -> 833 ;
834 [label=<gini = 0.0<br/>samples = 2<br/>value = [0, 2]>, fillcolor="#399de5ff"] ;
796 -> 834 ;
835 [label=<X<SUB>10</SUB> &le; 30485.5<br/>gini = 0.124<br/>samples = 210<br/>value = [196, 14]>, fillcolor="#e58139ed"] ;
743 -> 835 ;
836 [label=<X<SUB>8</SUB> &le; 31.5<br/>gini = 0.444<br/>samples = 3<br/>value = [1, 2]>, fillcolor="#399de57f"] ;
835 -> 836 ;
837 [label=<gini = 0.0<br/>samples = 1<br/>value = [1, 0]>, fillcolor="#e58139ff"] ;
836 -> 837 ;
838 [label=<gini = 0.0<br/>samples = 2<br/>value = [0, 2]>, fillcolor="#399de5ff"] ;
836 -> 838 ;
839 [label=<X<SUB>51</SUB> &le; 0.5<br/>gini = 0.109<br/>samples = 207<br/>value = [195, 12]>, fillcolor="#e58139ef"] ;
835 -> 839 ;
840 [label=<X<SUB>10</SUB> &le; 320844.5<br/>gini = 0.102<br/>samples = 205<br/>value = [194, 11]>, fillcolor="#e58139f1"] ;
839 -> 840 ;
841 [label=<X<SUB>0</SUB> &le; 60.0<br/>gini = 0.083<br/>samples = 184<br/>value = [176, 8]>, fillcolor="#e58139f3"] ;
840 -> 841 ;
842 [label=<gini = 0.0<br/>samples = 44<br/>value = [44, 0]>, fillcolor="#e58139ff"] ;
841 -> 842 ;
843 [label=<X<SUB>12</SUB> &le; 0.5<br/>gini = 0.108<br/>samples = 140<br/>value = [132, 8]>, fillcolor="#e58139f0"] ;
841 -> 843 ;
844 [label=<X<SUB>10</SUB> &le; 76920.0<br/>gini = 0.082<br/>samples = 117<br/>value = [112, 5]>, fillcolor="#e58139f4"] ;
843 -> 844 ;
845 [label=<X<SUB>10</SUB> &le; 66439.5<br/>gini = 0.211<br/>samples = 25<br/>value = [22, 3]>, fillcolor="#e58139dc"] ;
844 -> 845 ;
846 [label=<X<SUB>10</SUB> &le; 55367.0<br/>gini = 0.153<br/>samples = 24<br/>value = [22, 2]>, fillcolor="#e58139e8"] ;
845 -> 846 ;
847 [label=<X<SUB>15</SUB> &le; 0.5<br/>gini = 0.091<br/>samples = 21<br/>value = [20, 1]>, fillcolor="#e58139f2"] ;
846 -> 847 ;
848 [label=<gini = 0.0<br/>samples = 15<br/>value = [15, 0]>, fillcolor="#e58139ff"] ;
847 -> 848 ;
849 [label=<X<SUB>0</SUB> &le; 66.0<br/>gini = 0.278<br/>samples = 6<br/>value = [5, 1]>, fillcolor="#e58139cc"] ;
847 -> 849 ;
850 [label=<gini = 0.0<br/>samples = 4<br/>value = [4, 0]>, fillcolor="#e58139ff"] ;
849 -> 850 ;
851 [label=<X<SUB>8</SUB> &le; 39.0<br/>gini = 0.5<br/>samples = 2<br/>value = [1, 1]>, fillcolor="#e5813900"] ;
849 -> 851 ;
852 [label=<gini = 0.0<br/>samples = 1<br/>value = [0, 1]>, fillcolor="#399de5ff"] ;
851 -> 852 ;
853 [label=<gini = 0.0<br/>samples = 1<br/>value = [1, 0]>, fillcolor="#e58139ff"] ;
851 -> 853 ;
854 [label=<X<SUB>10</SUB> &le; 58227.0<br/>gini = 0.444<br/>samples = 3<br/>value = [2, 1]>, fillcolor="#e581397f"] ;
846 -> 854 ;
855 [label=<gini = 0.0<br/>samples = 1<br/>value = [0, 1]>, fillcolor="#399de5ff"] ;
854 -> 855 ;
856 [label=<gini = 0.0<br/>samples = 2<br/>value = [2, 0]>, fillcolor="#e58139ff"] ;
854 -> 856 ;
857 [label=<gini = 0.0<br/>samples = 1<br/>value = [0, 1]>, fillcolor="#399de5ff"] ;
845 -> 857 ;
858 [label=<X<SUB>40</SUB> &le; 0.5<br/>gini = 0.043<br/>samples = 92<br/>value = [90, 2]>, fillcolor="#e58139f9"] ;
844 -> 858 ;
859 [label=<X<SUB>29</SUB> &le; 0.5<br/>gini = 0.022<br/>samples = 89<br/>value = [88, 1]>, fillcolor="#e58139fc"] ;
858 -> 859 ;
860 [label=<gini = 0.0<br/>samples = 81<br/>value = [81, 0]>, fillcolor="#e58139ff"] ;
859 -> 860 ;
861 [label=<X<SUB>0</SUB> &le; 83.0<br/>gini = 0.219<br/>samples = 8<br/>value = [7, 1]>, fillcolor="#e58139db"] ;
859 -> 861 ;
862 [label=<gini = 0.0<br/>samples = 7<br/>value = [7, 0]>, fillcolor="#e58139ff"] ;
861 -> 862 ;
863 [label=<gini = 0.0<br/>samples = 1<br/>value = [0, 1]>, fillcolor="#399de5ff"] ;
861 -> 863 ;
864 [label=<X<SUB>20</SUB> &le; 0.5<br/>gini = 0.444<br/>samples = 3<br/>value = [2, 1]>, fillcolor="#e581397f"] ;
858 -> 864 ;
865 [label=<gini = 0.0<br/>samples = 1<br/>value = [0, 1]>, fillcolor="#399de5ff"] ;
864 -> 865 ;
866 [label=<gini = 0.0<br/>samples = 2<br/>value = [2, 0]>, fillcolor="#e58139ff"] ;
864 -> 866 ;
867 [label=<X<SUB>8</SUB> &le; 40.0<br/>gini = 0.227<br/>samples = 23<br/>value = [20, 3]>, fillcolor="#e58139d9"] ;
843 -> 867 ;
868 [label=<X<SUB>10</SUB> &le; 133983.0<br/>gini = 0.111<br/>samples = 17<br/>value = [16, 1]>, fillcolor="#e58139ef"] ;
867 -> 868 ;
869 [label=<X<SUB>10</SUB> &le; 106859.0<br/>gini = 0.278<br/>samples = 6<br/>value = [5, 1]>, fillcolor="#e58139cc"] ;
868 -> 869 ;
870 [label=<gini = 0.0<br/>samples = 5<br/>value = [5, 0]>, fillcolor="#e58139ff"] ;
